=== Run information ===

Scheme:       weka.classifiers.trees.J48 -R -N 4 -Q 1 -M 2
Relation:     ds1Train-weka.filters.unsupervised.attribute.NumericToBinary-Rfirst-last-weka.filters.unsupervised.attribute.NumericToNominal-Rfirst-last
Instances:    1960
Attributes:   1025
              [list of attributes omitted]
Test mode:    user supplied test set:  size unknown (reading incrementally)

=== Classifier model (full training set) ===

J48 pruned tree
------------------

f544_binarized = 0
|   f536_binarized = 0: 6 (2.0)
|   f536_binarized = 1
|   |   f509_binarized = 0: 18 (2.0/1.0)
|   |   f509_binarized = 1
|   |   |   f567_binarized = 0: 0 (2.0/1.0)
|   |   |   f567_binarized = 1
|   |   |   |   f809_binarized = 0: 47 (6.0/1.0)
|   |   |   |   f809_binarized = 1
|   |   |   |   |   f525_binarized = 0: 27 (4.0/3.0)
|   |   |   |   |   f525_binarized = 1
|   |   |   |   |   |   f39_binarized = 0: 3 (6.0)
|   |   |   |   |   |   f39_binarized = 1
|   |   |   |   |   |   |   f956_binarized = 0: 14 (4.0)
|   |   |   |   |   |   |   f956_binarized = 1
|   |   |   |   |   |   |   |   f46_binarized = 0
|   |   |   |   |   |   |   |   |   f168_binarized = 0: 40 (3.0/1.0)
|   |   |   |   |   |   |   |   |   f168_binarized = 1: 3 (4.0)
|   |   |   |   |   |   |   |   f46_binarized = 1: 38 (33.0/18.0)
f544_binarized = 1
|   f513_binarized = 0
|   |   f395_binarized = 0: 47 (7.0/5.0)
|   |   f395_binarized = 1
|   |   |   f391_binarized = 0: 0 (3.0/2.0)
|   |   |   f391_binarized = 1
|   |   |   |   f453_binarized = 0: 30 (4.0)
|   |   |   |   f453_binarized = 1
|   |   |   |   |   f557_binarized = 0: 4 (2.0/1.0)
|   |   |   |   |   f557_binarized = 1
|   |   |   |   |   |   f331_binarized = 0: 30 (2.0)
|   |   |   |   |   |   f331_binarized = 1
|   |   |   |   |   |   |   f1017_binarized = 0: 2 (7.0/2.0)
|   |   |   |   |   |   |   f1017_binarized = 1: 26 (47.0/23.0)
|   f513_binarized = 1
|   |   f16_binarized = 0
|   |   |   f509_binarized = 0
|   |   |   |   f27_binarized = 0: 6 (2.0/1.0)
|   |   |   |   f27_binarized = 1: 14 (28.0/18.0)
|   |   |   f509_binarized = 1
|   |   |   |   f48_binarized = 0
|   |   |   |   |   f644_binarized = 0
|   |   |   |   |   |   f43_binarized = 0: 5 (2.0/1.0)
|   |   |   |   |   |   f43_binarized = 1
|   |   |   |   |   |   |   f75_binarized = 0: 2 (4.0/2.0)
|   |   |   |   |   |   |   f75_binarized = 1
|   |   |   |   |   |   |   |   f605_binarized = 0: 6 (5.0/1.0)
|   |   |   |   |   |   |   |   f605_binarized = 1: 16 (9.0/2.0)
|   |   |   |   |   f644_binarized = 1
|   |   |   |   |   |   f196_binarized = 0
|   |   |   |   |   |   |   f34_binarized = 0: 12 (2.0/1.0)
|   |   |   |   |   |   |   f34_binarized = 1
|   |   |   |   |   |   |   |   f50_binarized = 0
|   |   |   |   |   |   |   |   |   f200_binarized = 0: 39 (2.0)
|   |   |   |   |   |   |   |   |   f200_binarized = 1: 17 (8.0)
|   |   |   |   |   |   |   |   f50_binarized = 1: 10 (3.0/2.0)
|   |   |   |   |   |   f196_binarized = 1
|   |   |   |   |   |   |   f61_binarized = 0
|   |   |   |   |   |   |   |   f14_binarized = 0
|   |   |   |   |   |   |   |   |   f598_binarized = 0: 5 (2.0)
|   |   |   |   |   |   |   |   |   f598_binarized = 1: 19 (19.0/8.0)
|   |   |   |   |   |   |   |   f14_binarized = 1: 28 (3.0/2.0)
|   |   |   |   |   |   |   f61_binarized = 1
|   |   |   |   |   |   |   |   f52_binarized = 0
|   |   |   |   |   |   |   |   |   f1020_binarized = 0: 25 (9.0/2.0)
|   |   |   |   |   |   |   |   |   f1020_binarized = 1
|   |   |   |   |   |   |   |   |   |   f699_binarized = 0
|   |   |   |   |   |   |   |   |   |   |   f402_binarized = 0: 1 (4.0/1.0)
|   |   |   |   |   |   |   |   |   |   |   f402_binarized = 1: 3 (4.0)
|   |   |   |   |   |   |   |   |   |   f699_binarized = 1
|   |   |   |   |   |   |   |   |   |   |   f537_binarized = 0: 9 (20.0/11.0)
|   |   |   |   |   |   |   |   |   |   |   f537_binarized = 1
|   |   |   |   |   |   |   |   |   |   |   |   f695_binarized = 0: 9 (6.0/3.0)
|   |   |   |   |   |   |   |   |   |   |   |   f695_binarized = 1
|   |   |   |   |   |   |   |   |   |   |   |   |   f854_binarized = 0: 1 (9.0/6.0)
|   |   |   |   |   |   |   |   |   |   |   |   |   f854_binarized = 1
|   |   |   |   |   |   |   |   |   |   |   |   |   |   f726_binarized = 0: 17 (11.0/2.0)
|   |   |   |   |   |   |   |   |   |   |   |   |   |   f726_binarized = 1
|   |   |   |   |   |   |   |   |   |   |   |   |   |   |   f858_binarized = 0: 1 (4.0/1.0)
|   |   |   |   |   |   |   |   |   |   |   |   |   |   |   f858_binarized = 1
|   |   |   |   |   |   |   |   |   |   |   |   |   |   |   |   f115_binarized = 0
|   |   |   |   |   |   |   |   |   |   |   |   |   |   |   |   |   f11_binarized = 0: 17 (2.0/1.0)
|   |   |   |   |   |   |   |   |   |   |   |   |   |   |   |   |   f11_binarized = 1: 37 (3.0/1.0)
|   |   |   |   |   |   |   |   |   |   |   |   |   |   |   |   f115_binarized = 1
|   |   |   |   |   |   |   |   |   |   |   |   |   |   |   |   |   f965_binarized = 0: 25 (7.0/3.0)
|   |   |   |   |   |   |   |   |   |   |   |   |   |   |   |   |   f965_binarized = 1
|   |   |   |   |   |   |   |   |   |   |   |   |   |   |   |   |   |   f1012_binarized = 0: 8 (24.0/13.0)
|   |   |   |   |   |   |   |   |   |   |   |   |   |   |   |   |   |   f1012_binarized = 1
|   |   |   |   |   |   |   |   |   |   |   |   |   |   |   |   |   |   |   f952_binarized = 0: 8 (3.0)
|   |   |   |   |   |   |   |   |   |   |   |   |   |   |   |   |   |   |   f952_binarized = 1
|   |   |   |   |   |   |   |   |   |   |   |   |   |   |   |   |   |   |   |   f691_binarized = 0: 8 (3.0/2.0)
|   |   |   |   |   |   |   |   |   |   |   |   |   |   |   |   |   |   |   |   f691_binarized = 1
|   |   |   |   |   |   |   |   |   |   |   |   |   |   |   |   |   |   |   |   |   f918_binarized = 0: 4 (2.0/1.0)
|   |   |   |   |   |   |   |   |   |   |   |   |   |   |   |   |   |   |   |   |   f918_binarized = 1
|   |   |   |   |   |   |   |   |   |   |   |   |   |   |   |   |   |   |   |   |   |   f18_binarized = 0
|   |   |   |   |   |   |   |   |   |   |   |   |   |   |   |   |   |   |   |   |   |   |   f26_binarized = 0: 5 (13.0/4.0)
|   |   |   |   |   |   |   |   |   |   |   |   |   |   |   |   |   |   |   |   |   |   |   f26_binarized = 1
|   |   |   |   |   |   |   |   |   |   |   |   |   |   |   |   |   |   |   |   |   |   |   |   f871_binarized = 0: 5 (2.0)
|   |   |   |   |   |   |   |   |   |   |   |   |   |   |   |   |   |   |   |   |   |   |   |   f871_binarized = 1
|   |   |   |   |   |   |   |   |   |   |   |   |   |   |   |   |   |   |   |   |   |   |   |   |   f180_binarized = 0: 17 (2.0/1.0)
|   |   |   |   |   |   |   |   |   |   |   |   |   |   |   |   |   |   |   |   |   |   |   |   |   f180_binarized = 1
|   |   |   |   |   |   |   |   |   |   |   |   |   |   |   |   |   |   |   |   |   |   |   |   |   |   f503_binarized = 0: 4 (2.0/1.0)
|   |   |   |   |   |   |   |   |   |   |   |   |   |   |   |   |   |   |   |   |   |   |   |   |   |   f503_binarized = 1
|   |   |   |   |   |   |   |   |   |   |   |   |   |   |   |   |   |   |   |   |   |   |   |   |   |   |   f58_binarized = 0: 15 (7.0)
|   |   |   |   |   |   |   |   |   |   |   |   |   |   |   |   |   |   |   |   |   |   |   |   |   |   |   f58_binarized = 1: 41 (41.0/23.0)
|   |   |   |   |   |   |   |   |   |   |   |   |   |   |   |   |   |   |   |   |   |   f18_binarized = 1: 8 (2.0/1.0)
|   |   |   |   |   |   |   |   f52_binarized = 1
|   |   |   |   |   |   |   |   |   f22_binarized = 0
|   |   |   |   |   |   |   |   |   |   f153_binarized = 0: 32 (4.0/1.0)
|   |   |   |   |   |   |   |   |   |   f153_binarized = 1
|   |   |   |   |   |   |   |   |   |   |   f334_binarized = 0: 31 (4.0)
|   |   |   |   |   |   |   |   |   |   |   f334_binarized = 1
|   |   |   |   |   |   |   |   |   |   |   |   f1017_binarized = 0: 2 (4.0)
|   |   |   |   |   |   |   |   |   |   |   |   f1017_binarized = 1
|   |   |   |   |   |   |   |   |   |   |   |   |   f871_binarized = 0: 6 (6.0/1.0)
|   |   |   |   |   |   |   |   |   |   |   |   |   f871_binarized = 1
|   |   |   |   |   |   |   |   |   |   |   |   |   |   f265_binarized = 0: 44 (5.0/1.0)
|   |   |   |   |   |   |   |   |   |   |   |   |   |   f265_binarized = 1: 18 (4.0/2.0)
|   |   |   |   |   |   |   |   |   f22_binarized = 1
|   |   |   |   |   |   |   |   |   |   f1001_binarized = 0
|   |   |   |   |   |   |   |   |   |   |   f201_binarized = 0: 17 (3.0/1.0)
|   |   |   |   |   |   |   |   |   |   |   f201_binarized = 1: 1 (2.0)
|   |   |   |   |   |   |   |   |   |   f1001_binarized = 1
|   |   |   |   |   |   |   |   |   |   |   f973_binarized = 0: 35 (13.0/6.0)
|   |   |   |   |   |   |   |   |   |   |   f973_binarized = 1
|   |   |   |   |   |   |   |   |   |   |   |   f845_binarized = 0: 17 (3.0/2.0)
|   |   |   |   |   |   |   |   |   |   |   |   f845_binarized = 1
|   |   |   |   |   |   |   |   |   |   |   |   |   f350_binarized = 0: 48 (2.0/1.0)
|   |   |   |   |   |   |   |   |   |   |   |   |   f350_binarized = 1
|   |   |   |   |   |   |   |   |   |   |   |   |   |   f75_binarized = 0: 9 (6.0/3.0)
|   |   |   |   |   |   |   |   |   |   |   |   |   |   f75_binarized = 1
|   |   |   |   |   |   |   |   |   |   |   |   |   |   |   f556_binarized = 0: 0 (9.0)
|   |   |   |   |   |   |   |   |   |   |   |   |   |   |   f556_binarized = 1
|   |   |   |   |   |   |   |   |   |   |   |   |   |   |   |   f269_binarized = 0: 0 (3.0)
|   |   |   |   |   |   |   |   |   |   |   |   |   |   |   |   f269_binarized = 1
|   |   |   |   |   |   |   |   |   |   |   |   |   |   |   |   |   f428_binarized = 0: 42 (5.0)
|   |   |   |   |   |   |   |   |   |   |   |   |   |   |   |   |   f428_binarized = 1
|   |   |   |   |   |   |   |   |   |   |   |   |   |   |   |   |   |   f209_binarized = 0
|   |   |   |   |   |   |   |   |   |   |   |   |   |   |   |   |   |   |   f112_binarized = 0
|   |   |   |   |   |   |   |   |   |   |   |   |   |   |   |   |   |   |   |   f562_binarized = 0
|   |   |   |   |   |   |   |   |   |   |   |   |   |   |   |   |   |   |   |   |   f79_binarized = 0: 8 (4.0)
|   |   |   |   |   |   |   |   |   |   |   |   |   |   |   |   |   |   |   |   |   f79_binarized = 1
|   |   |   |   |   |   |   |   |   |   |   |   |   |   |   |   |   |   |   |   |   |   f176_binarized = 0: 37 (3.0/1.0)
|   |   |   |   |   |   |   |   |   |   |   |   |   |   |   |   |   |   |   |   |   |   f176_binarized = 1: 8 (3.0)
|   |   |   |   |   |   |   |   |   |   |   |   |   |   |   |   |   |   |   |   f562_binarized = 1: 37 (2.0)
|   |   |   |   |   |   |   |   |   |   |   |   |   |   |   |   |   |   |   f112_binarized = 1: 34 (5.0/2.0)
|   |   |   |   |   |   |   |   |   |   |   |   |   |   |   |   |   |   f209_binarized = 1: 34 (17.0/1.0)
|   |   |   |   f48_binarized = 1
|   |   |   |   |   f475_binarized = 0: 14 (6.0/3.0)
|   |   |   |   |   f475_binarized = 1
|   |   |   |   |   |   f212_binarized = 0: 42 (27.0/15.0)
|   |   |   |   |   |   f212_binarized = 1
|   |   |   |   |   |   |   f652_binarized = 0: 15 (3.0/2.0)
|   |   |   |   |   |   |   f652_binarized = 1
|   |   |   |   |   |   |   |   f786_binarized = 0: 6 (3.0/2.0)
|   |   |   |   |   |   |   |   f786_binarized = 1
|   |   |   |   |   |   |   |   |   f756_binarized = 0: 32 (6.0/3.0)
|   |   |   |   |   |   |   |   |   f756_binarized = 1
|   |   |   |   |   |   |   |   |   |   f285_binarized = 0: 40 (3.0/1.0)
|   |   |   |   |   |   |   |   |   |   f285_binarized = 1
|   |   |   |   |   |   |   |   |   |   |   f206_binarized = 0: 32 (2.0/1.0)
|   |   |   |   |   |   |   |   |   |   |   f206_binarized = 1
|   |   |   |   |   |   |   |   |   |   |   |   f407_binarized = 0
|   |   |   |   |   |   |   |   |   |   |   |   |   f214_binarized = 0: 42 (3.0/1.0)
|   |   |   |   |   |   |   |   |   |   |   |   |   f214_binarized = 1: 30 (7.0/1.0)
|   |   |   |   |   |   |   |   |   |   |   |   f407_binarized = 1
|   |   |   |   |   |   |   |   |   |   |   |   |   f279_binarized = 0: 30 (5.0)
|   |   |   |   |   |   |   |   |   |   |   |   |   f279_binarized = 1
|   |   |   |   |   |   |   |   |   |   |   |   |   |   f408_binarized = 0: 30 (2.0/1.0)
|   |   |   |   |   |   |   |   |   |   |   |   |   |   f408_binarized = 1
|   |   |   |   |   |   |   |   |   |   |   |   |   |   |   f553_binarized = 0: 31 (3.0/1.0)
|   |   |   |   |   |   |   |   |   |   |   |   |   |   |   f553_binarized = 1
|   |   |   |   |   |   |   |   |   |   |   |   |   |   |   |   f617_binarized = 0: 4 (2.0/1.0)
|   |   |   |   |   |   |   |   |   |   |   |   |   |   |   |   f617_binarized = 1
|   |   |   |   |   |   |   |   |   |   |   |   |   |   |   |   |   f666_binarized = 0: 18 (13.0/7.0)
|   |   |   |   |   |   |   |   |   |   |   |   |   |   |   |   |   f666_binarized = 1
|   |   |   |   |   |   |   |   |   |   |   |   |   |   |   |   |   |   f394_binarized = 0: 44 (12.0/4.0)
|   |   |   |   |   |   |   |   |   |   |   |   |   |   |   |   |   |   f394_binarized = 1
|   |   |   |   |   |   |   |   |   |   |   |   |   |   |   |   |   |   |   f793_binarized = 0: 18 (6.0)
|   |   |   |   |   |   |   |   |   |   |   |   |   |   |   |   |   |   |   f793_binarized = 1
|   |   |   |   |   |   |   |   |   |   |   |   |   |   |   |   |   |   |   |   f603_binarized = 0
|   |   |   |   |   |   |   |   |   |   |   |   |   |   |   |   |   |   |   |   |   f973_binarized = 0: 18 (5.0)
|   |   |   |   |   |   |   |   |   |   |   |   |   |   |   |   |   |   |   |   |   f973_binarized = 1: 44 (2.0)
|   |   |   |   |   |   |   |   |   |   |   |   |   |   |   |   |   |   |   |   f603_binarized = 1: 2 (30.0/14.0)
|   |   f16_binarized = 1
|   |   |   f193_binarized = 0
|   |   |   |   f36_binarized = 0: 16 (2.0/1.0)
|   |   |   |   f36_binarized = 1
|   |   |   |   |   f766_binarized = 0: 26 (4.0/1.0)
|   |   |   |   |   f766_binarized = 1
|   |   |   |   |   |   f297_binarized = 0: 38 (2.0/1.0)
|   |   |   |   |   |   f297_binarized = 1
|   |   |   |   |   |   |   f862_binarized = 0: 50 (7.0/2.0)
|   |   |   |   |   |   |   f862_binarized = 1
|   |   |   |   |   |   |   |   f139_binarized = 0: 19 (3.0/1.0)
|   |   |   |   |   |   |   |   f139_binarized = 1
|   |   |   |   |   |   |   |   |   f757_binarized = 0: 47 (9.0/2.0)
|   |   |   |   |   |   |   |   |   f757_binarized = 1: 22 (11.0/1.0)
|   |   |   f193_binarized = 1
|   |   |   |   f48_binarized = 0
|   |   |   |   |   f355_binarized = 0: 44 (5.0/3.0)
|   |   |   |   |   f355_binarized = 1
|   |   |   |   |   |   f141_binarized = 0: 6 (23.0/15.0)
|   |   |   |   |   |   f141_binarized = 1
|   |   |   |   |   |   |   f364_binarized = 0: 42 (3.0/1.0)
|   |   |   |   |   |   |   f364_binarized = 1
|   |   |   |   |   |   |   |   f763_binarized = 0: 3 (4.0/1.0)
|   |   |   |   |   |   |   |   f763_binarized = 1
|   |   |   |   |   |   |   |   |   f697_binarized = 0: 1 (4.0/2.0)
|   |   |   |   |   |   |   |   |   f697_binarized = 1
|   |   |   |   |   |   |   |   |   |   f796_binarized = 0: 1 (2.0)
|   |   |   |   |   |   |   |   |   |   f796_binarized = 1
|   |   |   |   |   |   |   |   |   |   |   f425_binarized = 0: 4 (6.0/2.0)
|   |   |   |   |   |   |   |   |   |   |   f425_binarized = 1
|   |   |   |   |   |   |   |   |   |   |   |   f295_binarized = 0: 4 (2.0/1.0)
|   |   |   |   |   |   |   |   |   |   |   |   f295_binarized = 1
|   |   |   |   |   |   |   |   |   |   |   |   |   f457_binarized = 0: 31 (3.0/1.0)
|   |   |   |   |   |   |   |   |   |   |   |   |   f457_binarized = 1
|   |   |   |   |   |   |   |   |   |   |   |   |   |   f171_binarized = 0: 15 (3.0)
|   |   |   |   |   |   |   |   |   |   |   |   |   |   f171_binarized = 1
|   |   |   |   |   |   |   |   |   |   |   |   |   |   |   f168_binarized = 0: 15 (3.0/1.0)
|   |   |   |   |   |   |   |   |   |   |   |   |   |   |   f168_binarized = 1
|   |   |   |   |   |   |   |   |   |   |   |   |   |   |   |   f686_binarized = 0: 50 (3.0/1.0)
|   |   |   |   |   |   |   |   |   |   |   |   |   |   |   |   f686_binarized = 1
|   |   |   |   |   |   |   |   |   |   |   |   |   |   |   |   |   f983_binarized = 0: 25 (6.0/2.0)
|   |   |   |   |   |   |   |   |   |   |   |   |   |   |   |   |   f983_binarized = 1
|   |   |   |   |   |   |   |   |   |   |   |   |   |   |   |   |   |   f460_binarized = 0: 25 (2.0)
|   |   |   |   |   |   |   |   |   |   |   |   |   |   |   |   |   |   f460_binarized = 1
|   |   |   |   |   |   |   |   |   |   |   |   |   |   |   |   |   |   |   f5_binarized = 0: 19 (3.0)
|   |   |   |   |   |   |   |   |   |   |   |   |   |   |   |   |   |   |   f5_binarized = 1: 9 (15.0/5.0)
|   |   |   |   f48_binarized = 1
|   |   |   |   |   f112_binarized = 0
|   |   |   |   |   |   f281_binarized = 0: 1 (10.0/8.0)
|   |   |   |   |   |   f281_binarized = 1
|   |   |   |   |   |   |   f1007_binarized = 0
|   |   |   |   |   |   |   |   f21_binarized = 0
|   |   |   |   |   |   |   |   |   f19_binarized = 0: 31 (7.0/3.0)
|   |   |   |   |   |   |   |   |   f19_binarized = 1: 6 (2.0/1.0)
|   |   |   |   |   |   |   |   f21_binarized = 1: 4 (6.0/3.0)
|   |   |   |   |   |   |   f1007_binarized = 1
|   |   |   |   |   |   |   |   f565_binarized = 0
|   |   |   |   |   |   |   |   |   f25_binarized = 0: 5 (2.0/1.0)
|   |   |   |   |   |   |   |   |   f25_binarized = 1: 0 (5.0)
|   |   |   |   |   |   |   |   f565_binarized = 1
|   |   |   |   |   |   |   |   |   f406_binarized = 0: 6 (4.0/2.0)
|   |   |   |   |   |   |   |   |   f406_binarized = 1
|   |   |   |   |   |   |   |   |   |   f221_binarized = 0: 30 (2.0/1.0)
|   |   |   |   |   |   |   |   |   |   f221_binarized = 1
|   |   |   |   |   |   |   |   |   |   |   f803_binarized = 0: 25 (5.0/2.0)
|   |   |   |   |   |   |   |   |   |   |   f803_binarized = 1
|   |   |   |   |   |   |   |   |   |   |   |   f240_binarized = 0: 37 (3.0/1.0)
|   |   |   |   |   |   |   |   |   |   |   |   f240_binarized = 1: 39 (28.0/21.0)
|   |   |   |   |   f112_binarized = 1
|   |   |   |   |   |   f144_binarized = 0
|   |   |   |   |   |   |   f102_binarized = 0: 50 (6.0/3.0)
|   |   |   |   |   |   |   f102_binarized = 1
|   |   |   |   |   |   |   |   f122_binarized = 0: 18 (3.0/2.0)
|   |   |   |   |   |   |   |   f122_binarized = 1
|   |   |   |   |   |   |   |   |   f17_binarized = 0: 16 (2.0/1.0)
|   |   |   |   |   |   |   |   |   f17_binarized = 1
|   |   |   |   |   |   |   |   |   |   f141_binarized = 0: 39 (3.0/1.0)
|   |   |   |   |   |   |   |   |   |   f141_binarized = 1
|   |   |   |   |   |   |   |   |   |   |   f56_binarized = 0: 6 (7.0/4.0)
|   |   |   |   |   |   |   |   |   |   |   f56_binarized = 1
|   |   |   |   |   |   |   |   |   |   |   |   f461_binarized = 0: 0 (6.0/1.0)
|   |   |   |   |   |   |   |   |   |   |   |   f461_binarized = 1: 43 (3.0/1.0)
|   |   |   |   |   |   f144_binarized = 1
|   |   |   |   |   |   |   f113_binarized = 0
|   |   |   |   |   |   |   |   f21_binarized = 0: 31 (8.0/3.0)
|   |   |   |   |   |   |   |   f21_binarized = 1: 8 (15.0/10.0)
|   |   |   |   |   |   |   f113_binarized = 1
|   |   |   |   |   |   |   |   f20_binarized = 0
|   |   |   |   |   |   |   |   |   f109_binarized = 0: 13 (3.0/2.0)
|   |   |   |   |   |   |   |   |   f109_binarized = 1
|   |   |   |   |   |   |   |   |   |   f303_binarized = 0: 10 (5.0/1.0)
|   |   |   |   |   |   |   |   |   |   f303_binarized = 1
|   |   |   |   |   |   |   |   |   |   |   f105_binarized = 0: 16 (2.0/1.0)
|   |   |   |   |   |   |   |   |   |   |   f105_binarized = 1
|   |   |   |   |   |   |   |   |   |   |   |   f146_binarized = 0
|   |   |   |   |   |   |   |   |   |   |   |   |   f536_binarized = 0: 0 (5.0/1.0)
|   |   |   |   |   |   |   |   |   |   |   |   |   f536_binarized = 1: 31 (7.0/3.0)
|   |   |   |   |   |   |   |   |   |   |   |   f146_binarized = 1
|   |   |   |   |   |   |   |   |   |   |   |   |   f784_binarized = 0: 34 (2.0)
|   |   |   |   |   |   |   |   |   |   |   |   |   f784_binarized = 1
|   |   |   |   |   |   |   |   |   |   |   |   |   |   f978_binarized = 0: 35 (13.0/2.0)
|   |   |   |   |   |   |   |   |   |   |   |   |   |   f978_binarized = 1: 29 (9.0/1.0)
|   |   |   |   |   |   |   |   f20_binarized = 1
|   |   |   |   |   |   |   |   |   f209_binarized = 0
|   |   |   |   |   |   |   |   |   |   f176_binarized = 0: 49 (3.0/1.0)
|   |   |   |   |   |   |   |   |   |   f176_binarized = 1
|   |   |   |   |   |   |   |   |   |   |   f215_binarized = 0: 4 (3.0/2.0)
|   |   |   |   |   |   |   |   |   |   |   f215_binarized = 1
|   |   |   |   |   |   |   |   |   |   |   |   f145_binarized = 0: 44 (2.0/1.0)
|   |   |   |   |   |   |   |   |   |   |   |   f145_binarized = 1
|   |   |   |   |   |   |   |   |   |   |   |   |   f236_binarized = 0: 43 (6.0/1.0)
|   |   |   |   |   |   |   |   |   |   |   |   |   f236_binarized = 1: 10 (10.0/6.0)
|   |   |   |   |   |   |   |   |   f209_binarized = 1
|   |   |   |   |   |   |   |   |   |   f242_binarized = 0: 10 (44.0/28.0)
|   |   |   |   |   |   |   |   |   |   f242_binarized = 1
|   |   |   |   |   |   |   |   |   |   |   f273_binarized = 0
|   |   |   |   |   |   |   |   |   |   |   |   f334_binarized = 0: 39 (2.0)
|   |   |   |   |   |   |   |   |   |   |   |   f334_binarized = 1
|   |   |   |   |   |   |   |   |   |   |   |   |   f789_binarized = 0: 24 (2.0/1.0)
|   |   |   |   |   |   |   |   |   |   |   |   |   f789_binarized = 1
|   |   |   |   |   |   |   |   |   |   |   |   |   |   f61_binarized = 0: 48 (3.0)
|   |   |   |   |   |   |   |   |   |   |   |   |   |   f61_binarized = 1: 49 (11.0/1.0)
|   |   |   |   |   |   |   |   |   |   |   f273_binarized = 1
|   |   |   |   |   |   |   |   |   |   |   |   f306_binarized = 0
|   |   |   |   |   |   |   |   |   |   |   |   |   f155_binarized = 0: 12 (2.0)
|   |   |   |   |   |   |   |   |   |   |   |   |   f155_binarized = 1
|   |   |   |   |   |   |   |   |   |   |   |   |   |   f261_binarized = 0: 0 (2.0/1.0)
|   |   |   |   |   |   |   |   |   |   |   |   |   |   f261_binarized = 1
|   |   |   |   |   |   |   |   |   |   |   |   |   |   |   f344_binarized = 0: 7 (2.0/1.0)
|   |   |   |   |   |   |   |   |   |   |   |   |   |   |   f344_binarized = 1
|   |   |   |   |   |   |   |   |   |   |   |   |   |   |   |   f522_binarized = 0: 10 (8.0/2.0)
|   |   |   |   |   |   |   |   |   |   |   |   |   |   |   |   f522_binarized = 1
|   |   |   |   |   |   |   |   |   |   |   |   |   |   |   |   |   f725_binarized = 0
|   |   |   |   |   |   |   |   |   |   |   |   |   |   |   |   |   |   f26_binarized = 0: 48 (2.0)
|   |   |   |   |   |   |   |   |   |   |   |   |   |   |   |   |   |   f26_binarized = 1: 23 (2.0)
|   |   |   |   |   |   |   |   |   |   |   |   |   |   |   |   |   f725_binarized = 1: 24 (11.0/5.0)
|   |   |   |   |   |   |   |   |   |   |   |   f306_binarized = 1
|   |   |   |   |   |   |   |   |   |   |   |   |   f335_binarized = 0
|   |   |   |   |   |   |   |   |   |   |   |   |   |   f347_binarized = 0: 12 (5.0)
|   |   |   |   |   |   |   |   |   |   |   |   |   |   f347_binarized = 1
|   |   |   |   |   |   |   |   |   |   |   |   |   |   |   f14_binarized = 0: 36 (2.0/1.0)
|   |   |   |   |   |   |   |   |   |   |   |   |   |   |   f14_binarized = 1
|   |   |   |   |   |   |   |   |   |   |   |   |   |   |   |   f325_binarized = 0: 38 (2.0/1.0)
|   |   |   |   |   |   |   |   |   |   |   |   |   |   |   |   f325_binarized = 1
|   |   |   |   |   |   |   |   |   |   |   |   |   |   |   |   |   f590_binarized = 0: 23 (2.0)
|   |   |   |   |   |   |   |   |   |   |   |   |   |   |   |   |   f590_binarized = 1
|   |   |   |   |   |   |   |   |   |   |   |   |   |   |   |   |   |   f781_binarized = 0: 48 (2.0)
|   |   |   |   |   |   |   |   |   |   |   |   |   |   |   |   |   |   f781_binarized = 1
|   |   |   |   |   |   |   |   |   |   |   |   |   |   |   |   |   |   |   f367_binarized = 0: 13 (28.0/16.0)
|   |   |   |   |   |   |   |   |   |   |   |   |   |   |   |   |   |   |   f367_binarized = 1: 48 (2.0/1.0)
|   |   |   |   |   |   |   |   |   |   |   |   |   f335_binarized = 1
|   |   |   |   |   |   |   |   |   |   |   |   |   |   f307_binarized = 0
|   |   |   |   |   |   |   |   |   |   |   |   |   |   |   f116_binarized = 0: 37 (2.0/1.0)
|   |   |   |   |   |   |   |   |   |   |   |   |   |   |   f116_binarized = 1
|   |   |   |   |   |   |   |   |   |   |   |   |   |   |   |   f213_binarized = 0
|   |   |   |   |   |   |   |   |   |   |   |   |   |   |   |   |   f358_binarized = 0: 12 (5.0)
|   |   |   |   |   |   |   |   |   |   |   |   |   |   |   |   |   f358_binarized = 1
|   |   |   |   |   |   |   |   |   |   |   |   |   |   |   |   |   |   f431_binarized = 0: 23 (7.0/1.0)
|   |   |   |   |   |   |   |   |   |   |   |   |   |   |   |   |   |   f431_binarized = 1: 24 (4.0/1.0)
|   |   |   |   |   |   |   |   |   |   |   |   |   |   |   |   f213_binarized = 1: 48 (2.0)
|   |   |   |   |   |   |   |   |   |   |   |   |   |   f307_binarized = 1
|   |   |   |   |   |   |   |   |   |   |   |   |   |   |   f80_binarized = 0: 9 (7.0/3.0)
|   |   |   |   |   |   |   |   |   |   |   |   |   |   |   f80_binarized = 1
|   |   |   |   |   |   |   |   |   |   |   |   |   |   |   |   f22_binarized = 0
|   |   |   |   |   |   |   |   |   |   |   |   |   |   |   |   |   f175_binarized = 0: 40 (2.0/1.0)
|   |   |   |   |   |   |   |   |   |   |   |   |   |   |   |   |   f175_binarized = 1
|   |   |   |   |   |   |   |   |   |   |   |   |   |   |   |   |   |   f332_binarized = 0: 13 (2.0)
|   |   |   |   |   |   |   |   |   |   |   |   |   |   |   |   |   |   f332_binarized = 1
|   |   |   |   |   |   |   |   |   |   |   |   |   |   |   |   |   |   |   f529_binarized = 0: 29 (8.0/3.0)
|   |   |   |   |   |   |   |   |   |   |   |   |   |   |   |   |   |   |   f529_binarized = 1
|   |   |   |   |   |   |   |   |   |   |   |   |   |   |   |   |   |   |   |   f25_binarized = 0: 35 (3.0)
|   |   |   |   |   |   |   |   |   |   |   |   |   |   |   |   |   |   |   |   f25_binarized = 1
|   |   |   |   |   |   |   |   |   |   |   |   |   |   |   |   |   |   |   |   |   f1004_binarized = 0: 20 (7.0/1.0)
|   |   |   |   |   |   |   |   |   |   |   |   |   |   |   |   |   |   |   |   |   f1004_binarized = 1: 9 (2.0/1.0)
|   |   |   |   |   |   |   |   |   |   |   |   |   |   |   |   f22_binarized = 1
|   |   |   |   |   |   |   |   |   |   |   |   |   |   |   |   |   f109_binarized = 0: 27 (33.0/23.0)
|   |   |   |   |   |   |   |   |   |   |   |   |   |   |   |   |   f109_binarized = 1
|   |   |   |   |   |   |   |   |   |   |   |   |   |   |   |   |   |   f702_binarized = 0: 45 (15.0/10.0)
|   |   |   |   |   |   |   |   |   |   |   |   |   |   |   |   |   |   f702_binarized = 1
|   |   |   |   |   |   |   |   |   |   |   |   |   |   |   |   |   |   |   f269_binarized = 0: 13 (15.0/9.0)
|   |   |   |   |   |   |   |   |   |   |   |   |   |   |   |   |   |   |   f269_binarized = 1
|   |   |   |   |   |   |   |   |   |   |   |   |   |   |   |   |   |   |   |   f365_binarized = 0
|   |   |   |   |   |   |   |   |   |   |   |   |   |   |   |   |   |   |   |   |   f5_binarized = 0: 21 (3.0/2.0)
|   |   |   |   |   |   |   |   |   |   |   |   |   |   |   |   |   |   |   |   |   f5_binarized = 1
|   |   |   |   |   |   |   |   |   |   |   |   |   |   |   |   |   |   |   |   |   |   f29_binarized = 0: 12 (2.0/1.0)
|   |   |   |   |   |   |   |   |   |   |   |   |   |   |   |   |   |   |   |   |   |   f29_binarized = 1
|   |   |   |   |   |   |   |   |   |   |   |   |   |   |   |   |   |   |   |   |   |   |   f1005_binarized = 0: 7 (2.0/1.0)
|   |   |   |   |   |   |   |   |   |   |   |   |   |   |   |   |   |   |   |   |   |   |   f1005_binarized = 1
|   |   |   |   |   |   |   |   |   |   |   |   |   |   |   |   |   |   |   |   |   |   |   |   f332_binarized = 0
|   |   |   |   |   |   |   |   |   |   |   |   |   |   |   |   |   |   |   |   |   |   |   |   |   f695_binarized = 0: 13 (2.0/1.0)
|   |   |   |   |   |   |   |   |   |   |   |   |   |   |   |   |   |   |   |   |   |   |   |   |   f695_binarized = 1: 48 (10.0/4.0)
|   |   |   |   |   |   |   |   |   |   |   |   |   |   |   |   |   |   |   |   |   |   |   |   f332_binarized = 1: 33 (3.0/1.0)
|   |   |   |   |   |   |   |   |   |   |   |   |   |   |   |   |   |   |   |   f365_binarized = 1
|   |   |   |   |   |   |   |   |   |   |   |   |   |   |   |   |   |   |   |   |   f958_binarized = 0
|   |   |   |   |   |   |   |   |   |   |   |   |   |   |   |   |   |   |   |   |   |   f60_binarized = 0: 23 (2.0/1.0)
|   |   |   |   |   |   |   |   |   |   |   |   |   |   |   |   |   |   |   |   |   |   f60_binarized = 1: 45 (10.0/5.0)
|   |   |   |   |   |   |   |   |   |   |   |   |   |   |   |   |   |   |   |   |   f958_binarized = 1
|   |   |   |   |   |   |   |   |   |   |   |   |   |   |   |   |   |   |   |   |   |   f444_binarized = 0: 22 (16.0/7.0)
|   |   |   |   |   |   |   |   |   |   |   |   |   |   |   |   |   |   |   |   |   |   f444_binarized = 1
|   |   |   |   |   |   |   |   |   |   |   |   |   |   |   |   |   |   |   |   |   |   |   f98_binarized = 0: 46 (17.0/7.0)
|   |   |   |   |   |   |   |   |   |   |   |   |   |   |   |   |   |   |   |   |   |   |   f98_binarized = 1
|   |   |   |   |   |   |   |   |   |   |   |   |   |   |   |   |   |   |   |   |   |   |   |   f430_binarized = 0: 27 (12.0/8.0)
|   |   |   |   |   |   |   |   |   |   |   |   |   |   |   |   |   |   |   |   |   |   |   |   f430_binarized = 1
|   |   |   |   |   |   |   |   |   |   |   |   |   |   |   |   |   |   |   |   |   |   |   |   |   f676_binarized = 0: 13 (12.0/7.0)
|   |   |   |   |   |   |   |   |   |   |   |   |   |   |   |   |   |   |   |   |   |   |   |   |   f676_binarized = 1
|   |   |   |   |   |   |   |   |   |   |   |   |   |   |   |   |   |   |   |   |   |   |   |   |   |   f517_binarized = 0: 20 (8.0/5.0)
|   |   |   |   |   |   |   |   |   |   |   |   |   |   |   |   |   |   |   |   |   |   |   |   |   |   f517_binarized = 1
|   |   |   |   |   |   |   |   |   |   |   |   |   |   |   |   |   |   |   |   |   |   |   |   |   |   |   f124_binarized = 0: 21 (17.0/9.0)
|   |   |   |   |   |   |   |   |   |   |   |   |   |   |   |   |   |   |   |   |   |   |   |   |   |   |   f124_binarized = 1
|   |   |   |   |   |   |   |   |   |   |   |   |   |   |   |   |   |   |   |   |   |   |   |   |   |   |   |   f750_binarized = 0
|   |   |   |   |   |   |   |   |   |   |   |   |   |   |   |   |   |   |   |   |   |   |   |   |   |   |   |   |   f727_binarized = 0: 27 (2.0/1.0)
|   |   |   |   |   |   |   |   |   |   |   |   |   |   |   |   |   |   |   |   |   |   |   |   |   |   |   |   |   f727_binarized = 1
|   |   |   |   |   |   |   |   |   |   |   |   |   |   |   |   |   |   |   |   |   |   |   |   |   |   |   |   |   |   f810_binarized = 0: 36 (3.0)
|   |   |   |   |   |   |   |   |   |   |   |   |   |   |   |   |   |   |   |   |   |   |   |   |   |   |   |   |   |   f810_binarized = 1: 21 (13.0/7.0)
|   |   |   |   |   |   |   |   |   |   |   |   |   |   |   |   |   |   |   |   |   |   |   |   |   |   |   |   f750_binarized = 1
|   |   |   |   |   |   |   |   |   |   |   |   |   |   |   |   |   |   |   |   |   |   |   |   |   |   |   |   |   f536_binarized = 0
|   |   |   |   |   |   |   |   |   |   |   |   |   |   |   |   |   |   |   |   |   |   |   |   |   |   |   |   |   |   f838_binarized = 0: 33 (2.0)
|   |   |   |   |   |   |   |   |   |   |   |   |   |   |   |   |   |   |   |   |   |   |   |   |   |   |   |   |   |   f838_binarized = 1
|   |   |   |   |   |   |   |   |   |   |   |   |   |   |   |   |   |   |   |   |   |   |   |   |   |   |   |   |   |   |   f121_binarized = 0
|   |   |   |   |   |   |   |   |   |   |   |   |   |   |   |   |   |   |   |   |   |   |   |   |   |   |   |   |   |   |   |   f525_binarized = 0: 29 (2.0)
|   |   |   |   |   |   |   |   |   |   |   |   |   |   |   |   |   |   |   |   |   |   |   |   |   |   |   |   |   |   |   |   f525_binarized = 1
|   |   |   |   |   |   |   |   |   |   |   |   |   |   |   |   |   |   |   |   |   |   |   |   |   |   |   |   |   |   |   |   |   f535_binarized = 0: 45 (5.0/1.0)
|   |   |   |   |   |   |   |   |   |   |   |   |   |   |   |   |   |   |   |   |   |   |   |   |   |   |   |   |   |   |   |   |   f535_binarized = 1: 20 (3.0)
|   |   |   |   |   |   |   |   |   |   |   |   |   |   |   |   |   |   |   |   |   |   |   |   |   |   |   |   |   |   |   f121_binarized = 1: 7 (23.0/10.0)
|   |   |   |   |   |   |   |   |   |   |   |   |   |   |   |   |   |   |   |   |   |   |   |   |   |   |   |   |   f536_binarized = 1
|   |   |   |   |   |   |   |   |   |   |   |   |   |   |   |   |   |   |   |   |   |   |   |   |   |   |   |   |   |   f282_binarized = 0
|   |   |   |   |   |   |   |   |   |   |   |   |   |   |   |   |   |   |   |   |   |   |   |   |   |   |   |   |   |   |   f553_binarized = 0: 7 (2.0)
|   |   |   |   |   |   |   |   |   |   |   |   |   |   |   |   |   |   |   |   |   |   |   |   |   |   |   |   |   |   |   f553_binarized = 1
|   |   |   |   |   |   |   |   |   |   |   |   |   |   |   |   |   |   |   |   |   |   |   |   |   |   |   |   |   |   |   |   f6_binarized = 0: 20 (2.0)
|   |   |   |   |   |   |   |   |   |   |   |   |   |   |   |   |   |   |   |   |   |   |   |   |   |   |   |   |   |   |   |   f6_binarized = 1: 45 (4.0)
|   |   |   |   |   |   |   |   |   |   |   |   |   |   |   |   |   |   |   |   |   |   |   |   |   |   |   |   |   |   f282_binarized = 1
|   |   |   |   |   |   |   |   |   |   |   |   |   |   |   |   |   |   |   |   |   |   |   |   |   |   |   |   |   |   |   f184_binarized = 0: 20 (5.0/2.0)
|   |   |   |   |   |   |   |   |   |   |   |   |   |   |   |   |   |   |   |   |   |   |   |   |   |   |   |   |   |   |   f184_binarized = 1
|   |   |   |   |   |   |   |   |   |   |   |   |   |   |   |   |   |   |   |   |   |   |   |   |   |   |   |   |   |   |   |   f439_binarized = 0: 36 (8.0/3.0)
|   |   |   |   |   |   |   |   |   |   |   |   |   |   |   |   |   |   |   |   |   |   |   |   |   |   |   |   |   |   |   |   f439_binarized = 1
|   |   |   |   |   |   |   |   |   |   |   |   |   |   |   |   |   |   |   |   |   |   |   |   |   |   |   |   |   |   |   |   |   f24_binarized = 0: 21 (2.0)
|   |   |   |   |   |   |   |   |   |   |   |   |   |   |   |   |   |   |   |   |   |   |   |   |   |   |   |   |   |   |   |   |   f24_binarized = 1
|   |   |   |   |   |   |   |   |   |   |   |   |   |   |   |   |   |   |   |   |   |   |   |   |   |   |   |   |   |   |   |   |   |   f436_binarized = 0: 7 (3.0/2.0)
|   |   |   |   |   |   |   |   |   |   |   |   |   |   |   |   |   |   |   |   |   |   |   |   |   |   |   |   |   |   |   |   |   |   f436_binarized = 1
|   |   |   |   |   |   |   |   |   |   |   |   |   |   |   |   |   |   |   |   |   |   |   |   |   |   |   |   |   |   |   |   |   |   |   f698_binarized = 0: 27 (3.0)
|   |   |   |   |   |   |   |   |   |   |   |   |   |   |   |   |   |   |   |   |   |   |   |   |   |   |   |   |   |   |   |   |   |   |   f698_binarized = 1
|   |   |   |   |   |   |   |   |   |   |   |   |   |   |   |   |   |   |   |   |   |   |   |   |   |   |   |   |   |   |   |   |   |   |   |   f683_binarized = 0
|   |   |   |   |   |   |   |   |   |   |   |   |   |   |   |   |   |   |   |   |   |   |   |   |   |   |   |   |   |   |   |   |   |   |   |   |   f979_binarized = 0: 27 (3.0)
|   |   |   |   |   |   |   |   |   |   |   |   |   |   |   |   |   |   |   |   |   |   |   |   |   |   |   |   |   |   |   |   |   |   |   |   |   f979_binarized = 1: 33 (15.0/1.0)
|   |   |   |   |   |   |   |   |   |   |   |   |   |   |   |   |   |   |   |   |   |   |   |   |   |   |   |   |   |   |   |   |   |   |   |   f683_binarized = 1: 11 (30.0/3.0)

Number of Leaves  : 	215

Size of the tree : 	429


Time taken to build model: 0.65 seconds

=== Predictions on test set ===

    inst#     actual  predicted error prediction
        1      35:34      35:34       0.941 
        2      36:35      36:35       0.846 
        3      44:43        7:6   +   0.429 
        4        2:1      15:14   +   0.357 
        5      38:37      38:37       0.667 
        6        7:6      40:39   +   0.25 
        7      40:39        7:6   +   0.429 
        8      45:44      19:18   +   1 
        9      35:34      35:34       0.941 
       10      19:18        3:2   +   0.533 
       11      24:23      47:46   +   0.588 
       12      32:31      32:31       0.667 
       13      14:13      14:13       0.429 
       14      19:18      19:18       1 
       15      19:18      19:18       0.5 
       16      11:10      11:10       0.75 
       17      15:14      15:14       0.5 
       18      13:12      28:27   +   0.333 
       19        2:1        2:1       0.333 
       20      44:43      14:13   +   0.333 
       21      29:28        3:2   +   0.533 
       22      28:27        8:7   +   0.565 
       23      50:49      25:24   +   0.545 
       24      50:49      11:10   +   0.8 
       25      13:12        4:3   +   1 
       26      11:10      44:43   +   0.833 
       27      22:21      47:46   +   0.588 
       28      46:45      27:26   +   0.75 
       29      27:26      19:18   +   0.333 
       30      37:36      22:21   +   0.462 
       31      39:38      45:44   +   0.5 
       32      29:28        3:2   +   0.714 
       33      11:10      40:39   +   1 
       34      50:49      25:24   +   0.545 
       35      20:19       10:9   +   0.667 
       36        5:4        5:4       0.5 
       37      36:35        9:8   +   0.333 
       38      49:48      28:27   +   0.333 
       39        9:8        9:8       0.333 
       40      18:17      18:17       1 
       41      24:23      14:13   +   0.4 
       42        7:6        3:2   +   0.5 
       43      23:22      22:21   +   0.471 
       44      35:34        9:8   +   0.458 
       45      32:31      32:31       0.625 
       46      20:19       10:9   +   0.667 
       47      27:26      27:26       0.511 
       48        4:3        4:3       1 
       49      49:48      14:13   +   0.5 
       50        6:5      40:39   +   0.25 
       51      42:41      16:15   +   1 
       52      21:20      21:20       0.857 
       53      46:45      46:45       0.8 
       54      11:10      50:49   +   0.667 
       55      32:31      21:20   +   0.857 
       56      35:34      35:34       0.6 
       57      41:40      18:17   +   0.667 
       58      35:34      35:34       0.941 
       59      33:32      32:31   +   0.571 
       60      21:20      21:20       0.6 
       61      49:48      49:48       0.6 
       62       10:9       10:9       0.5 
       63      23:22      47:46   +   0.588 
       64      31:30        5:4   +   0.5 
       65      26:25      40:39   +   0.25 
       66      29:28      40:39   +   0.25 
       67      44:43      40:39   +   0.667 
       68      33:32      43:42   +   0.444 
       69      27:26      44:43   +   0.667 
       70        6:5        5:4   +   0.667 
       71      13:12      25:24   +   0.545 
       72      25:24      49:48   +   0.6 
       73       10:9      20:19   +   0.579 
       74      29:28      16:15   +   0.667 
       75      39:38        5:4   +   0.333 
       76        3:2        3:2       1 
       77      16:15      42:41   +   0.439 
       78      39:38      35:34   +   1 
       79      14:13      21:20   +   0.6 
       80      51:50        9:8   +   0.458 
       81        2:1      28:27   +   0.303 
       82      15:14      39:38   +   0.455 
       83      14:13      14:13       0.429 
       84      41:40      15:14   +   0.357 
       85      30:29        8:7   +   0.5 
       86        6:5      20:19   +   0.579 
       87      48:47      50:49   +   0.909 
       88        4:3      50:49   +   0.909 
       89      14:13      14:13       0.4 
       90      41:40      27:26   +   0.511 
       91        5:4      45:44   +   0.4 
       92        1:0        1:0       1 
       93        7:6      15:14   +   0.5 
       94        3:2        7:6   +   0.348 
       95        1:0      38:37   +   0.667 
       96      48:47      28:27   +   0.333 
       97      22:21      22:21       0.333 
       98      46:45      28:27   +   0.5 
       99      17:16      15:14   +   0.5 
      100        1:0        2:1   +   1 
      101      41:40      32:31   +   0.571 
      102      28:27      28:27       1 
      103      18:17      26:25   +   1 
      104      28:27      34:33   +   1 
      105      43:42      25:24   +   0.75 
      106      26:25      26:25       0.6 
      107      39:38      44:43   +   0.667 
      108      28:27      34:33   +   0.933 
      109      16:15      16:15       0.667 
      110      49:48      30:29   +   0.889 
      111      15:14       10:9   +   0.45 
      112      34:33      12:11   +   0.9 
      113       10:9      20:19   +   0.579 
      114      26:25        2:1   +   0.75 
      115      35:34      35:34       0.941 
      116       10:9      51:50   +   0.667 
      117      15:14        9:8   +   0.458 
      118      37:36      28:27   +   0.303 
      119      27:26      27:26       0.511 
      120      47:46      22:21   +   0.471 
      121        9:8        9:8       0.458 
      122      50:49      24:23   +   1 
      123        3:2      27:26   +   0.511 
      124        3:2      14:13   +   0.333 
      125      32:31      18:17   +   0.5 
      126        1:0        1:0       1 
      127      32:31      32:31       0.571 
      128      29:28      26:25   +   0.6 
      129      15:14      15:14       0.357 
      130      48:47      48:47       0.778 
      131      15:14        3:2   +   0.714 
      132      45:44      19:18   +   1 
      133      11:10      11:10       0.364 
      134      35:34      35:34       0.941 
      135      36:35      36:35       0.846 
      136      48:47      24:23   +   1 
      137      14:13      39:38   +   0.5 
      138      16:15        6:5   +   1 
      139      51:50      26:25   +   0.667 
      140      37:36      28:27   +   0.303 
      141      47:46        8:7   +   0.565 
      142      37:36      22:21   +   0.462 
      143      15:14      19:18   +   0.462 
      144      36:35      36:35       0.846 
      145      12:11      47:46   +   0.588 
      146      35:34      35:34       0.941 
      147      24:23      25:24   +   0.545 
      148      33:32        1:0   +   0.5 
      149      27:26      50:49   +   0.667 
      150        5:4        9:8   +   1 
      151      16:15      42:41   +   0.439 
      152      28:27        8:7   +   0.565 
      153        9:8        9:8       1 
      154      45:44      41:40   +   0.667 
      155      12:11      12:11       0.9 
      156      26:25      50:49   +   0.667 
      157      17:16      15:14   +   0.357 
      158        8:7      14:13   +   1 
      159      44:43      22:21   +   0.462 
      160      51:50        9:8   +   0.458 
      161      12:11      12:11       0.9 
      162       10:9       10:9       0.5 
      163        3:2        3:2       0.533 
      164      21:20      46:45   +   1 
      165      41:40      48:47   +   0.833 
      166      43:42        1:0   +   1 
      167        1:0      25:24   +   0.75 
      168        1:0        1:0       0.833 
      169       10:9        7:6   +   0.5 
      170      26:25        2:1   +   0.2 
      171      49:48      47:46   +   0.588 
      172      14:13      13:12   +   0.5 
      173      29:28        9:8   +   0.458 
      174      45:44      19:18   +   0.462 
      175        7:6        3:2   +   1 
      176      44:43        6:5   +   1 
      177      46:45      23:22   +   0.563 
      178        7:6        5:4   +   0.5 
      179      31:30      27:26   +   0.511 
      180      34:33      11:10   +   0.364 
      181      13:12      11:10   +   0.364 
      182      30:29      37:36   +   0.5 
      183      26:25        5:4   +   0.5 
      184      48:47        1:0   +   1 
      185        7:6      45:44   +   1 
      186      12:11      14:13   +   0.417 
      187      42:41      42:41       0.439 
      188        1:0        1:0       1 
      189      13:12      13:12       1 
      190      51:50      26:25   +   0.571 
      191      21:20      23:22   +   0.563 
      192      14:13      14:13       0.429 
      193        6:5        6:5       0.5 
      194      39:38      48:47   +   0.286 
      195        8:7       10:9   +   0.5 
      196      47:46      47:46       0.588 
      197      21:20      21:20       1 
      198      12:11      46:45   +   0.5 
      199      17:16      31:30   +   0.5 
      200        1:0        1:0       1 
      201      16:15      15:14   +   0.357 
      202      48:47      50:49   +   0.667 
      203      47:46      22:21   +   0.471 
      204      43:42      15:14   +   0.5 
      205      44:43      17:16   +   0.778 
      206        8:7      21:20   +   0.6 
      207      48:47      40:39   +   0.667 
      208      23:22      48:47   +   0.778 
      209      15:14      32:31   +   0.571 
      210       10:9       10:9       0.571 
      211      21:20      21:20       0.375 
      212      11:10        8:7   +   0.333 
      213      16:15      43:42   +   0.667 
      214      46:45      38:37   +   0.5 
      215      26:25        2:1   +   0.2 
      216      18:17       10:9   +   0.5 
      217      13:12      37:36   +   0.5 
      218      12:11      47:46   +   0.588 
      219      21:20      46:45   +   1 
      220      23:22      46:45   +   0.333 
      221        4:3        2:1   +   1 
      222      30:29       10:9   +   0.5 
      223      34:33      28:27   +   0.303 
      224        2:1        7:6   +   1 
      225      12:11      12:11       0.9 
      226      36:35        9:8   +   0.333 
      227      34:33        8:7   +   0.565 
      228      40:39      51:50   +   0.5 
      229      45:44      19:18   +   1 
      230      26:25      26:25       0.571 
      231      25:24      25:24       0.545 
      232      47:46        8:7   +   0.565 
      233      45:44      44:43   +   0.667 
      234      35:34      35:34       0.941 
      235      18:17        1:0   +   1 
      236      40:39      50:49   +   0.667 
      237      19:18      19:18       0.5 
      238      51:50        2:1   +   0.2 
      239      34:33      28:27   +   0.303 
      240      47:46      22:21   +   0.471 
      241      30:29      14:13   +   0.417 
      242      11:10      11:10       0.8 
      243        9:8      38:37   +   0.667 
      244       10:9        4:3   +   1 
      245      51:50      11:10   +   0.364 
      246      22:21      22:21       0.471 
      247      47:46      47:46       0.588 
      248      28:27        8:7   +   0.5 
      249      49:48      49:48       0.6 
      250      42:41      42:41       0.439 
      251      28:27      28:27       1 
      252        1:0       10:9   +   0.667 
      253      33:32        1:0   +   1 
      254      49:48      14:13   +   0.5 
      255      37:36      37:36       1 
      256      29:28        3:2   +   1 
      257      12:11      12:11       0.9 
      258      40:39      35:34   +   0.941 
      259        9:8      38:37   +   1 
      260      46:45      46:45       0.5 
      261      19:18      19:18       0.5 
      262        4:3        2:1   +   0.2 
      263        6:5        6:5       0.5 
      264      47:46      12:11   +   0.9 
      265      45:44      19:18   +   0.5 
      266      19:18        3:2   +   0.533 
      267      41:40      15:14   +   0.357 
      268      34:33      28:27   +   0.303 
      269      11:10      11:10       0.8 
      270      29:28        3:2   +   0.533 
      271      17:16      15:14   +   0.357 
      272      43:42      42:41   +   0.439 
      273      30:29      22:21   +   0.471 
      274      43:42        2:1   +   0.75 
      275      30:29       10:9   +   0.5 
      276        7:6      40:39   +   0.25 
      277      31:30      31:30       0.5 
      278      40:39      18:17   +   0.667 
      279      30:29      28:27   +   0.333 
      280      18:17        5:4   +   0.667 
      281      25:24      50:49   +   0.909 
      282      51:50      50:49   +   0.667 
      283        3:2      27:26   +   0.511 
      284      17:16      27:26   +   0.511 
      285      43:42      43:42       0.444 
      286      19:18      19:18       1 
      287      23:22      37:36   +   1 
      288      27:26      11:10   +   0.364 
      289      50:49      50:49       0.909 
      290       10:9      21:20   +   0.857 
      291      17:16      15:14   +   0.357 
      292      33:32      32:31   +   0.625 
      293      12:11      28:27   +   0.303 
      294      18:17       10:9   +   0.5 
      295      43:42      43:42       0.667 
      296      14:13      14:13       0.429 
      297      25:24      11:10   +   0.364 
      298      33:32      43:42   +   0.667 
      299        5:4       10:9   +   0.571 
      300        8:7      34:33   +   0.933 
      301      25:24      25:24       0.545 
      302      41:40        7:6   +   0.348 
      303      24:23      14:13   +   0.5 
      304      21:20       10:9   +   0.5 
      305      20:19      40:39   +   0.25 
      306      38:37      38:37       0.667 
      307        5:4        6:5   +   0.5 
      308      15:14        7:6   +   0.348 
      309      47:46      23:22   +   0.909 
      310      11:10      11:10       0.4 
      311      23:22      15:14   +   0.357 
      312      18:17        9:8   +   0.458 
      313      20:19      20:19       0.579 
      314      32:31      38:37   +   0.667 
      315      38:37      37:36   +   0.5 
      316      42:41      42:41       0.439 
      317      51:50        2:1   +   0.333 
      318      37:36      12:11   +   0.9 
      319      22:21      22:21       0.462 
      320        9:8        9:8       0.333 
      321      22:21      22:21       0.471 
      322      16:15      16:15       1 
      323      19:18      33:32   +   0.75 
      324      31:30      31:30       0.857 
      325        6:5        7:6   +   0.348 
      326        8:7      23:22   +   0.563 
      327      27:26      26:25   +   0.778 
      328      18:17      18:17       1 
      329        7:6        1:0   +   0.5 
      330      15:14      15:14       0.357 
      331      34:33      28:27   +   0.303 
      332       10:9      26:25   +   0.667 
      333      31:30        6:5   +   0.5 
      334      27:26      27:26       0.511 
      335      25:24      11:10   +   0.364 
      336      29:28      32:31   +   0.667 
      337        7:6      40:39   +   0.25 
      338      13:12      11:10   +   0.8 
      339      20:19      20:19       0.579 
      340      24:23      24:23       0.857 
      341      38:37      35:34   +   0.6 
      342      11:10      11:10       0.4 
      343      50:49      14:13   +   0.4 
      344      41:40        7:6   +   0.5 
      345      43:42      19:18   +   0.462 
      346      46:45      24:23   +   1 
      347        1:0      40:39   +   0.25 
      348      45:44      45:44       0.667 
      349        2:1        5:4   +   0.5 
      350      40:39      15:14   +   0.357 
      351      23:22      23:22       0.909 
      352      22:21      22:21       0.462 
      353      42:41        5:4   +   0.5 
      354       10:9       10:9       0.5 
      355        4:3        4:3       1 
      356      29:28      19:18   +   1 
      357        9:8      38:37   +   0.667 
      358      29:28      27:26   +   0.511 
      359      26:25        5:4   +   0.5 
      360      50:49      25:24   +   0.545 
      361        3:2        3:2       0.533 
      362      38:37        9:8   +   0.333 
      363      41:40      18:17   +   1 
      364      16:15        5:4   +   0.5 
      365      16:15      42:41   +   0.439 
      366      36:35      35:34   +   0.941 
      367        9:8        9:8       0.458 
      368      43:42      31:30   +   0.5 
      369      12:11      12:11       0.9 
      370        2:1        5:4   +   0.667 
      371      20:19        9:8   +   0.5 
      372      46:45      27:26   +   0.511 
      373        8:7      37:36   +   0.625 
      374      18:17      18:17       0.333 
      375      12:11      14:13   +   0.417 
      376      34:33      34:33       0.933 
      377      41:40       10:9   +   0.45 
      378      44:43        7:6   +   0.429 
      379      25:24      49:48   +   1 
      380      14:13      14:13       0.429 
      381      31:30      31:30       1 
      382      13:12        5:4   +   0.333 
      383        9:8       10:9   +   0.667 
      384      20:19      20:19       0.579 
      385      13:12      11:10   +   0.364 
      386      39:38      48:47   +   0.286 
      387      27:26        7:6   +   0.348 
      388      37:36      28:27   +   0.303 
      389      42:41        6:5   +   1 
      390      28:27      28:27       0.333 
      391      22:21      46:45   +   0.8 
      392        4:3      15:14   +   0.357 
      393      23:22      23:22       0.909 
      394      43:42      14:13   +   0.333 
      395      39:38      39:38       0.455 
      396      48:47      23:22   +   0.563 
      397      14:13      14:13       0.429 
      398      18:17      20:19   +   0.667 
      399      21:20      21:20       0.375 
      400        1:0      38:37   +   0.667 
      401      30:29      21:20   +   1 
      402      34:33      34:33       0.933 
      403      15:14      15:14       0.5 
      404      19:18      32:31   +   0.571 
      405      31:30        7:6   +   0.348 
      406      14:13      14:13       0.429 
      407        5:4        9:8   +   0.458 
      408      42:41        2:1   +   1 
      409      17:16      39:38   +   0.455 
      410        4:3      38:37   +   0.667 
      411      12:11      12:11       0.9 
      412        7:6      32:31   +   0.571 
      413      27:26      27:26       0.511 
      414      24:23      24:23       0.857 
      415        6:5      20:19   +   1 
      416      19:18      45:44   +   0.667 
      417      40:39      36:35   +   0.538 
      418      51:50      40:39   +   0.25 
      419        4:3        2:1   +   0.5 
      420        5:4        5:4       0.5 
      421      49:48      49:48       0.6 
      422      32:31      32:31       0.625 
      423        2:1        4:3   +   1 
      424      17:16      15:14   +   0.5 
      425        6:5      40:39   +   0.25 
      426      31:30      31:30       1 
      427        3:2      19:18   +   0.462 
      428      23:22        8:7   +   0.565 
      429        8:7      18:17   +   0.333 
      430      31:30      48:47   +   0.286 
      431      13:12      14:13   +   1 
      432        1:0        2:1   +   0.2 
      433      24:23      11:10   +   0.364 
      434      16:15        7:6   +   0.348 
      435        5:4        5:4       0.5 
      436        8:7      30:29   +   0.625 
      437      14:13      14:13       0.417 
      438      37:36      28:27   +   0.303 
      439      38:37        9:8   +   0.333 
      440      17:16      15:14   +   0.5 
      441      27:26      27:26       0.511 
      442      18:17      26:25   +   0.778 
      443      16:15       10:9   +   0.45 
      444      48:47      24:23   +   1 
      445      17:16        7:6   +   0.348 
      446      37:36      28:27   +   0.303 
      447      11:10      45:44   +   0.5 
      448      49:48      13:12   +   0.5 
      449      46:45      39:38   +   0.455 
      450      39:38        1:0   +   0.333 
      451        3:2        3:2       0.533 
      452      44:43      40:39   +   0.25 
      453        7:6      19:18   +   0.462 
      454      40:39      15:14   +   0.357 
      455        3:2      27:26   +   0.511 
      456        9:8      38:37   +   1 
      457      28:27      28:27       1 
      458      24:23      25:24   +   0.545 
      459        8:7      30:29   +   0.625 
      460        2:1      18:17   +   0.333 
      461      39:38      11:10   +   0.364 
      462      25:24      43:42   +   0.444 
      463      22:21      22:21       0.462 
      464        6:5      16:15   +   1 
      465      24:23      11:10   +   0.364 
      466      33:32      43:42   +   0.667 
      467      45:44        4:3   +   1 
      468      50:49      14:13   +   0.429 
      469      22:21      21:20   +   0.6 
      470      49:48      49:48       0.6 
      471        9:8        9:8       0.458 
      472      32:31      19:18   +   0.333 
      473        5:4      45:44   +   0.4 
      474      25:24      13:12   +   1 
      475      23:22      14:13   +   0.417 
      476        3:2        7:6   +   0.348 
      477       10:9        4:3   +   1 
      478      33:32      43:42   +   0.444 
      479      27:26      27:26       0.511 
      480      47:46      47:46       0.588 
      481      17:16      27:26   +   0.511 
      482      15:14      15:14       0.357 
      483      40:39      26:25   +   0.778 
      484      26:25       10:9   +   0.667 
      485      50:49      23:22   +   0.563 
      486      11:10      11:10       0.4 
      487      32:31      33:32   +   0.5 
      488        8:7        8:7       0.565 
      489      33:32      43:42   +   0.444 
      490      18:17      18:17       1 
      491        9:8      38:37   +   1 
      492      31:30        3:2   +   0.714 
      493        3:2        3:2       0.533 
      494      44:43      40:39   +   0.25 
      495      44:43      40:39   +   0.25 
      496      43:42        5:4   +   0.5 
      497      20:19      20:19       0.579 
      498      42:41      11:10   +   0.8 
      499      38:37      35:34   +   0.941 
      500      40:39        7:6   +   0.348 
      501        7:6        7:6       0.348 
      502      32:31      42:41   +   0.439 
      503      30:29      30:29       0.889 
      504      38:37        9:8   +   0.333 
      505        2:1      18:17   +   0.818 
      506      36:35      36:35       0.538 
      507      42:41      36:35   +   0.538 
      508      13:12      39:38   +   0.5 
      509        4:3      40:39   +   0.25 
      510      38:37      35:34   +   0.941 
      511      36:35      46:45   +   1 
      512        2:1        2:1       0.75 
      513      13:12      13:12       0.5 
      514      20:19      20:19       0.579 

=== Evaluation on test set ===

Time taken to test model on supplied test set: 0.32 seconds

=== Summary ===

Correctly Classified Instances         149               28.9883 %
Incorrectly Classified Instances       365               71.0117 %
Kappa statistic                          0.2753
Mean absolute error                      0.0297
Root mean squared error                  0.1416
Relative absolute error                 77.3853 %
Root relative squared error            102.1228 %
Total Number of Instances              514     

=== Detailed Accuracy By Class ===

                 TP Rate  FP Rate  Precision  Recall   F-Measure  MCC      ROC Area  PRC Area  Class
                 0.417    0.014    0.417      0.417    0.417      0.403    0.688     0.227     0
                 0.200    0.024    0.143      0.200    0.167      0.150    0.665     0.073     1
                 0.417    0.020    0.333      0.417    0.370      0.356    0.878     0.230     2
                 0.222    0.010    0.286      0.222    0.250      0.240    0.753     0.157     3
                 0.333    0.026    0.188      0.333    0.240      0.232    0.692     0.096     4
                 0.222    0.010    0.286      0.222    0.250      0.240    0.740     0.089     5
                 0.083    0.032    0.059      0.083    0.069      0.043    0.603     0.057     6
                 0.100    0.018    0.100      0.100    0.100      0.082    0.677     0.103     7
                 0.500    0.028    0.300      0.500    0.375      0.369    0.813     0.226     8
                 0.333    0.030    0.211      0.333    0.258      0.243    0.646     0.083     9
                 0.583    0.026    0.350      0.583    0.438      0.435    0.774     0.314     10
                 0.500    0.006    0.667      0.500    0.571      0.569    0.864     0.481     11
                 0.167    0.006    0.400      0.167    0.235      0.247    0.624     0.108     12
                 0.750    0.030    0.375      0.750    0.500      0.515    0.897     0.409     13
                 0.417    0.032    0.238      0.417    0.303      0.294    0.871     0.183     14
                 0.182    0.006    0.400      0.182    0.250      0.259    0.709     0.176     15
                 0.000    0.002    0.000      0.000    0.000      -0.007   0.824     0.133     16
                 0.333    0.014    0.364      0.333    0.348      0.333    0.635     0.224     17
                 0.500    0.024    0.294      0.500    0.370      0.368    0.835     0.283     18
                 0.556    0.010    0.500      0.556    0.526      0.518    0.927     0.369     19
                 0.556    0.012    0.455      0.556    0.500      0.493    0.819     0.275     20
                 0.667    0.016    0.429      0.667    0.522      0.524    0.926     0.308     21
                 0.200    0.012    0.250      0.200    0.222      0.210    0.824     0.270     22
                 0.222    0.008    0.333      0.222    0.267      0.262    0.858     0.203     23
                 0.222    0.016    0.200      0.222    0.211      0.196    0.690     0.079     24
                 0.200    0.016    0.200      0.200    0.200      0.184    0.566     0.048     25
                 0.500    0.020    0.375      0.500    0.429      0.417    0.732     0.199     26
                 0.444    0.032    0.200      0.444    0.276      0.280    0.763     0.466     27
                 0.000    0.000    ?          0.000    ?          ?        0.688     0.092     28
                 0.111    0.006    0.250      0.111    0.154      0.157    0.696     0.171     29
                 0.400    0.004    0.667      0.400    0.500      0.509    0.767     0.400     30
                 0.400    0.014    0.364      0.400    0.381      0.369    0.729     0.235     31
                 0.000    0.004    0.000      0.000    0.000      -0.008   0.704     0.190     32
                 0.222    0.006    0.400      0.222    0.286      0.289    0.857     0.196     33
                 0.889    0.012    0.571      0.889    0.696      0.707    0.936     0.519     34
                 0.500    0.004    0.667      0.500    0.571      0.572    0.810     0.553     35
                 0.111    0.010    0.167      0.111    0.133      0.124    0.808     0.220     36
                 0.222    0.020    0.167      0.222    0.190      0.176    0.860     0.194     37
                 0.111    0.010    0.167      0.111    0.133      0.124    0.759     0.132     38
                 0.000    0.034    0.000      0.000    0.000      -0.026   0.558     0.028     39
                 0.000    0.002    0.000      0.000    0.000      -0.006   0.620     0.046     40
                 0.333    0.010    0.375      0.333    0.353      0.343    0.701     0.136     41
                 0.182    0.014    0.222      0.182    0.200      0.185    0.610     0.087     42
                 0.000    0.008    0.000      0.000    0.000      -0.012   0.654     0.064     43
                 0.111    0.012    0.143      0.111    0.125      0.112    0.630     0.089     44
                 0.222    0.012    0.250      0.222    0.235      0.223    0.690     0.128     45
                 0.300    0.012    0.333      0.300    0.316      0.303    0.874     0.227     46
                 0.111    0.010    0.167      0.111    0.133      0.124    0.583     0.060     47
                 0.400    0.004    0.667      0.400    0.500      0.509    0.679     0.278     48
                 0.111    0.018    0.100      0.111    0.105      0.089    0.792     0.139     49
                 0.000    0.004    0.000      0.000    0.000      -0.008   0.681     0.065     50
Weighted Avg.    0.290    0.015    ?          0.290    ?          ?        0.744     0.198     

=== Confusion Matrix ===

  a  b  c  d  e  f  g  h  i  j  k  l  m  n  o  p  q  r  s  t  u  v  w  x  y  z aa ab ac ad ae af ag ah ai aj ak al am an ao ap aq ar as at au av aw ax ay   <-- classified as
  5  2  0  0  0  0  0  0  0  1  0  0  0  0  0  0  0  0  0  0  0  0  0  0  1  0  0  0  0  0  0  0  0  0  0  0  0  2  0  1  0  0  0  0  0  0  0  0  0  0  0 |  a = 0
  0  2  0  1  2  0  1  0  0  0  0  0  0  0  1  0  0  2  0  0  0  0  0  0  0  0  0  1  0  0  0  0  0  0  0  0  0  0  0  0  0  0  0  0  0  0  0  0  0  0  0 |  b = 1
  0  0  5  0  0  0  2  0  0  0  0  0  0  1  0  0  0  0  1  0  0  0  0  0  0  0  3  0  0  0  0  0  0  0  0  0  0  0  0  0  0  0  0  0  0  0  0  0  0  0  0 |  c = 2
  0  3  0  2  0  0  0  0  0  0  0  0  0  0  1  0  0  0  0  0  0  0  0  0  0  0  0  0  0  0  0  0  0  0  0  0  0  1  0  1  0  0  0  0  0  0  0  0  0  1  0 |  d = 3
  0  0  0  0  3  1  0  0  2  1  0  0  0  0  0  0  0  0  0  0  0  0  0  0  0  0  0  0  0  0  0  0  0  0  0  0  0  0  0  0  0  0  0  0  2  0  0  0  0  0  0 |  e = 4
  0  0  0  0  1  2  1  0  0  0  0  0  0  0  0  1  0  0  0  2  0  0  0  0  0  0  0  0  0  0  0  0  0  0  0  0  0  0  0  2  0  0  0  0  0  0  0  0  0  0  0 |  f = 5
  1  0  2  0  1  0  1  0  0  0  0  0  0  0  1  0  0  0  1  0  0  0  0  0  0  0  0  0  0  0  0  1  0  0  0  0  0  0  0  3  0  0  0  0  1  0  0  0  0  0  0 |  g = 6
  0  0  0  0  0  0  0  1  0  1  0  0  0  1  0  0  0  1  0  0  1  0  1  0  0  0  0  0  0  2  0  0  0  1  0  0  1  0  0  0  0  0  0  0  0  0  0  0  0  0  0 |  h = 7
  0  0  0  0  0  0  0  0  6  1  0  0  0  0  0  0  0  0  0  0  0  0  0  0  0  0  0  0  0  0  0  0  0  0  0  0  0  5  0  0  0  0  0  0  0  0  0  0  0  0  0 |  i = 8
  0  0  0  2  0  0  1  0  0  4  0  0  0  0  0  0  0  0  0  2  1  0  0  0  0  1  0  0  0  0  0  0  0  0  0  0  0  0  0  0  0  0  0  0  0  0  0  0  0  0  1 |  j = 9
  0  0  0  0  0  0  0  1  0  0  7  0  0  0  0  0  0  0  0  0  0  0  0  0  0  0  0  0  0  0  0  0  0  0  0  0  0  0  0  1  0  0  0  1  1  0  0  0  0  1  0 |  k = 10
  0  0  0  0  0  0  0  0  0  0  0  6  0  2  0  0  0  0  0  0  0  0  0  0  0  0  0  1  0  0  0  0  0  0  0  0  0  0  0  0  0  0  0  0  0  1  2  0  0  0  0 |  l = 11
  0  0  0  1  1  0  0  0  0  0  3  0  2  1  0  0  0  0  0  0  0  0  0  0  1  0  0  1  0  0  0  0  0  0  0  0  1  0  1  0  0  0  0  0  0  0  0  0  0  0  0 |  m = 12
  0  0  0  0  0  0  0  0  0  0  0  0  1  9  0  0  0  0  0  0  1  0  0  0  0  0  0  0  0  0  0  0  0  0  0  0  0  0  1  0  0  0  0  0  0  0  0  0  0  0  0 |  n = 13
  0  0  1  0  0  0  1  0  1  1  0  0  0  0  5  0  0  0  1  0  0  0  0  0  0  0  0  0  0  0  0  1  0  0  0  0  0  0  1  0  0  0  0  0  0  0  0  0  0  0  0 |  o = 14
  0  0  0  0  1  1  1  0  0  1  0  0  0  0  1  2  0  0  0  0  0  0  0  0  0  0  0  0  0  0  0  0  0  0  0  0  0  0  0  0  0  3  1  0  0  0  0  0  0  0  0 |  p = 15
  0  0  0  0  0  0  1  0  0  0  0  0  0  0  6  0  0  0  0  0  0  0  0  0  0  0  2  0  0  0  1  0  0  0  0  0  0  0  1  0  0  0  0  0  0  0  0  0  0  0  0 |  q = 16
  1  0  0  0  1  0  0  0  1  2  0  0  0  0  0  0  0  4  0  1  0  0  0  0  0  2  0  0  0  0  0  0  0  0  0  0  0  0  0  0  0  0  0  0  0  0  0  0  0  0  0 |  r = 17
  0  0  2  0  0  0  0  0  0  0  0  0  0  0  0  0  0  0  5  0  0  0  0  0  0  0  0  0  0  0  0  1  1  0  0  0  0  0  0  0  0  0  0  0  1  0  0  0  0  0  0 |  s = 18
  0  0  0  0  0  0  0  0  1  2  0  0  0  0  0  0  0  0  0  5  0  0  0  0  0  0  0  0  0  0  0  0  0  0  0  0  0  0  0  1  0  0  0  0  0  0  0  0  0  0  0 |  t = 19
  0  0  0  0  0  0  0  0  0  1  0  0  0  0  0  0  0  0  0  0  5  0  1  0  0  0  0  0  0  0  0  0  0  0  0  0  0  0  0  0  0  0  0  0  0  2  0  0  0  0  0 |  u = 20
  0  0  0  0  0  0  0  0  0  0  0  0  0  0  0  0  0  0  0  0  1  6  0  0  0  0  0  0  0  0  0  0  0  0  0  0  0  0  0  0  0  0  0  0  0  1  1  0  0  0  0 |  v = 21
  0  0  0  0  0  0  0  1  0  0  0  0  0  1  1  0  0  0  0  0  0  1  2  0  0  0  0  0  0  0  0  0  0  0  0  0  1  0  0  0  0  0  0  0  0  1  1  1  0  0  0 |  w = 22
  0  0  0  0  0  0  0  0  0  0  2  0  0  2  0  0  0  0  0  0  0  0  0  2  2  0  0  0  0  0  0  0  0  0  0  0  0  0  0  0  0  0  0  0  0  0  1  0  0  0  0 |  x = 23
  0  0  0  0  0  0  0  0  0  0  2  0  1  0  0  0  0  0  0  0  0  0  0  0  2  0  0  0  0  0  0  0  0  0  0  0  0  0  0  0  0  0  1  0  0  0  0  0  2  1  0 |  y = 24
  0  3  0  0  2  0  0  0  0  1  0  0  0  0  0  0  0  0  0  0  0  0  0  0  0  2  0  0  0  0  0  0  0  0  0  0  0  0  0  1  0  0  0  0  0  0  0  0  0  1  0 |  z = 25
  0  0  0  0  0  0  1  0  0  0  1  0  0  0  0  0  0  0  1  0  0  0  0  0  0  1  6  0  0  0  0  0  0  0  0  0  0  0  0  0  0  0  0  1  0  0  0  0  0  1  0 | aa = 26
  0  0  0  0  0  0  0  3  0  0  0  0  0  0  0  0  0  0  0  0  0  0  0  0  0  0  0  4  0  0  0  0  0  2  0  0  0  0  0  0  0  0  0  0  0  0  0  0  0  0  0 | ab = 27
  0  0  4  0  0  0  0  0  1  0  0  0  0  0  0  1  0  0  1  0  0  0  0  0  0  1  1  0  0  0  0  1  0  0  0  0  0  0  0  1  0  0  0  0  0  0  0  0  0  0  0 | ac = 28
  0  0  0  0  0  0  0  1  0  2  0  0  0  1  0  0  0  0  0  0  1  1  0  0  0  0  0  1  0  1  0  0  0  0  0  0  1  0  0  0  0  0  0  0  0  0  0  0  0  0  0 | ad = 29
  0  0  1  0  1  1  1  0  0  0  0  0  0  0  0  0  0  0  0  0  0  0  0  0  0  0  1  0  0  0  4  0  0  0  0  0  0  0  0  0  0  0  0  0  0  0  0  1  0  0  0 | ae = 30
  0  0  0  0  0  0  0  0  0  0  0  0  0  0  0  0  0  1  1  0  1  0  0  0  0  0  0  0  0  0  0  4  1  0  0  0  0  1  0  0  0  1  0  0  0  0  0  0  0  0  0 | af = 31
  2  0  0  0  0  0  0  0  0  0  0  0  0  0  0  0  0  0  0  0  0  0  0  0  0  0  0  0  0  0  0  2  0  0  0  0  0  0  0  0  0  0  5  0  0  0  0  0  0  0  0 | ag = 32
  0  0  0  0  0  0  0  1  0  0  1  1  0  0  0  0  0  0  0  0  0  0  0  0  0  0  0  4  0  0  0  0  0  2  0  0  0  0  0  0  0  0  0  0  0  0  0  0  0  0  0 | ah = 33
  0  0  0  0  0  0  0  0  1  0  0  0  0  0  0  0  0  0  0  0  0  0  0  0  0  0  0  0  0  0  0  0  0  0  8  0  0  0  0  0  0  0  0  0  0  0  0  0  0  0  0 | ai = 34
  0  0  0  0  0  0  0  0  2  0  0  0  0  0  0  0  0  0  0  0  0  0  0  0  0  0  0  0  0  0  0  0  0  0  1  4  0  0  0  0  0  0  0  0  0  1  0  0  0  0  0 | aj = 35
  0  0  0  0  0  0  0  0  0  0  0  1  0  0  0  0  0  0  0  0  0  2  0  0  0  0  0  5  0  0  0  0  0  0  0  0  1  0  0  0  0  0  0  0  0  0  0  0  0  0  0 | ak = 36
  0  0  0  0  0  0  0  0  3  0  0  0  0  0  0  0  0  0  0  0  0  0  0  0  0  0  0  0  0  0  0  0  0  0  3  0  1  2  0  0  0  0  0  0  0  0  0  0  0  0  0 | al = 37
  1  0  0  0  1  0  0  0  0  0  1  0  0  0  0  0  0  0  0  0  0  0  0  0  0  0  0  0  0  0  0  0  0  0  1  0  0  0  1  0  0  0  0  1  1  0  0  2  0  0  0 | am = 38
  0  0  0  0  0  0  2  0  0  0  0  0  0  0  2  0  0  1  0  0  0  0  0  0  0  1  0  0  0  0  0  0  0  0  1  1  0  0  0  0  0  0  0  0  0  0  0  0  0  1  1 | an = 39
  0  0  0  0  0  0  2  0  0  1  0  0  0  0  2  0  0  2  0  0  0  0  0  0  0  0  1  0  0  0  0  1  0  0  0  0  0  0  0  0  0  0  0  0  0  0  0  1  0  0  0 | ao = 40
  0  1  0  0  1  1  0  0  0  0  1  0  0  0  0  1  0  0  0  0  0  0  0  0  0  0  0  0  0  0  0  0  0  0  0  1  0  0  0  0  0  3  0  0  0  0  0  0  0  0  0 | ap = 41
  1  1  0  0  1  0  0  0  0  0  0  0  0  1  1  0  0  0  1  0  0  0  0  0  1  0  0  0  0  0  1  0  0  0  0  0  0  0  0  0  0  1  2  0  0  0  0  0  0  0  0 | aq = 42
  0  0  0  0  0  1  2  0  0  0  0  0  0  1  0  0  1  0  0  0  0  1  0  0  0  0  0  0  0  0  0  0  0  0  0  0  0  0  0  4  0  0  0  0  0  0  0  0  0  0  0 | ar = 43
  0  0  0  1  0  0  0  0  0  0  0  0  0  0  0  0  0  0  5  0  0  0  0  0  0  0  0  0  0  0  0  0  0  0  0  0  0  0  0  0  1  0  0  1  1  0  0  0  0  0  0 | as = 44
  0  0  0  0  0  0  0  0  0  0  0  0  0  0  0  0  0  0  0  0  0  0  1  1  0  0  2  1  0  0  0  0  0  0  0  0  0  1  1  0  0  0  0  0  0  2  0  0  0  0  0 | at = 45
  0  0  0  0  0  0  0  2  0  0  0  1  0  0  0  0  0  0  0  0  0  3  1  0  0  0  0  0  0  0  0  0  0  0  0  0  0  0  0  0  0  0  0  0  0  0  3  0  0  0  0 | au = 46
  1  0  0  0  0  0  0  0  0  0  0  0  0  0  0  0  0  0  0  0  0  0  1  2  0  0  0  1  0  0  0  0  0  0  0  0  0  0  0  1  0  0  0  0  0  0  0  1  0  2  0 | av = 47
  0  0  0  0  0  0  0  0  0  0  0  0  1  2  0  0  0  0  0  0  0  0  0  0  0  0  0  1  0  1  0  0  0  0  0  0  0  0  0  0  0  0  0  0  0  0  1  0  4  0  0 | aw = 48
  0  0  0  0  0  0  0  0  0  0  1  0  0  2  0  0  0  0  0  0  0  0  1  1  3  0  0  0  0  0  0  0  0  0  0  0  0  0  0  0  0  0  0  0  0  0  0  0  0  1  0 | ax = 49
  0  2  0  0  0  0  0  0  2  0  1  0  0  0  0  0  0  0  0  0  0  0  0  0  0  2  0  0  0  0  0  0  0  0  0  0  0  0  0  1  0  0  0  0  0  0  0  0  0  1  0 | ay = 50

