=== Run information ===

Scheme:       weka.classifiers.trees.J48 -O -C 0.25 -M 2
Relation:     ds1Train-weka.filters.unsupervised.attribute.NumericToBinary-Rfirst-last-weka.filters.unsupervised.attribute.NumericToNominal-Rfirst-last
Instances:    1960
Attributes:   1025
              [list of attributes omitted]
Test mode:    user supplied test set:  size unknown (reading incrementally)

=== Classifier model (full training set) ===

J48 pruned tree
------------------

f48_binarized = 0
|   f482_binarized = 0
|   |   f365_binarized = 0: 30 (2.0/1.0)
|   |   f365_binarized = 1
|   |   |   f921_binarized = 0: 40 (8.0/1.0)
|   |   |   f921_binarized = 1
|   |   |   |   f640_binarized = 0
|   |   |   |   |   f864_binarized = 0: 39 (4.0/1.0)
|   |   |   |   |   f864_binarized = 1: 14 (5.0)
|   |   |   |   f640_binarized = 1
|   |   |   |   |   f98_binarized = 0: 4 (2.0)
|   |   |   |   |   f98_binarized = 1
|   |   |   |   |   |   f1010_binarized = 0
|   |   |   |   |   |   |   f803_binarized = 0: 2 (7.0)
|   |   |   |   |   |   |   f803_binarized = 1: 28 (4.0/1.0)
|   |   |   |   |   |   f1010_binarized = 1
|   |   |   |   |   |   |   f891_binarized = 0: 16 (4.0)
|   |   |   |   |   |   |   f891_binarized = 1
|   |   |   |   |   |   |   |   f513_binarized = 0: 26 (7.0/1.0)
|   |   |   |   |   |   |   |   f513_binarized = 1: 28 (2.0)
|   f482_binarized = 1
|   |   f797_binarized = 0
|   |   |   f802_binarized = 0: 12 (3.0/2.0)
|   |   |   f802_binarized = 1
|   |   |   |   f544_binarized = 0: 3 (8.0)
|   |   |   |   f544_binarized = 1
|   |   |   |   |   f208_binarized = 0: 0 (2.0/1.0)
|   |   |   |   |   f208_binarized = 1
|   |   |   |   |   |   f477_binarized = 0
|   |   |   |   |   |   |   f8_binarized = 0: 1 (2.0/1.0)
|   |   |   |   |   |   |   f8_binarized = 1: 39 (4.0/1.0)
|   |   |   |   |   |   f477_binarized = 1
|   |   |   |   |   |   |   f168_binarized = 0
|   |   |   |   |   |   |   |   f14_binarized = 0: 18 (2.0)
|   |   |   |   |   |   |   |   f14_binarized = 1: 44 (3.0)
|   |   |   |   |   |   |   f168_binarized = 1
|   |   |   |   |   |   |   |   f24_binarized = 0: 6 (17.0/1.0)
|   |   |   |   |   |   |   |   f24_binarized = 1: 1 (6.0)
|   |   f797_binarized = 1
|   |   |   f516_binarized = 0
|   |   |   |   f175_binarized = 0: 12 (3.0/2.0)
|   |   |   |   f175_binarized = 1
|   |   |   |   |   f190_binarized = 0: 17 (2.0)
|   |   |   |   |   f190_binarized = 1
|   |   |   |   |   |   f606_binarized = 0
|   |   |   |   |   |   |   f26_binarized = 0: 6 (3.0)
|   |   |   |   |   |   |   f26_binarized = 1: 39 (2.0)
|   |   |   |   |   |   f606_binarized = 1
|   |   |   |   |   |   |   f823_binarized = 0: 16 (10.0/1.0)
|   |   |   |   |   |   |   f823_binarized = 1
|   |   |   |   |   |   |   |   f69_binarized = 0: 5 (2.0)
|   |   |   |   |   |   |   |   f69_binarized = 1
|   |   |   |   |   |   |   |   |   f227_binarized = 0: 43 (2.0)
|   |   |   |   |   |   |   |   |   f227_binarized = 1
|   |   |   |   |   |   |   |   |   |   f51_binarized = 0
|   |   |   |   |   |   |   |   |   |   |   f24_binarized = 0
|   |   |   |   |   |   |   |   |   |   |   |   f26_binarized = 0: 4 (5.0/1.0)
|   |   |   |   |   |   |   |   |   |   |   |   f26_binarized = 1: 40 (2.0)
|   |   |   |   |   |   |   |   |   |   |   f24_binarized = 1: 14 (2.0/1.0)
|   |   |   |   |   |   |   |   |   |   f51_binarized = 1
|   |   |   |   |   |   |   |   |   |   |   f13_binarized = 0: 14 (3.0)
|   |   |   |   |   |   |   |   |   |   |   f13_binarized = 1: 2 (6.0/1.0)
|   |   |   f516_binarized = 1
|   |   |   |   f731_binarized = 0
|   |   |   |   |   f325_binarized = 0
|   |   |   |   |   |   f11_binarized = 0: 39 (2.0)
|   |   |   |   |   |   f11_binarized = 1: 12 (2.0/1.0)
|   |   |   |   |   f325_binarized = 1
|   |   |   |   |   |   f69_binarized = 0: 9 (2.0/1.0)
|   |   |   |   |   |   f69_binarized = 1
|   |   |   |   |   |   |   f206_binarized = 0: 40 (2.0/1.0)
|   |   |   |   |   |   |   f206_binarized = 1
|   |   |   |   |   |   |   |   f696_binarized = 0: 6 (6.0/1.0)
|   |   |   |   |   |   |   |   f696_binarized = 1
|   |   |   |   |   |   |   |   |   f533_binarized = 0: 32 (2.0/1.0)
|   |   |   |   |   |   |   |   |   f533_binarized = 1
|   |   |   |   |   |   |   |   |   |   f563_binarized = 0: 42 (2.0)
|   |   |   |   |   |   |   |   |   |   f563_binarized = 1
|   |   |   |   |   |   |   |   |   |   |   f399_binarized = 0: 1 (8.0/1.0)
|   |   |   |   |   |   |   |   |   |   |   f399_binarized = 1
|   |   |   |   |   |   |   |   |   |   |   |   f404_binarized = 0: 6 (2.0/1.0)
|   |   |   |   |   |   |   |   |   |   |   |   f404_binarized = 1: 3 (10.0)
|   |   |   |   f731_binarized = 1
|   |   |   |   |   f697_binarized = 0
|   |   |   |   |   |   f133_binarized = 0: 20 (3.0/2.0)
|   |   |   |   |   |   f133_binarized = 1
|   |   |   |   |   |   |   f676_binarized = 0: 16 (3.0/1.0)
|   |   |   |   |   |   |   f676_binarized = 1
|   |   |   |   |   |   |   |   f923_binarized = 0: 0 (7.0)
|   |   |   |   |   |   |   |   f923_binarized = 1
|   |   |   |   |   |   |   |   |   f743_binarized = 0
|   |   |   |   |   |   |   |   |   |   f46_binarized = 0
|   |   |   |   |   |   |   |   |   |   |   f111_binarized = 0: 12 (2.0/1.0)
|   |   |   |   |   |   |   |   |   |   |   f111_binarized = 1: 14 (6.0/1.0)
|   |   |   |   |   |   |   |   |   |   f46_binarized = 1: 0 (2.0)
|   |   |   |   |   |   |   |   |   f743_binarized = 1
|   |   |   |   |   |   |   |   |   |   f967_binarized = 0: 18 (3.0)
|   |   |   |   |   |   |   |   |   |   f967_binarized = 1
|   |   |   |   |   |   |   |   |   |   |   f489_binarized = 0
|   |   |   |   |   |   |   |   |   |   |   |   f18_binarized = 0: 1 (2.0/1.0)
|   |   |   |   |   |   |   |   |   |   |   |   f18_binarized = 1: 3 (4.0)
|   |   |   |   |   |   |   |   |   |   |   f489_binarized = 1
|   |   |   |   |   |   |   |   |   |   |   |   f233_binarized = 0
|   |   |   |   |   |   |   |   |   |   |   |   |   f74_binarized = 0: 40 (2.0/1.0)
|   |   |   |   |   |   |   |   |   |   |   |   |   f74_binarized = 1: 32 (2.0)
|   |   |   |   |   |   |   |   |   |   |   |   f233_binarized = 1
|   |   |   |   |   |   |   |   |   |   |   |   |   f119_binarized = 0: 32 (2.0)
|   |   |   |   |   |   |   |   |   |   |   |   |   f119_binarized = 1
|   |   |   |   |   |   |   |   |   |   |   |   |   |   f399_binarized = 0: 1 (6.0)
|   |   |   |   |   |   |   |   |   |   |   |   |   |   f399_binarized = 1
|   |   |   |   |   |   |   |   |   |   |   |   |   |   |   f492_binarized = 0: 1 (2.0)
|   |   |   |   |   |   |   |   |   |   |   |   |   |   |   f492_binarized = 1: 9 (8.0)
|   |   |   |   |   f697_binarized = 1
|   |   |   |   |   |   f996_binarized = 0
|   |   |   |   |   |   |   f107_binarized = 0: 23 (2.0/1.0)
|   |   |   |   |   |   |   f107_binarized = 1
|   |   |   |   |   |   |   |   f319_binarized = 0: 3 (2.0)
|   |   |   |   |   |   |   |   f319_binarized = 1
|   |   |   |   |   |   |   |   |   f443_binarized = 0: 4 (2.0/1.0)
|   |   |   |   |   |   |   |   |   f443_binarized = 1
|   |   |   |   |   |   |   |   |   |   f1002_binarized = 0: 25 (17.0/2.0)
|   |   |   |   |   |   |   |   |   |   f1002_binarized = 1: 50 (5.0/1.0)
|   |   |   |   |   |   f996_binarized = 1
|   |   |   |   |   |   |   f5_binarized = 0
|   |   |   |   |   |   |   |   f103_binarized = 0: 3 (2.0)
|   |   |   |   |   |   |   |   f103_binarized = 1
|   |   |   |   |   |   |   |   |   f264_binarized = 0: 1 (2.0/1.0)
|   |   |   |   |   |   |   |   |   f264_binarized = 1
|   |   |   |   |   |   |   |   |   |   f315_binarized = 0: 15 (3.0/1.0)
|   |   |   |   |   |   |   |   |   |   f315_binarized = 1
|   |   |   |   |   |   |   |   |   |   |   f565_binarized = 0: 5 (3.0)
|   |   |   |   |   |   |   |   |   |   |   f565_binarized = 1
|   |   |   |   |   |   |   |   |   |   |   |   f1015_binarized = 0
|   |   |   |   |   |   |   |   |   |   |   |   |   f838_binarized = 0: 25 (4.0)
|   |   |   |   |   |   |   |   |   |   |   |   |   f838_binarized = 1: 50 (5.0)
|   |   |   |   |   |   |   |   |   |   |   |   f1015_binarized = 1
|   |   |   |   |   |   |   |   |   |   |   |   |   f123_binarized = 0: 25 (2.0)
|   |   |   |   |   |   |   |   |   |   |   |   |   f123_binarized = 1
|   |   |   |   |   |   |   |   |   |   |   |   |   |   f51_binarized = 0: 19 (19.0/1.0)
|   |   |   |   |   |   |   |   |   |   |   |   |   |   f51_binarized = 1: 5 (2.0/1.0)
|   |   |   |   |   |   |   f5_binarized = 1
|   |   |   |   |   |   |   |   f631_binarized = 0
|   |   |   |   |   |   |   |   |   f491_binarized = 0
|   |   |   |   |   |   |   |   |   |   f9_binarized = 0: 1 (3.0/1.0)
|   |   |   |   |   |   |   |   |   |   f9_binarized = 1: 39 (3.0/1.0)
|   |   |   |   |   |   |   |   |   f491_binarized = 1
|   |   |   |   |   |   |   |   |   |   f520_binarized = 0
|   |   |   |   |   |   |   |   |   |   |   f713_binarized = 0: 16 (2.0/1.0)
|   |   |   |   |   |   |   |   |   |   |   f713_binarized = 1: 0 (4.0)
|   |   |   |   |   |   |   |   |   |   f520_binarized = 1
|   |   |   |   |   |   |   |   |   |   |   f46_binarized = 0
|   |   |   |   |   |   |   |   |   |   |   |   f234_binarized = 0: 42 (3.0)
|   |   |   |   |   |   |   |   |   |   |   |   f234_binarized = 1
|   |   |   |   |   |   |   |   |   |   |   |   |   f110_binarized = 0: 32 (2.0/1.0)
|   |   |   |   |   |   |   |   |   |   |   |   |   f110_binarized = 1: 9 (14.0)
|   |   |   |   |   |   |   |   |   |   |   f46_binarized = 1: 16 (2.0/1.0)
|   |   |   |   |   |   |   |   f631_binarized = 1
|   |   |   |   |   |   |   |   |   f825_binarized = 0
|   |   |   |   |   |   |   |   |   |   f411_binarized = 0: 3 (2.0/1.0)
|   |   |   |   |   |   |   |   |   |   f411_binarized = 1
|   |   |   |   |   |   |   |   |   |   |   f894_binarized = 0: 10 (2.0)
|   |   |   |   |   |   |   |   |   |   |   f894_binarized = 1
|   |   |   |   |   |   |   |   |   |   |   |   f917_binarized = 0: 2 (2.0/1.0)
|   |   |   |   |   |   |   |   |   |   |   |   f917_binarized = 1
|   |   |   |   |   |   |   |   |   |   |   |   |   f981_binarized = 0
|   |   |   |   |   |   |   |   |   |   |   |   |   |   f456_binarized = 0: 1 (4.0)
|   |   |   |   |   |   |   |   |   |   |   |   |   |   f456_binarized = 1: 44 (3.0)
|   |   |   |   |   |   |   |   |   |   |   |   |   f981_binarized = 1: 17 (18.0)
|   |   |   |   |   |   |   |   |   f825_binarized = 1
|   |   |   |   |   |   |   |   |   |   f757_binarized = 0
|   |   |   |   |   |   |   |   |   |   |   f1010_binarized = 0
|   |   |   |   |   |   |   |   |   |   |   |   f364_binarized = 0: 32 (4.0)
|   |   |   |   |   |   |   |   |   |   |   |   f364_binarized = 1
|   |   |   |   |   |   |   |   |   |   |   |   |   f404_binarized = 0: 35 (4.0)
|   |   |   |   |   |   |   |   |   |   |   |   |   f404_binarized = 1: 26 (2.0/1.0)
|   |   |   |   |   |   |   |   |   |   |   f1010_binarized = 1
|   |   |   |   |   |   |   |   |   |   |   |   f341_binarized = 0: 42 (4.0/1.0)
|   |   |   |   |   |   |   |   |   |   |   |   f341_binarized = 1
|   |   |   |   |   |   |   |   |   |   |   |   |   f12_binarized = 0: 17 (8.0/1.0)
|   |   |   |   |   |   |   |   |   |   |   |   |   f12_binarized = 1
|   |   |   |   |   |   |   |   |   |   |   |   |   |   f369_binarized = 0: 18 (2.0/1.0)
|   |   |   |   |   |   |   |   |   |   |   |   |   |   f369_binarized = 1: 0 (3.0)
|   |   |   |   |   |   |   |   |   |   f757_binarized = 1
|   |   |   |   |   |   |   |   |   |   |   f853_binarized = 0
|   |   |   |   |   |   |   |   |   |   |   |   f87_binarized = 0: 14 (2.0)
|   |   |   |   |   |   |   |   |   |   |   |   f87_binarized = 1
|   |   |   |   |   |   |   |   |   |   |   |   |   f107_binarized = 0: 15 (2.0/1.0)
|   |   |   |   |   |   |   |   |   |   |   |   |   f107_binarized = 1
|   |   |   |   |   |   |   |   |   |   |   |   |   |   f143_binarized = 0: 0 (2.0)
|   |   |   |   |   |   |   |   |   |   |   |   |   |   f143_binarized = 1
|   |   |   |   |   |   |   |   |   |   |   |   |   |   |   f377_binarized = 0: 9 (3.0)
|   |   |   |   |   |   |   |   |   |   |   |   |   |   |   f377_binarized = 1: 17 (8.0/1.0)
|   |   |   |   |   |   |   |   |   |   |   f853_binarized = 1
|   |   |   |   |   |   |   |   |   |   |   |   f660_binarized = 0
|   |   |   |   |   |   |   |   |   |   |   |   |   f106_binarized = 0
|   |   |   |   |   |   |   |   |   |   |   |   |   |   f562_binarized = 0: 17 (3.0)
|   |   |   |   |   |   |   |   |   |   |   |   |   |   f562_binarized = 1: 42 (3.0)
|   |   |   |   |   |   |   |   |   |   |   |   |   f106_binarized = 1
|   |   |   |   |   |   |   |   |   |   |   |   |   |   f45_binarized = 0
|   |   |   |   |   |   |   |   |   |   |   |   |   |   |   f51_binarized = 0
|   |   |   |   |   |   |   |   |   |   |   |   |   |   |   |   f346_binarized = 0: 15 (2.0/1.0)
|   |   |   |   |   |   |   |   |   |   |   |   |   |   |   |   f346_binarized = 1: 9 (6.0/1.0)
|   |   |   |   |   |   |   |   |   |   |   |   |   |   |   f51_binarized = 1: 0 (2.0/1.0)
|   |   |   |   |   |   |   |   |   |   |   |   |   |   f45_binarized = 1
|   |   |   |   |   |   |   |   |   |   |   |   |   |   |   f15_binarized = 0: 35 (2.0)
|   |   |   |   |   |   |   |   |   |   |   |   |   |   |   f15_binarized = 1: 32 (2.0/1.0)
|   |   |   |   |   |   |   |   |   |   |   |   f660_binarized = 1
|   |   |   |   |   |   |   |   |   |   |   |   |   f870_binarized = 0
|   |   |   |   |   |   |   |   |   |   |   |   |   |   f100_binarized = 0: 43 (3.0/1.0)
|   |   |   |   |   |   |   |   |   |   |   |   |   |   f100_binarized = 1
|   |   |   |   |   |   |   |   |   |   |   |   |   |   |   f123_binarized = 0: 1 (2.0/1.0)
|   |   |   |   |   |   |   |   |   |   |   |   |   |   |   f123_binarized = 1
|   |   |   |   |   |   |   |   |   |   |   |   |   |   |   |   f86_binarized = 0: 25 (3.0/1.0)
|   |   |   |   |   |   |   |   |   |   |   |   |   |   |   |   f86_binarized = 1
|   |   |   |   |   |   |   |   |   |   |   |   |   |   |   |   |   f979_binarized = 0: 4 (3.0)
|   |   |   |   |   |   |   |   |   |   |   |   |   |   |   |   |   f979_binarized = 1: 5 (5.0/1.0)
|   |   |   |   |   |   |   |   |   |   |   |   |   f870_binarized = 1
|   |   |   |   |   |   |   |   |   |   |   |   |   |   f182_binarized = 0
|   |   |   |   |   |   |   |   |   |   |   |   |   |   |   f25_binarized = 0: 25 (4.0)
|   |   |   |   |   |   |   |   |   |   |   |   |   |   |   f25_binarized = 1
|   |   |   |   |   |   |   |   |   |   |   |   |   |   |   |   f753_binarized = 0: 17 (4.0)
|   |   |   |   |   |   |   |   |   |   |   |   |   |   |   |   f753_binarized = 1
|   |   |   |   |   |   |   |   |   |   |   |   |   |   |   |   |   f1009_binarized = 0: 30 (2.0)
|   |   |   |   |   |   |   |   |   |   |   |   |   |   |   |   |   f1009_binarized = 1
|   |   |   |   |   |   |   |   |   |   |   |   |   |   |   |   |   |   f147_binarized = 0: 31 (2.0/1.0)
|   |   |   |   |   |   |   |   |   |   |   |   |   |   |   |   |   |   f147_binarized = 1
|   |   |   |   |   |   |   |   |   |   |   |   |   |   |   |   |   |   |   f10_binarized = 0: 15 (2.0)
|   |   |   |   |   |   |   |   |   |   |   |   |   |   |   |   |   |   |   f10_binarized = 1: 41 (12.0/1.0)
|   |   |   |   |   |   |   |   |   |   |   |   |   |   f182_binarized = 1
|   |   |   |   |   |   |   |   |   |   |   |   |   |   |   f217_binarized = 0
|   |   |   |   |   |   |   |   |   |   |   |   |   |   |   |   f455_binarized = 0: 41 (3.0)
|   |   |   |   |   |   |   |   |   |   |   |   |   |   |   |   f455_binarized = 1
|   |   |   |   |   |   |   |   |   |   |   |   |   |   |   |   |   f394_binarized = 0
|   |   |   |   |   |   |   |   |   |   |   |   |   |   |   |   |   |   f169_binarized = 0: 15 (3.0)
|   |   |   |   |   |   |   |   |   |   |   |   |   |   |   |   |   |   f169_binarized = 1: 41 (6.0/2.0)
|   |   |   |   |   |   |   |   |   |   |   |   |   |   |   |   |   f394_binarized = 1: 15 (18.0/3.0)
|   |   |   |   |   |   |   |   |   |   |   |   |   |   |   f217_binarized = 1
|   |   |   |   |   |   |   |   |   |   |   |   |   |   |   |   f252_binarized = 0: 15 (10.0/1.0)
|   |   |   |   |   |   |   |   |   |   |   |   |   |   |   |   f252_binarized = 1
|   |   |   |   |   |   |   |   |   |   |   |   |   |   |   |   |   f187_binarized = 0
|   |   |   |   |   |   |   |   |   |   |   |   |   |   |   |   |   |   f166_binarized = 0: 15 (2.0)
|   |   |   |   |   |   |   |   |   |   |   |   |   |   |   |   |   |   f166_binarized = 1: 41 (6.0/1.0)
|   |   |   |   |   |   |   |   |   |   |   |   |   |   |   |   |   f187_binarized = 1
|   |   |   |   |   |   |   |   |   |   |   |   |   |   |   |   |   |   f215_binarized = 0
|   |   |   |   |   |   |   |   |   |   |   |   |   |   |   |   |   |   |   f111_binarized = 0: 15 (2.0)
|   |   |   |   |   |   |   |   |   |   |   |   |   |   |   |   |   |   |   f111_binarized = 1: 41 (6.0/1.0)
|   |   |   |   |   |   |   |   |   |   |   |   |   |   |   |   |   |   f215_binarized = 1
|   |   |   |   |   |   |   |   |   |   |   |   |   |   |   |   |   |   |   f172_binarized = 0
|   |   |   |   |   |   |   |   |   |   |   |   |   |   |   |   |   |   |   |   f12_binarized = 0
|   |   |   |   |   |   |   |   |   |   |   |   |   |   |   |   |   |   |   |   |   f365_binarized = 0: 5 (2.0)
|   |   |   |   |   |   |   |   |   |   |   |   |   |   |   |   |   |   |   |   |   f365_binarized = 1: 4 (2.0)
|   |   |   |   |   |   |   |   |   |   |   |   |   |   |   |   |   |   |   |   f12_binarized = 1
|   |   |   |   |   |   |   |   |   |   |   |   |   |   |   |   |   |   |   |   |   f267_binarized = 0: 43 (6.0/1.0)
|   |   |   |   |   |   |   |   |   |   |   |   |   |   |   |   |   |   |   |   |   f267_binarized = 1: 2 (2.0)
|   |   |   |   |   |   |   |   |   |   |   |   |   |   |   |   |   |   |   f172_binarized = 1
|   |   |   |   |   |   |   |   |   |   |   |   |   |   |   |   |   |   |   |   f200_binarized = 0
|   |   |   |   |   |   |   |   |   |   |   |   |   |   |   |   |   |   |   |   |   f1009_binarized = 0: 4 (7.0/1.0)
|   |   |   |   |   |   |   |   |   |   |   |   |   |   |   |   |   |   |   |   |   f1009_binarized = 1: 5 (8.0/1.0)
|   |   |   |   |   |   |   |   |   |   |   |   |   |   |   |   |   |   |   |   f200_binarized = 1
|   |   |   |   |   |   |   |   |   |   |   |   |   |   |   |   |   |   |   |   |   f170_binarized = 0
|   |   |   |   |   |   |   |   |   |   |   |   |   |   |   |   |   |   |   |   |   |   f10_binarized = 0
|   |   |   |   |   |   |   |   |   |   |   |   |   |   |   |   |   |   |   |   |   |   |   f1006_binarized = 0: 4 (3.0)
|   |   |   |   |   |   |   |   |   |   |   |   |   |   |   |   |   |   |   |   |   |   |   f1006_binarized = 1: 5 (6.0/1.0)
|   |   |   |   |   |   |   |   |   |   |   |   |   |   |   |   |   |   |   |   |   |   f10_binarized = 1: 31 (3.0/2.0)
|   |   |   |   |   |   |   |   |   |   |   |   |   |   |   |   |   |   |   |   |   f170_binarized = 1
|   |   |   |   |   |   |   |   |   |   |   |   |   |   |   |   |   |   |   |   |   |   f493_binarized = 0
|   |   |   |   |   |   |   |   |   |   |   |   |   |   |   |   |   |   |   |   |   |   |   f13_binarized = 0: 4 (2.0/1.0)
|   |   |   |   |   |   |   |   |   |   |   |   |   |   |   |   |   |   |   |   |   |   |   f13_binarized = 1: 31 (10.0)
|   |   |   |   |   |   |   |   |   |   |   |   |   |   |   |   |   |   |   |   |   |   f493_binarized = 1
|   |   |   |   |   |   |   |   |   |   |   |   |   |   |   |   |   |   |   |   |   |   |   f469_binarized = 0: 36 (2.0/1.0)
|   |   |   |   |   |   |   |   |   |   |   |   |   |   |   |   |   |   |   |   |   |   |   f469_binarized = 1
|   |   |   |   |   |   |   |   |   |   |   |   |   |   |   |   |   |   |   |   |   |   |   |   f58_binarized = 0
|   |   |   |   |   |   |   |   |   |   |   |   |   |   |   |   |   |   |   |   |   |   |   |   |   f1000_binarized = 0: 8 (2.0)
|   |   |   |   |   |   |   |   |   |   |   |   |   |   |   |   |   |   |   |   |   |   |   |   |   f1000_binarized = 1: 19 (10.0/2.0)
|   |   |   |   |   |   |   |   |   |   |   |   |   |   |   |   |   |   |   |   |   |   |   |   f58_binarized = 1
|   |   |   |   |   |   |   |   |   |   |   |   |   |   |   |   |   |   |   |   |   |   |   |   |   f908_binarized = 0: 35 (2.0)
|   |   |   |   |   |   |   |   |   |   |   |   |   |   |   |   |   |   |   |   |   |   |   |   |   f908_binarized = 1
|   |   |   |   |   |   |   |   |   |   |   |   |   |   |   |   |   |   |   |   |   |   |   |   |   |   f43_binarized = 0: 8 (22.0)
|   |   |   |   |   |   |   |   |   |   |   |   |   |   |   |   |   |   |   |   |   |   |   |   |   |   f43_binarized = 1
|   |   |   |   |   |   |   |   |   |   |   |   |   |   |   |   |   |   |   |   |   |   |   |   |   |   |   f22_binarized = 0: 31 (5.0/1.0)
|   |   |   |   |   |   |   |   |   |   |   |   |   |   |   |   |   |   |   |   |   |   |   |   |   |   |   f22_binarized = 1
|   |   |   |   |   |   |   |   |   |   |   |   |   |   |   |   |   |   |   |   |   |   |   |   |   |   |   |   f112_binarized = 0
|   |   |   |   |   |   |   |   |   |   |   |   |   |   |   |   |   |   |   |   |   |   |   |   |   |   |   |   |   f241_binarized = 0
|   |   |   |   |   |   |   |   |   |   |   |   |   |   |   |   |   |   |   |   |   |   |   |   |   |   |   |   |   |   f529_binarized = 0
|   |   |   |   |   |   |   |   |   |   |   |   |   |   |   |   |   |   |   |   |   |   |   |   |   |   |   |   |   |   |   f689_binarized = 0
|   |   |   |   |   |   |   |   |   |   |   |   |   |   |   |   |   |   |   |   |   |   |   |   |   |   |   |   |   |   |   |   f15_binarized = 0: 8 (4.0)
|   |   |   |   |   |   |   |   |   |   |   |   |   |   |   |   |   |   |   |   |   |   |   |   |   |   |   |   |   |   |   |   f15_binarized = 1: 37 (9.0/2.0)
|   |   |   |   |   |   |   |   |   |   |   |   |   |   |   |   |   |   |   |   |   |   |   |   |   |   |   |   |   |   |   f689_binarized = 1: 37 (4.0)
|   |   |   |   |   |   |   |   |   |   |   |   |   |   |   |   |   |   |   |   |   |   |   |   |   |   |   |   |   |   f529_binarized = 1: 8 (4.0)
|   |   |   |   |   |   |   |   |   |   |   |   |   |   |   |   |   |   |   |   |   |   |   |   |   |   |   |   |   f241_binarized = 1: 34 (2.0/1.0)
|   |   |   |   |   |   |   |   |   |   |   |   |   |   |   |   |   |   |   |   |   |   |   |   |   |   |   |   f112_binarized = 1
|   |   |   |   |   |   |   |   |   |   |   |   |   |   |   |   |   |   |   |   |   |   |   |   |   |   |   |   |   f16_binarized = 0
|   |   |   |   |   |   |   |   |   |   |   |   |   |   |   |   |   |   |   |   |   |   |   |   |   |   |   |   |   |   f146_binarized = 0: 37 (3.0)
|   |   |   |   |   |   |   |   |   |   |   |   |   |   |   |   |   |   |   |   |   |   |   |   |   |   |   |   |   |   f146_binarized = 1: 34 (24.0/1.0)
|   |   |   |   |   |   |   |   |   |   |   |   |   |   |   |   |   |   |   |   |   |   |   |   |   |   |   |   |   f16_binarized = 1: 8 (2.0)
f48_binarized = 1
|   f16_binarized = 0
|   |   f683_binarized = 0
|   |   |   f51_binarized = 0: 15 (2.0/1.0)
|   |   |   f51_binarized = 1
|   |   |   |   f779_binarized = 0: 5 (2.0)
|   |   |   |   f779_binarized = 1: 32 (5.0)
|   |   f683_binarized = 1
|   |   |   f242_binarized = 0
|   |   |   |   f472_binarized = 0: 32 (3.0)
|   |   |   |   f472_binarized = 1
|   |   |   |   |   f83_binarized = 0: 42 (11.0)
|   |   |   |   |   f83_binarized = 1: 19 (2.0/1.0)
|   |   |   f242_binarized = 1
|   |   |   |   f245_binarized = 0
|   |   |   |   |   f165_binarized = 0: 26 (4.0)
|   |   |   |   |   f165_binarized = 1
|   |   |   |   |   |   f168_binarized = 0
|   |   |   |   |   |   |   f42_binarized = 0: 30 (4.0)
|   |   |   |   |   |   |   f42_binarized = 1: 26 (2.0/1.0)
|   |   |   |   |   |   f168_binarized = 1
|   |   |   |   |   |   |   f973_binarized = 0: 32 (7.0/1.0)
|   |   |   |   |   |   |   f973_binarized = 1: 42 (8.0/1.0)
|   |   |   |   f245_binarized = 1
|   |   |   |   |   f341_binarized = 0
|   |   |   |   |   |   f459_binarized = 0: 42 (2.0)
|   |   |   |   |   |   f459_binarized = 1: 30 (7.0)
|   |   |   |   |   f341_binarized = 1
|   |   |   |   |   |   f407_binarized = 0
|   |   |   |   |   |   |   f503_binarized = 0
|   |   |   |   |   |   |   |   f54_binarized = 0: 32 (3.0)
|   |   |   |   |   |   |   |   f54_binarized = 1
|   |   |   |   |   |   |   |   |   f102_binarized = 0: 26 (2.0)
|   |   |   |   |   |   |   |   |   f102_binarized = 1: 16 (2.0)
|   |   |   |   |   |   |   f503_binarized = 1: 30 (9.0/1.0)
|   |   |   |   |   |   f407_binarized = 1
|   |   |   |   |   |   |   f554_binarized = 0
|   |   |   |   |   |   |   |   f5_binarized = 0: 4 (2.0/1.0)
|   |   |   |   |   |   |   |   f5_binarized = 1: 31 (3.0/1.0)
|   |   |   |   |   |   |   f554_binarized = 1
|   |   |   |   |   |   |   |   f585_binarized = 0
|   |   |   |   |   |   |   |   |   f41_binarized = 0: 5 (2.0/1.0)
|   |   |   |   |   |   |   |   |   f41_binarized = 1: 4 (3.0/1.0)
|   |   |   |   |   |   |   |   f585_binarized = 1
|   |   |   |   |   |   |   |   |   f881_binarized = 0
|   |   |   |   |   |   |   |   |   |   f43_binarized = 0: 16 (4.0/1.0)
|   |   |   |   |   |   |   |   |   |   f43_binarized = 1: 26 (2.0/1.0)
|   |   |   |   |   |   |   |   |   f881_binarized = 1
|   |   |   |   |   |   |   |   |   |   f477_binarized = 0
|   |   |   |   |   |   |   |   |   |   |   f630_binarized = 0: 16 (2.0)
|   |   |   |   |   |   |   |   |   |   |   f630_binarized = 1
|   |   |   |   |   |   |   |   |   |   |   |   f797_binarized = 0: 40 (4.0/1.0)
|   |   |   |   |   |   |   |   |   |   |   |   f797_binarized = 1
|   |   |   |   |   |   |   |   |   |   |   |   |   f391_binarized = 0: 40 (2.0)
|   |   |   |   |   |   |   |   |   |   |   |   |   f391_binarized = 1: 14 (10.0)
|   |   |   |   |   |   |   |   |   |   f477_binarized = 1
|   |   |   |   |   |   |   |   |   |   |   f478_binarized = 0: 40 (3.0/1.0)
|   |   |   |   |   |   |   |   |   |   |   f478_binarized = 1
|   |   |   |   |   |   |   |   |   |   |   |   f411_binarized = 0: 14 (8.0/2.0)
|   |   |   |   |   |   |   |   |   |   |   |   f411_binarized = 1
|   |   |   |   |   |   |   |   |   |   |   |   |   f448_binarized = 0: 14 (3.0/1.0)
|   |   |   |   |   |   |   |   |   |   |   |   |   f448_binarized = 1
|   |   |   |   |   |   |   |   |   |   |   |   |   |   f575_binarized = 0: 6 (3.0)
|   |   |   |   |   |   |   |   |   |   |   |   |   |   f575_binarized = 1
|   |   |   |   |   |   |   |   |   |   |   |   |   |   |   f795_binarized = 0
|   |   |   |   |   |   |   |   |   |   |   |   |   |   |   |   f201_binarized = 0: 6 (4.0)
|   |   |   |   |   |   |   |   |   |   |   |   |   |   |   |   f201_binarized = 1
|   |   |   |   |   |   |   |   |   |   |   |   |   |   |   |   |   f1008_binarized = 0: 18 (7.0)
|   |   |   |   |   |   |   |   |   |   |   |   |   |   |   |   |   f1008_binarized = 1: 6 (3.0/1.0)
|   |   |   |   |   |   |   |   |   |   |   |   |   |   |   f795_binarized = 1
|   |   |   |   |   |   |   |   |   |   |   |   |   |   |   |   f538_binarized = 0
|   |   |   |   |   |   |   |   |   |   |   |   |   |   |   |   |   f53_binarized = 0: 16 (2.0)
|   |   |   |   |   |   |   |   |   |   |   |   |   |   |   |   |   f53_binarized = 1: 18 (4.0/1.0)
|   |   |   |   |   |   |   |   |   |   |   |   |   |   |   |   f538_binarized = 1
|   |   |   |   |   |   |   |   |   |   |   |   |   |   |   |   |   f565_binarized = 0
|   |   |   |   |   |   |   |   |   |   |   |   |   |   |   |   |   |   f666_binarized = 0: 18 (5.0)
|   |   |   |   |   |   |   |   |   |   |   |   |   |   |   |   |   |   f666_binarized = 1
|   |   |   |   |   |   |   |   |   |   |   |   |   |   |   |   |   |   |   f1008_binarized = 0: 44 (8.0/1.0)
|   |   |   |   |   |   |   |   |   |   |   |   |   |   |   |   |   |   |   f1008_binarized = 1: 18 (2.0)
|   |   |   |   |   |   |   |   |   |   |   |   |   |   |   |   |   f565_binarized = 1
|   |   |   |   |   |   |   |   |   |   |   |   |   |   |   |   |   |   f461_binarized = 0: 44 (4.0)
|   |   |   |   |   |   |   |   |   |   |   |   |   |   |   |   |   |   f461_binarized = 1
|   |   |   |   |   |   |   |   |   |   |   |   |   |   |   |   |   |   |   f436_binarized = 0: 44 (2.0)
|   |   |   |   |   |   |   |   |   |   |   |   |   |   |   |   |   |   |   f436_binarized = 1
|   |   |   |   |   |   |   |   |   |   |   |   |   |   |   |   |   |   |   |   f726_binarized = 0: 18 (4.0)
|   |   |   |   |   |   |   |   |   |   |   |   |   |   |   |   |   |   |   |   f726_binarized = 1
|   |   |   |   |   |   |   |   |   |   |   |   |   |   |   |   |   |   |   |   |   f524_binarized = 0: 18 (3.0/1.0)
|   |   |   |   |   |   |   |   |   |   |   |   |   |   |   |   |   |   |   |   |   f524_binarized = 1
|   |   |   |   |   |   |   |   |   |   |   |   |   |   |   |   |   |   |   |   |   |   f51_binarized = 0: 28 (5.0)
|   |   |   |   |   |   |   |   |   |   |   |   |   |   |   |   |   |   |   |   |   |   f51_binarized = 1
|   |   |   |   |   |   |   |   |   |   |   |   |   |   |   |   |   |   |   |   |   |   |   f140_binarized = 0: 28 (3.0/1.0)
|   |   |   |   |   |   |   |   |   |   |   |   |   |   |   |   |   |   |   |   |   |   |   f140_binarized = 1
|   |   |   |   |   |   |   |   |   |   |   |   |   |   |   |   |   |   |   |   |   |   |   |   f998_binarized = 0: 28 (2.0)
|   |   |   |   |   |   |   |   |   |   |   |   |   |   |   |   |   |   |   |   |   |   |   |   f998_binarized = 1
|   |   |   |   |   |   |   |   |   |   |   |   |   |   |   |   |   |   |   |   |   |   |   |   |   f1007_binarized = 0: 2 (24.0/4.0)
|   |   |   |   |   |   |   |   |   |   |   |   |   |   |   |   |   |   |   |   |   |   |   |   |   f1007_binarized = 1
|   |   |   |   |   |   |   |   |   |   |   |   |   |   |   |   |   |   |   |   |   |   |   |   |   |   f293_binarized = 0: 2 (3.0)
|   |   |   |   |   |   |   |   |   |   |   |   |   |   |   |   |   |   |   |   |   |   |   |   |   |   f293_binarized = 1: 28 (9.0/1.0)
|   f16_binarized = 1
|   |   f512_binarized = 0
|   |   |   f35_binarized = 0: 1 (2.0/1.0)
|   |   |   f35_binarized = 1
|   |   |   |   f472_binarized = 0: 12 (2.0/1.0)
|   |   |   |   f472_binarized = 1
|   |   |   |   |   f554_binarized = 0: 18 (2.0/1.0)
|   |   |   |   |   f554_binarized = 1
|   |   |   |   |   |   f808_binarized = 0: 47 (5.0)
|   |   |   |   |   |   f808_binarized = 1
|   |   |   |   |   |   |   f916_binarized = 0
|   |   |   |   |   |   |   |   f83_binarized = 0: 14 (3.0)
|   |   |   |   |   |   |   |   f83_binarized = 1: 20 (3.0/2.0)
|   |   |   |   |   |   |   f916_binarized = 1
|   |   |   |   |   |   |   |   f60_binarized = 0: 39 (2.0)
|   |   |   |   |   |   |   |   f60_binarized = 1
|   |   |   |   |   |   |   |   |   f593_binarized = 0: 38 (13.0)
|   |   |   |   |   |   |   |   |   f593_binarized = 1
|   |   |   |   |   |   |   |   |   |   f280_binarized = 0: 38 (2.0)
|   |   |   |   |   |   |   |   |   |   f280_binarized = 1: 40 (9.0/1.0)
|   |   f512_binarized = 1
|   |   |   f513_binarized = 0
|   |   |   |   f929_binarized = 0: 12 (3.0/1.0)
|   |   |   |   f929_binarized = 1
|   |   |   |   |   f930_binarized = 0: 11 (2.0/1.0)
|   |   |   |   |   f930_binarized = 1
|   |   |   |   |   |   f64_binarized = 0: 47 (3.0/1.0)
|   |   |   |   |   |   f64_binarized = 1
|   |   |   |   |   |   |   f487_binarized = 0: 30 (3.0/1.0)
|   |   |   |   |   |   |   f487_binarized = 1
|   |   |   |   |   |   |   |   f224_binarized = 0
|   |   |   |   |   |   |   |   |   f1_binarized = 0: 13 (2.0/1.0)
|   |   |   |   |   |   |   |   |   f1_binarized = 1: 16 (2.0/1.0)
|   |   |   |   |   |   |   |   f224_binarized = 1
|   |   |   |   |   |   |   |   |   f26_binarized = 0: 2 (2.0/1.0)
|   |   |   |   |   |   |   |   |   f26_binarized = 1
|   |   |   |   |   |   |   |   |   |   f557_binarized = 0: 38 (3.0/1.0)
|   |   |   |   |   |   |   |   |   |   f557_binarized = 1
|   |   |   |   |   |   |   |   |   |   |   f416_binarized = 0: 38 (2.0)
|   |   |   |   |   |   |   |   |   |   |   f416_binarized = 1
|   |   |   |   |   |   |   |   |   |   |   |   f546_binarized = 0
|   |   |   |   |   |   |   |   |   |   |   |   |   f98_binarized = 0
|   |   |   |   |   |   |   |   |   |   |   |   |   |   f139_binarized = 0: 26 (2.0/1.0)
|   |   |   |   |   |   |   |   |   |   |   |   |   |   f139_binarized = 1: 45 (2.0)
|   |   |   |   |   |   |   |   |   |   |   |   |   f98_binarized = 1
|   |   |   |   |   |   |   |   |   |   |   |   |   |   f662_binarized = 0: 16 (4.0/1.0)
|   |   |   |   |   |   |   |   |   |   |   |   |   |   f662_binarized = 1
|   |   |   |   |   |   |   |   |   |   |   |   |   |   |   f758_binarized = 0
|   |   |   |   |   |   |   |   |   |   |   |   |   |   |   |   f110_binarized = 0: 16 (3.0)
|   |   |   |   |   |   |   |   |   |   |   |   |   |   |   |   f110_binarized = 1: 26 (2.0)
|   |   |   |   |   |   |   |   |   |   |   |   |   |   |   f758_binarized = 1
|   |   |   |   |   |   |   |   |   |   |   |   |   |   |   |   f911_binarized = 0: 28 (3.0)
|   |   |   |   |   |   |   |   |   |   |   |   |   |   |   |   f911_binarized = 1
|   |   |   |   |   |   |   |   |   |   |   |   |   |   |   |   |   f53_binarized = 0: 28 (2.0)
|   |   |   |   |   |   |   |   |   |   |   |   |   |   |   |   |   f53_binarized = 1
|   |   |   |   |   |   |   |   |   |   |   |   |   |   |   |   |   |   f858_binarized = 0: 28 (5.0/2.0)
|   |   |   |   |   |   |   |   |   |   |   |   |   |   |   |   |   |   f858_binarized = 1: 26 (19.0/2.0)
|   |   |   |   |   |   |   |   |   |   |   |   f546_binarized = 1: 16 (2.0/1.0)
|   |   |   f513_binarized = 1
|   |   |   |   f193_binarized = 0
|   |   |   |   |   f67_binarized = 0: 17 (2.0/1.0)
|   |   |   |   |   f67_binarized = 1
|   |   |   |   |   |   f861_binarized = 0
|   |   |   |   |   |   |   f97_binarized = 0: 45 (2.0)
|   |   |   |   |   |   |   f97_binarized = 1
|   |   |   |   |   |   |   |   f278_binarized = 0: 50 (4.0)
|   |   |   |   |   |   |   |   f278_binarized = 1: 25 (2.0)
|   |   |   |   |   |   f861_binarized = 1
|   |   |   |   |   |   |   f374_binarized = 0
|   |   |   |   |   |   |   |   f314_binarized = 0: 38 (3.0)
|   |   |   |   |   |   |   |   f314_binarized = 1: 26 (4.0)
|   |   |   |   |   |   |   f374_binarized = 1
|   |   |   |   |   |   |   |   f139_binarized = 0: 19 (3.0/1.0)
|   |   |   |   |   |   |   |   f139_binarized = 1
|   |   |   |   |   |   |   |   |   f425_binarized = 0: 23 (2.0/1.0)
|   |   |   |   |   |   |   |   |   f425_binarized = 1
|   |   |   |   |   |   |   |   |   |   f757_binarized = 0: 47 (9.0/1.0)
|   |   |   |   |   |   |   |   |   |   f757_binarized = 1
|   |   |   |   |   |   |   |   |   |   |   f288_binarized = 0: 47 (3.0/1.0)
|   |   |   |   |   |   |   |   |   |   |   f288_binarized = 1: 22 (10.0)
|   |   |   |   f193_binarized = 1
|   |   |   |   |   f113_binarized = 0
|   |   |   |   |   |   f950_binarized = 0
|   |   |   |   |   |   |   f7_binarized = 0: 3 (2.0/1.0)
|   |   |   |   |   |   |   f7_binarized = 1
|   |   |   |   |   |   |   |   f115_binarized = 0
|   |   |   |   |   |   |   |   |   f112_binarized = 0
|   |   |   |   |   |   |   |   |   |   f120_binarized = 0: 25 (4.0)
|   |   |   |   |   |   |   |   |   |   f120_binarized = 1
|   |   |   |   |   |   |   |   |   |   |   f85_binarized = 0: 28 (3.0)
|   |   |   |   |   |   |   |   |   |   |   f85_binarized = 1: 37 (2.0/1.0)
|   |   |   |   |   |   |   |   |   f112_binarized = 1: 29 (2.0/1.0)
|   |   |   |   |   |   |   |   f115_binarized = 1: 44 (3.0/1.0)
|   |   |   |   |   |   f950_binarized = 1
|   |   |   |   |   |   |   f42_binarized = 0
|   |   |   |   |   |   |   |   f49_binarized = 0: 23 (3.0/2.0)
|   |   |   |   |   |   |   |   f49_binarized = 1
|   |   |   |   |   |   |   |   |   f177_binarized = 0: 17 (2.0)
|   |   |   |   |   |   |   |   |   f177_binarized = 1
|   |   |   |   |   |   |   |   |   |   f249_binarized = 0
|   |   |   |   |   |   |   |   |   |   |   f9_binarized = 0: 3 (2.0)
|   |   |   |   |   |   |   |   |   |   |   f9_binarized = 1: 1 (2.0)
|   |   |   |   |   |   |   |   |   |   f249_binarized = 1
|   |   |   |   |   |   |   |   |   |   |   f451_binarized = 0: 5 (2.0/1.0)
|   |   |   |   |   |   |   |   |   |   |   f451_binarized = 1: 50 (5.0)
|   |   |   |   |   |   |   f42_binarized = 1
|   |   |   |   |   |   |   |   f982_binarized = 0
|   |   |   |   |   |   |   |   |   f18_binarized = 0: 30 (2.0)
|   |   |   |   |   |   |   |   |   f18_binarized = 1
|   |   |   |   |   |   |   |   |   |   f24_binarized = 0: 44 (2.0)
|   |   |   |   |   |   |   |   |   |   f24_binarized = 1: 4 (3.0/1.0)
|   |   |   |   |   |   |   |   f982_binarized = 1
|   |   |   |   |   |   |   |   |   f285_binarized = 0
|   |   |   |   |   |   |   |   |   |   f51_binarized = 0: 30 (2.0)
|   |   |   |   |   |   |   |   |   |   f51_binarized = 1: 40 (3.0)
|   |   |   |   |   |   |   |   |   f285_binarized = 1
|   |   |   |   |   |   |   |   |   |   f102_binarized = 0
|   |   |   |   |   |   |   |   |   |   |   f4_binarized = 0: 4 (2.0/1.0)
|   |   |   |   |   |   |   |   |   |   |   f4_binarized = 1
|   |   |   |   |   |   |   |   |   |   |   |   f51_binarized = 0: 9 (2.0/1.0)
|   |   |   |   |   |   |   |   |   |   |   |   f51_binarized = 1: 19 (6.0/2.0)
|   |   |   |   |   |   |   |   |   |   f102_binarized = 1
|   |   |   |   |   |   |   |   |   |   |   f410_binarized = 0
|   |   |   |   |   |   |   |   |   |   |   |   f107_binarized = 0: 39 (3.0/1.0)
|   |   |   |   |   |   |   |   |   |   |   |   f107_binarized = 1: 40 (2.0/1.0)
|   |   |   |   |   |   |   |   |   |   |   f410_binarized = 1
|   |   |   |   |   |   |   |   |   |   |   |   f669_binarized = 0: 6 (6.0/1.0)
|   |   |   |   |   |   |   |   |   |   |   |   f669_binarized = 1
|   |   |   |   |   |   |   |   |   |   |   |   |   f945_binarized = 0
|   |   |   |   |   |   |   |   |   |   |   |   |   |   f432_binarized = 0: 37 (3.0/1.0)
|   |   |   |   |   |   |   |   |   |   |   |   |   |   f432_binarized = 1: 8 (6.0/2.0)
|   |   |   |   |   |   |   |   |   |   |   |   |   f945_binarized = 1
|   |   |   |   |   |   |   |   |   |   |   |   |   |   f756_binarized = 0
|   |   |   |   |   |   |   |   |   |   |   |   |   |   |   f17_binarized = 0: 37 (2.0)
|   |   |   |   |   |   |   |   |   |   |   |   |   |   |   f17_binarized = 1: 10 (3.0/1.0)
|   |   |   |   |   |   |   |   |   |   |   |   |   |   f756_binarized = 1
|   |   |   |   |   |   |   |   |   |   |   |   |   |   |   f204_binarized = 0
|   |   |   |   |   |   |   |   |   |   |   |   |   |   |   |   f22_binarized = 0: 2 (3.0)
|   |   |   |   |   |   |   |   |   |   |   |   |   |   |   |   f22_binarized = 1: 41 (2.0/1.0)
|   |   |   |   |   |   |   |   |   |   |   |   |   |   |   f204_binarized = 1
|   |   |   |   |   |   |   |   |   |   |   |   |   |   |   |   f10_binarized = 0: 42 (2.0)
|   |   |   |   |   |   |   |   |   |   |   |   |   |   |   |   f10_binarized = 1
|   |   |   |   |   |   |   |   |   |   |   |   |   |   |   |   |   f849_binarized = 0: 36 (3.0/1.0)
|   |   |   |   |   |   |   |   |   |   |   |   |   |   |   |   |   f849_binarized = 1
|   |   |   |   |   |   |   |   |   |   |   |   |   |   |   |   |   |   f894_binarized = 0: 12 (2.0/1.0)
|   |   |   |   |   |   |   |   |   |   |   |   |   |   |   |   |   |   f894_binarized = 1
|   |   |   |   |   |   |   |   |   |   |   |   |   |   |   |   |   |   |   f879_binarized = 0: 31 (11.0/1.0)
|   |   |   |   |   |   |   |   |   |   |   |   |   |   |   |   |   |   |   f879_binarized = 1
|   |   |   |   |   |   |   |   |   |   |   |   |   |   |   |   |   |   |   |   f432_binarized = 0: 5 (2.0/1.0)
|   |   |   |   |   |   |   |   |   |   |   |   |   |   |   |   |   |   |   |   f432_binarized = 1
|   |   |   |   |   |   |   |   |   |   |   |   |   |   |   |   |   |   |   |   |   f18_binarized = 0: 0 (8.0/1.0)
|   |   |   |   |   |   |   |   |   |   |   |   |   |   |   |   |   |   |   |   |   f18_binarized = 1
|   |   |   |   |   |   |   |   |   |   |   |   |   |   |   |   |   |   |   |   |   |   f247_binarized = 0: 39 (3.0)
|   |   |   |   |   |   |   |   |   |   |   |   |   |   |   |   |   |   |   |   |   |   f247_binarized = 1: 43 (8.0)
|   |   |   |   |   f113_binarized = 1
|   |   |   |   |   |   f144_binarized = 0
|   |   |   |   |   |   |   f13_binarized = 0
|   |   |   |   |   |   |   |   f24_binarized = 0: 38 (2.0/1.0)
|   |   |   |   |   |   |   |   f24_binarized = 1: 0 (6.0/1.0)
|   |   |   |   |   |   |   f13_binarized = 1
|   |   |   |   |   |   |   |   f29_binarized = 0
|   |   |   |   |   |   |   |   |   f51_binarized = 0: 5 (2.0)
|   |   |   |   |   |   |   |   |   f51_binarized = 1: 6 (2.0)
|   |   |   |   |   |   |   |   f29_binarized = 1
|   |   |   |   |   |   |   |   |   f57_binarized = 0: 49 (3.0)
|   |   |   |   |   |   |   |   |   f57_binarized = 1
|   |   |   |   |   |   |   |   |   |   f78_binarized = 0: 36 (2.0/1.0)
|   |   |   |   |   |   |   |   |   |   f78_binarized = 1
|   |   |   |   |   |   |   |   |   |   |   f143_binarized = 0
|   |   |   |   |   |   |   |   |   |   |   |   f83_binarized = 0: 14 (2.0/1.0)
|   |   |   |   |   |   |   |   |   |   |   |   f83_binarized = 1
|   |   |   |   |   |   |   |   |   |   |   |   |   f160_binarized = 0: 18 (2.0/1.0)
|   |   |   |   |   |   |   |   |   |   |   |   |   f160_binarized = 1
|   |   |   |   |   |   |   |   |   |   |   |   |   |   f516_binarized = 0: 39 (4.0)
|   |   |   |   |   |   |   |   |   |   |   |   |   |   f516_binarized = 1
|   |   |   |   |   |   |   |   |   |   |   |   |   |   |   f201_binarized = 0: 1 (2.0/1.0)
|   |   |   |   |   |   |   |   |   |   |   |   |   |   |   f201_binarized = 1
|   |   |   |   |   |   |   |   |   |   |   |   |   |   |   |   f182_binarized = 0: 50 (7.0/1.0)
|   |   |   |   |   |   |   |   |   |   |   |   |   |   |   |   f182_binarized = 1: 25 (3.0/1.0)
|   |   |   |   |   |   |   |   |   |   |   f143_binarized = 1: 43 (2.0)
|   |   |   |   |   |   f144_binarized = 1
|   |   |   |   |   |   |   f20_binarized = 0
|   |   |   |   |   |   |   |   f59_binarized = 0: 18 (3.0/2.0)
|   |   |   |   |   |   |   |   f59_binarized = 1
|   |   |   |   |   |   |   |   |   f173_binarized = 0: 13 (3.0/2.0)
|   |   |   |   |   |   |   |   |   f173_binarized = 1
|   |   |   |   |   |   |   |   |   |   f454_binarized = 0: 7 (3.0/2.0)
|   |   |   |   |   |   |   |   |   |   f454_binarized = 1
|   |   |   |   |   |   |   |   |   |   |   f303_binarized = 0: 10 (5.0/1.0)
|   |   |   |   |   |   |   |   |   |   |   f303_binarized = 1
|   |   |   |   |   |   |   |   |   |   |   |   f146_binarized = 0
|   |   |   |   |   |   |   |   |   |   |   |   |   f536_binarized = 0: 0 (5.0/1.0)
|   |   |   |   |   |   |   |   |   |   |   |   |   f536_binarized = 1
|   |   |   |   |   |   |   |   |   |   |   |   |   |   f790_binarized = 0: 23 (2.0/1.0)
|   |   |   |   |   |   |   |   |   |   |   |   |   |   f790_binarized = 1
|   |   |   |   |   |   |   |   |   |   |   |   |   |   |   f22_binarized = 0
|   |   |   |   |   |   |   |   |   |   |   |   |   |   |   |   f86_binarized = 0: 12 (2.0/1.0)
|   |   |   |   |   |   |   |   |   |   |   |   |   |   |   |   f86_binarized = 1: 31 (6.0)
|   |   |   |   |   |   |   |   |   |   |   |   |   |   |   f22_binarized = 1: 37 (2.0)
|   |   |   |   |   |   |   |   |   |   |   |   f146_binarized = 1
|   |   |   |   |   |   |   |   |   |   |   |   |   f784_binarized = 0: 34 (4.0)
|   |   |   |   |   |   |   |   |   |   |   |   |   f784_binarized = 1
|   |   |   |   |   |   |   |   |   |   |   |   |   |   f116_binarized = 0: 29 (11.0/1.0)
|   |   |   |   |   |   |   |   |   |   |   |   |   |   f116_binarized = 1
|   |   |   |   |   |   |   |   |   |   |   |   |   |   |   f904_binarized = 0: 29 (3.0)
|   |   |   |   |   |   |   |   |   |   |   |   |   |   |   f904_binarized = 1: 35 (16.0/1.0)
|   |   |   |   |   |   |   f20_binarized = 1
|   |   |   |   |   |   |   |   f241_binarized = 0
|   |   |   |   |   |   |   |   |   f581_binarized = 0
|   |   |   |   |   |   |   |   |   |   f160_binarized = 0: 28 (2.0/1.0)
|   |   |   |   |   |   |   |   |   |   f160_binarized = 1: 4 (2.0/1.0)
|   |   |   |   |   |   |   |   |   f581_binarized = 1
|   |   |   |   |   |   |   |   |   |   f157_binarized = 0: 18 (3.0/2.0)
|   |   |   |   |   |   |   |   |   |   f157_binarized = 1
|   |   |   |   |   |   |   |   |   |   |   f762_binarized = 0
|   |   |   |   |   |   |   |   |   |   |   |   f21_binarized = 0: 12 (2.0/1.0)
|   |   |   |   |   |   |   |   |   |   |   |   f21_binarized = 1: 17 (2.0/1.0)
|   |   |   |   |   |   |   |   |   |   |   f762_binarized = 1
|   |   |   |   |   |   |   |   |   |   |   |   f207_binarized = 0
|   |   |   |   |   |   |   |   |   |   |   |   |   f270_binarized = 0: 22 (3.0/1.0)
|   |   |   |   |   |   |   |   |   |   |   |   |   f270_binarized = 1
|   |   |   |   |   |   |   |   |   |   |   |   |   |   f61_binarized = 0: 48 (4.0)
|   |   |   |   |   |   |   |   |   |   |   |   |   |   f61_binarized = 1
|   |   |   |   |   |   |   |   |   |   |   |   |   |   |   f342_binarized = 0: 24 (3.0/1.0)
|   |   |   |   |   |   |   |   |   |   |   |   |   |   |   f342_binarized = 1: 49 (6.0/1.0)
|   |   |   |   |   |   |   |   |   |   |   |   f207_binarized = 1
|   |   |   |   |   |   |   |   |   |   |   |   |   f369_binarized = 0: 24 (2.0)
|   |   |   |   |   |   |   |   |   |   |   |   |   f369_binarized = 1
|   |   |   |   |   |   |   |   |   |   |   |   |   |   f247_binarized = 0: 39 (4.0/1.0)
|   |   |   |   |   |   |   |   |   |   |   |   |   |   f247_binarized = 1
|   |   |   |   |   |   |   |   |   |   |   |   |   |   |   f837_binarized = 0: 23 (3.0/1.0)
|   |   |   |   |   |   |   |   |   |   |   |   |   |   |   f837_binarized = 1
|   |   |   |   |   |   |   |   |   |   |   |   |   |   |   |   f172_binarized = 0: 43 (6.0)
|   |   |   |   |   |   |   |   |   |   |   |   |   |   |   |   f172_binarized = 1: 10 (20.0/1.0)
|   |   |   |   |   |   |   |   f241_binarized = 1
|   |   |   |   |   |   |   |   |   f244_binarized = 0
|   |   |   |   |   |   |   |   |   |   f468_binarized = 0
|   |   |   |   |   |   |   |   |   |   |   f21_binarized = 0: 29 (3.0/1.0)
|   |   |   |   |   |   |   |   |   |   |   f21_binarized = 1: 7 (4.0/1.0)
|   |   |   |   |   |   |   |   |   |   f468_binarized = 1
|   |   |   |   |   |   |   |   |   |   |   f522_binarized = 0
|   |   |   |   |   |   |   |   |   |   |   |   f247_binarized = 0: 39 (2.0)
|   |   |   |   |   |   |   |   |   |   |   |   f247_binarized = 1
|   |   |   |   |   |   |   |   |   |   |   |   |   f1004_binarized = 0: 43 (3.0/1.0)
|   |   |   |   |   |   |   |   |   |   |   |   |   f1004_binarized = 1: 10 (12.0)
|   |   |   |   |   |   |   |   |   |   |   f522_binarized = 1
|   |   |   |   |   |   |   |   |   |   |   |   f218_binarized = 0: 12 (12.0)
|   |   |   |   |   |   |   |   |   |   |   |   f218_binarized = 1
|   |   |   |   |   |   |   |   |   |   |   |   |   f197_binarized = 0: 38 (2.0)
|   |   |   |   |   |   |   |   |   |   |   |   |   f197_binarized = 1
|   |   |   |   |   |   |   |   |   |   |   |   |   |   f230_binarized = 0: 12 (2.0)
|   |   |   |   |   |   |   |   |   |   |   |   |   |   f230_binarized = 1
|   |   |   |   |   |   |   |   |   |   |   |   |   |   |   f312_binarized = 0: 0 (2.0/1.0)
|   |   |   |   |   |   |   |   |   |   |   |   |   |   |   f312_binarized = 1
|   |   |   |   |   |   |   |   |   |   |   |   |   |   |   |   f555_binarized = 0: 21 (2.0/1.0)
|   |   |   |   |   |   |   |   |   |   |   |   |   |   |   |   f555_binarized = 1
|   |   |   |   |   |   |   |   |   |   |   |   |   |   |   |   |   f988_binarized = 0: 48 (4.0)
|   |   |   |   |   |   |   |   |   |   |   |   |   |   |   |   |   f988_binarized = 1
|   |   |   |   |   |   |   |   |   |   |   |   |   |   |   |   |   |   f745_binarized = 0: 10 (2.0/1.0)
|   |   |   |   |   |   |   |   |   |   |   |   |   |   |   |   |   |   f745_binarized = 1
|   |   |   |   |   |   |   |   |   |   |   |   |   |   |   |   |   |   |   f659_binarized = 0: 23 (8.0/1.0)
|   |   |   |   |   |   |   |   |   |   |   |   |   |   |   |   |   |   |   f659_binarized = 1
|   |   |   |   |   |   |   |   |   |   |   |   |   |   |   |   |   |   |   |   f889_binarized = 0: 23 (3.0)
|   |   |   |   |   |   |   |   |   |   |   |   |   |   |   |   |   |   |   |   f889_binarized = 1
|   |   |   |   |   |   |   |   |   |   |   |   |   |   |   |   |   |   |   |   |   f750_binarized = 0: 23 (3.0/2.0)
|   |   |   |   |   |   |   |   |   |   |   |   |   |   |   |   |   |   |   |   |   f750_binarized = 1
|   |   |   |   |   |   |   |   |   |   |   |   |   |   |   |   |   |   |   |   |   |   f753_binarized = 0: 24 (6.0)
|   |   |   |   |   |   |   |   |   |   |   |   |   |   |   |   |   |   |   |   |   |   f753_binarized = 1
|   |   |   |   |   |   |   |   |   |   |   |   |   |   |   |   |   |   |   |   |   |   |   f7_binarized = 0: 24 (2.0)
|   |   |   |   |   |   |   |   |   |   |   |   |   |   |   |   |   |   |   |   |   |   |   f7_binarized = 1
|   |   |   |   |   |   |   |   |   |   |   |   |   |   |   |   |   |   |   |   |   |   |   |   f266_binarized = 0: 24 (3.0/1.0)
|   |   |   |   |   |   |   |   |   |   |   |   |   |   |   |   |   |   |   |   |   |   |   |   f266_binarized = 1: 49 (10.0)
|   |   |   |   |   |   |   |   |   f244_binarized = 1
|   |   |   |   |   |   |   |   |   |   f80_binarized = 0
|   |   |   |   |   |   |   |   |   |   |   f11_binarized = 0: 15 (2.0)
|   |   |   |   |   |   |   |   |   |   |   f11_binarized = 1
|   |   |   |   |   |   |   |   |   |   |   |   f78_binarized = 0: 9 (6.0/1.0)
|   |   |   |   |   |   |   |   |   |   |   |   f78_binarized = 1
|   |   |   |   |   |   |   |   |   |   |   |   |   f140_binarized = 0: 43 (2.0)
|   |   |   |   |   |   |   |   |   |   |   |   |   f140_binarized = 1: 18 (2.0/1.0)
|   |   |   |   |   |   |   |   |   |   f80_binarized = 1
|   |   |   |   |   |   |   |   |   |   |   f304_binarized = 0
|   |   |   |   |   |   |   |   |   |   |   |   f194_binarized = 0: 47 (2.0)
|   |   |   |   |   |   |   |   |   |   |   |   f194_binarized = 1
|   |   |   |   |   |   |   |   |   |   |   |   |   f260_binarized = 0: 39 (2.0/1.0)
|   |   |   |   |   |   |   |   |   |   |   |   |   f260_binarized = 1
|   |   |   |   |   |   |   |   |   |   |   |   |   |   f330_binarized = 0
|   |   |   |   |   |   |   |   |   |   |   |   |   |   |   f24_binarized = 0: 13 (2.0)
|   |   |   |   |   |   |   |   |   |   |   |   |   |   |   f24_binarized = 1: 0 (2.0/1.0)
|   |   |   |   |   |   |   |   |   |   |   |   |   |   f330_binarized = 1
|   |   |   |   |   |   |   |   |   |   |   |   |   |   |   f459_binarized = 0: 27 (2.0/1.0)
|   |   |   |   |   |   |   |   |   |   |   |   |   |   |   f459_binarized = 1
|   |   |   |   |   |   |   |   |   |   |   |   |   |   |   |   f475_binarized = 0: 12 (2.0)
|   |   |   |   |   |   |   |   |   |   |   |   |   |   |   |   f475_binarized = 1
|   |   |   |   |   |   |   |   |   |   |   |   |   |   |   |   |   f4_binarized = 0: 48 (2.0)
|   |   |   |   |   |   |   |   |   |   |   |   |   |   |   |   |   f4_binarized = 1
|   |   |   |   |   |   |   |   |   |   |   |   |   |   |   |   |   |   f463_binarized = 0: 48 (2.0)
|   |   |   |   |   |   |   |   |   |   |   |   |   |   |   |   |   |   f463_binarized = 1: 49 (11.0/2.0)
|   |   |   |   |   |   |   |   |   |   |   f304_binarized = 1
|   |   |   |   |   |   |   |   |   |   |   |   f335_binarized = 0
|   |   |   |   |   |   |   |   |   |   |   |   |   f347_binarized = 0: 12 (5.0)
|   |   |   |   |   |   |   |   |   |   |   |   |   f347_binarized = 1
|   |   |   |   |   |   |   |   |   |   |   |   |   |   f14_binarized = 0: 36 (2.0/1.0)
|   |   |   |   |   |   |   |   |   |   |   |   |   |   f14_binarized = 1
|   |   |   |   |   |   |   |   |   |   |   |   |   |   |   f262_binarized = 0: 0 (2.0/1.0)
|   |   |   |   |   |   |   |   |   |   |   |   |   |   |   f262_binarized = 1
|   |   |   |   |   |   |   |   |   |   |   |   |   |   |   |   f590_binarized = 0: 23 (3.0)
|   |   |   |   |   |   |   |   |   |   |   |   |   |   |   |   f590_binarized = 1
|   |   |   |   |   |   |   |   |   |   |   |   |   |   |   |   |   f367_binarized = 0
|   |   |   |   |   |   |   |   |   |   |   |   |   |   |   |   |   |   f687_binarized = 0: 48 (2.0)
|   |   |   |   |   |   |   |   |   |   |   |   |   |   |   |   |   |   f687_binarized = 1
|   |   |   |   |   |   |   |   |   |   |   |   |   |   |   |   |   |   |   f245_binarized = 0
|   |   |   |   |   |   |   |   |   |   |   |   |   |   |   |   |   |   |   |   f25_binarized = 0: 23 (2.0/1.0)
|   |   |   |   |   |   |   |   |   |   |   |   |   |   |   |   |   |   |   |   f25_binarized = 1: 49 (2.0)
|   |   |   |   |   |   |   |   |   |   |   |   |   |   |   |   |   |   |   f245_binarized = 1
|   |   |   |   |   |   |   |   |   |   |   |   |   |   |   |   |   |   |   |   f727_binarized = 0: 13 (12.0/2.0)
|   |   |   |   |   |   |   |   |   |   |   |   |   |   |   |   |   |   |   |   f727_binarized = 1
|   |   |   |   |   |   |   |   |   |   |   |   |   |   |   |   |   |   |   |   |   f329_binarized = 0: 13 (3.0)
|   |   |   |   |   |   |   |   |   |   |   |   |   |   |   |   |   |   |   |   |   f329_binarized = 1: 24 (10.0/1.0)
|   |   |   |   |   |   |   |   |   |   |   |   |   |   |   |   |   f367_binarized = 1: 48 (3.0/1.0)
|   |   |   |   |   |   |   |   |   |   |   |   f335_binarized = 1
|   |   |   |   |   |   |   |   |   |   |   |   |   f54_binarized = 0
|   |   |   |   |   |   |   |   |   |   |   |   |   |   f84_binarized = 0: 12 (3.0/1.0)
|   |   |   |   |   |   |   |   |   |   |   |   |   |   f84_binarized = 1
|   |   |   |   |   |   |   |   |   |   |   |   |   |   |   f148_binarized = 0: 24 (4.0/1.0)
|   |   |   |   |   |   |   |   |   |   |   |   |   |   |   f148_binarized = 1
|   |   |   |   |   |   |   |   |   |   |   |   |   |   |   |   f365_binarized = 0: 13 (3.0)
|   |   |   |   |   |   |   |   |   |   |   |   |   |   |   |   f365_binarized = 1
|   |   |   |   |   |   |   |   |   |   |   |   |   |   |   |   |   f524_binarized = 0
|   |   |   |   |   |   |   |   |   |   |   |   |   |   |   |   |   |   f436_binarized = 0: 29 (3.0)
|   |   |   |   |   |   |   |   |   |   |   |   |   |   |   |   |   |   f436_binarized = 1: 7 (6.0)
|   |   |   |   |   |   |   |   |   |   |   |   |   |   |   |   |   f524_binarized = 1
|   |   |   |   |   |   |   |   |   |   |   |   |   |   |   |   |   |   f118_binarized = 0
|   |   |   |   |   |   |   |   |   |   |   |   |   |   |   |   |   |   |   f757_binarized = 0: 29 (3.0/1.0)
|   |   |   |   |   |   |   |   |   |   |   |   |   |   |   |   |   |   |   f757_binarized = 1
|   |   |   |   |   |   |   |   |   |   |   |   |   |   |   |   |   |   |   |   f1004_binarized = 0: 20 (7.0/1.0)
|   |   |   |   |   |   |   |   |   |   |   |   |   |   |   |   |   |   |   |   f1004_binarized = 1: 9 (2.0)
|   |   |   |   |   |   |   |   |   |   |   |   |   |   |   |   |   |   f118_binarized = 1: 35 (6.0/1.0)
|   |   |   |   |   |   |   |   |   |   |   |   |   f54_binarized = 1
|   |   |   |   |   |   |   |   |   |   |   |   |   |   f367_binarized = 0
|   |   |   |   |   |   |   |   |   |   |   |   |   |   |   f56_binarized = 0: 13 (2.0)
|   |   |   |   |   |   |   |   |   |   |   |   |   |   |   f56_binarized = 1
|   |   |   |   |   |   |   |   |   |   |   |   |   |   |   |   f258_binarized = 0: 38 (2.0/1.0)
|   |   |   |   |   |   |   |   |   |   |   |   |   |   |   |   f258_binarized = 1
|   |   |   |   |   |   |   |   |   |   |   |   |   |   |   |   |   f428_binarized = 0
|   |   |   |   |   |   |   |   |   |   |   |   |   |   |   |   |   |   f437_binarized = 0: 33 (2.0)
|   |   |   |   |   |   |   |   |   |   |   |   |   |   |   |   |   |   f437_binarized = 1: 27 (3.0)
|   |   |   |   |   |   |   |   |   |   |   |   |   |   |   |   |   f428_binarized = 1
|   |   |   |   |   |   |   |   |   |   |   |   |   |   |   |   |   |   f601_binarized = 0: 22 (2.0)
|   |   |   |   |   |   |   |   |   |   |   |   |   |   |   |   |   |   f601_binarized = 1
|   |   |   |   |   |   |   |   |   |   |   |   |   |   |   |   |   |   |   f486_binarized = 0: 0 (2.0)
|   |   |   |   |   |   |   |   |   |   |   |   |   |   |   |   |   |   |   f486_binarized = 1
|   |   |   |   |   |   |   |   |   |   |   |   |   |   |   |   |   |   |   |   f823_binarized = 0: 23 (3.0)
|   |   |   |   |   |   |   |   |   |   |   |   |   |   |   |   |   |   |   |   f823_binarized = 1: 48 (7.0/1.0)
|   |   |   |   |   |   |   |   |   |   |   |   |   |   f367_binarized = 1
|   |   |   |   |   |   |   |   |   |   |   |   |   |   |   f1006_binarized = 0
|   |   |   |   |   |   |   |   |   |   |   |   |   |   |   |   f373_binarized = 0
|   |   |   |   |   |   |   |   |   |   |   |   |   |   |   |   |   f11_binarized = 0: 7 (2.0/1.0)
|   |   |   |   |   |   |   |   |   |   |   |   |   |   |   |   |   f11_binarized = 1: 21 (4.0)
|   |   |   |   |   |   |   |   |   |   |   |   |   |   |   |   f373_binarized = 1
|   |   |   |   |   |   |   |   |   |   |   |   |   |   |   |   |   f63_binarized = 0
|   |   |   |   |   |   |   |   |   |   |   |   |   |   |   |   |   |   f67_binarized = 0: 22 (2.0/1.0)
|   |   |   |   |   |   |   |   |   |   |   |   |   |   |   |   |   |   f67_binarized = 1: 21 (5.0)
|   |   |   |   |   |   |   |   |   |   |   |   |   |   |   |   |   f63_binarized = 1
|   |   |   |   |   |   |   |   |   |   |   |   |   |   |   |   |   |   f925_binarized = 0
|   |   |   |   |   |   |   |   |   |   |   |   |   |   |   |   |   |   |   f101_binarized = 0: 45 (2.0)
|   |   |   |   |   |   |   |   |   |   |   |   |   |   |   |   |   |   |   f101_binarized = 1: 18 (2.0/1.0)
|   |   |   |   |   |   |   |   |   |   |   |   |   |   |   |   |   |   f925_binarized = 1
|   |   |   |   |   |   |   |   |   |   |   |   |   |   |   |   |   |   |   f525_binarized = 0
|   |   |   |   |   |   |   |   |   |   |   |   |   |   |   |   |   |   |   |   f23_binarized = 0: 29 (2.0)
|   |   |   |   |   |   |   |   |   |   |   |   |   |   |   |   |   |   |   |   f23_binarized = 1: 27 (12.0)
|   |   |   |   |   |   |   |   |   |   |   |   |   |   |   |   |   |   |   f525_binarized = 1
|   |   |   |   |   |   |   |   |   |   |   |   |   |   |   |   |   |   |   |   f462_binarized = 0: 29 (4.0/1.0)
|   |   |   |   |   |   |   |   |   |   |   |   |   |   |   |   |   |   |   |   f462_binarized = 1
|   |   |   |   |   |   |   |   |   |   |   |   |   |   |   |   |   |   |   |   |   f878_binarized = 0
|   |   |   |   |   |   |   |   |   |   |   |   |   |   |   |   |   |   |   |   |   |   f104_binarized = 0: 21 (2.0/1.0)
|   |   |   |   |   |   |   |   |   |   |   |   |   |   |   |   |   |   |   |   |   |   f104_binarized = 1: 46 (6.0/1.0)
|   |   |   |   |   |   |   |   |   |   |   |   |   |   |   |   |   |   |   |   |   f878_binarized = 1
|   |   |   |   |   |   |   |   |   |   |   |   |   |   |   |   |   |   |   |   |   |   f27_binarized = 0
|   |   |   |   |   |   |   |   |   |   |   |   |   |   |   |   |   |   |   |   |   |   |   f28_binarized = 0: 2 (2.0/1.0)
|   |   |   |   |   |   |   |   |   |   |   |   |   |   |   |   |   |   |   |   |   |   |   f28_binarized = 1: 45 (2.0)
|   |   |   |   |   |   |   |   |   |   |   |   |   |   |   |   |   |   |   |   |   |   f27_binarized = 1
|   |   |   |   |   |   |   |   |   |   |   |   |   |   |   |   |   |   |   |   |   |   |   f558_binarized = 0: 27 (3.0/1.0)
|   |   |   |   |   |   |   |   |   |   |   |   |   |   |   |   |   |   |   |   |   |   |   f558_binarized = 1
|   |   |   |   |   |   |   |   |   |   |   |   |   |   |   |   |   |   |   |   |   |   |   |   f625_binarized = 0: 27 (2.0)
|   |   |   |   |   |   |   |   |   |   |   |   |   |   |   |   |   |   |   |   |   |   |   |   f625_binarized = 1
|   |   |   |   |   |   |   |   |   |   |   |   |   |   |   |   |   |   |   |   |   |   |   |   |   f686_binarized = 0: 27 (2.0)
|   |   |   |   |   |   |   |   |   |   |   |   |   |   |   |   |   |   |   |   |   |   |   |   |   f686_binarized = 1
|   |   |   |   |   |   |   |   |   |   |   |   |   |   |   |   |   |   |   |   |   |   |   |   |   |   f442_binarized = 0
|   |   |   |   |   |   |   |   |   |   |   |   |   |   |   |   |   |   |   |   |   |   |   |   |   |   |   f2_binarized = 0: 46 (2.0)
|   |   |   |   |   |   |   |   |   |   |   |   |   |   |   |   |   |   |   |   |   |   |   |   |   |   |   f2_binarized = 1
|   |   |   |   |   |   |   |   |   |   |   |   |   |   |   |   |   |   |   |   |   |   |   |   |   |   |   |   f745_binarized = 0: 20 (3.0)
|   |   |   |   |   |   |   |   |   |   |   |   |   |   |   |   |   |   |   |   |   |   |   |   |   |   |   |   f745_binarized = 1: 45 (3.0)
|   |   |   |   |   |   |   |   |   |   |   |   |   |   |   |   |   |   |   |   |   |   |   |   |   |   f442_binarized = 1
|   |   |   |   |   |   |   |   |   |   |   |   |   |   |   |   |   |   |   |   |   |   |   |   |   |   |   f184_binarized = 0: 20 (11.0)
|   |   |   |   |   |   |   |   |   |   |   |   |   |   |   |   |   |   |   |   |   |   |   |   |   |   |   f184_binarized = 1
|   |   |   |   |   |   |   |   |   |   |   |   |   |   |   |   |   |   |   |   |   |   |   |   |   |   |   |   f221_binarized = 0: 20 (3.0)
|   |   |   |   |   |   |   |   |   |   |   |   |   |   |   |   |   |   |   |   |   |   |   |   |   |   |   |   f221_binarized = 1
|   |   |   |   |   |   |   |   |   |   |   |   |   |   |   |   |   |   |   |   |   |   |   |   |   |   |   |   |   f122_binarized = 0: 20 (2.0/1.0)
|   |   |   |   |   |   |   |   |   |   |   |   |   |   |   |   |   |   |   |   |   |   |   |   |   |   |   |   |   f122_binarized = 1: 11 (35.0/1.0)
|   |   |   |   |   |   |   |   |   |   |   |   |   |   |   f1006_binarized = 1
|   |   |   |   |   |   |   |   |   |   |   |   |   |   |   |   f927_binarized = 0
|   |   |   |   |   |   |   |   |   |   |   |   |   |   |   |   |   f359_binarized = 0: 48 (2.0)
|   |   |   |   |   |   |   |   |   |   |   |   |   |   |   |   |   f359_binarized = 1
|   |   |   |   |   |   |   |   |   |   |   |   |   |   |   |   |   |   f397_binarized = 0: 23 (3.0)
|   |   |   |   |   |   |   |   |   |   |   |   |   |   |   |   |   |   f397_binarized = 1
|   |   |   |   |   |   |   |   |   |   |   |   |   |   |   |   |   |   |   f930_binarized = 0: 7 (2.0/1.0)
|   |   |   |   |   |   |   |   |   |   |   |   |   |   |   |   |   |   |   f930_binarized = 1: 45 (7.0)
|   |   |   |   |   |   |   |   |   |   |   |   |   |   |   |   f927_binarized = 1
|   |   |   |   |   |   |   |   |   |   |   |   |   |   |   |   |   f322_binarized = 0
|   |   |   |   |   |   |   |   |   |   |   |   |   |   |   |   |   |   f103_binarized = 0: 2 (2.0/1.0)
|   |   |   |   |   |   |   |   |   |   |   |   |   |   |   |   |   |   f103_binarized = 1
|   |   |   |   |   |   |   |   |   |   |   |   |   |   |   |   |   |   |   f852_binarized = 0: 22 (4.0)
|   |   |   |   |   |   |   |   |   |   |   |   |   |   |   |   |   |   |   f852_binarized = 1
|   |   |   |   |   |   |   |   |   |   |   |   |   |   |   |   |   |   |   |   f590_binarized = 0: 47 (5.0)
|   |   |   |   |   |   |   |   |   |   |   |   |   |   |   |   |   |   |   |   f590_binarized = 1
|   |   |   |   |   |   |   |   |   |   |   |   |   |   |   |   |   |   |   |   |   f708_binarized = 0: 37 (2.0/1.0)
|   |   |   |   |   |   |   |   |   |   |   |   |   |   |   |   |   |   |   |   |   f708_binarized = 1: 46 (4.0)
|   |   |   |   |   |   |   |   |   |   |   |   |   |   |   |   |   f322_binarized = 1
|   |   |   |   |   |   |   |   |   |   |   |   |   |   |   |   |   |   f989_binarized = 0
|   |   |   |   |   |   |   |   |   |   |   |   |   |   |   |   |   |   |   f495_binarized = 0: 48 (5.0/1.0)
|   |   |   |   |   |   |   |   |   |   |   |   |   |   |   |   |   |   |   f495_binarized = 1
|   |   |   |   |   |   |   |   |   |   |   |   |   |   |   |   |   |   |   |   f103_binarized = 0
|   |   |   |   |   |   |   |   |   |   |   |   |   |   |   |   |   |   |   |   |   f5_binarized = 0: 12 (3.0)
|   |   |   |   |   |   |   |   |   |   |   |   |   |   |   |   |   |   |   |   |   f5_binarized = 1: 20 (2.0/1.0)
|   |   |   |   |   |   |   |   |   |   |   |   |   |   |   |   |   |   |   |   f103_binarized = 1
|   |   |   |   |   |   |   |   |   |   |   |   |   |   |   |   |   |   |   |   |   f250_binarized = 0: 45 (4.0)
|   |   |   |   |   |   |   |   |   |   |   |   |   |   |   |   |   |   |   |   |   f250_binarized = 1: 11 (2.0)
|   |   |   |   |   |   |   |   |   |   |   |   |   |   |   |   |   |   f989_binarized = 1
|   |   |   |   |   |   |   |   |   |   |   |   |   |   |   |   |   |   |   f65_binarized = 0
|   |   |   |   |   |   |   |   |   |   |   |   |   |   |   |   |   |   |   |   f412_binarized = 0: 22 (3.0)
|   |   |   |   |   |   |   |   |   |   |   |   |   |   |   |   |   |   |   |   f412_binarized = 1
|   |   |   |   |   |   |   |   |   |   |   |   |   |   |   |   |   |   |   |   |   f569_binarized = 0: 21 (2.0/1.0)
|   |   |   |   |   |   |   |   |   |   |   |   |   |   |   |   |   |   |   |   |   f569_binarized = 1: 46 (8.0)
|   |   |   |   |   |   |   |   |   |   |   |   |   |   |   |   |   |   |   f65_binarized = 1
|   |   |   |   |   |   |   |   |   |   |   |   |   |   |   |   |   |   |   |   f974_binarized = 0
|   |   |   |   |   |   |   |   |   |   |   |   |   |   |   |   |   |   |   |   |   f24_binarized = 0: 20 (2.0/1.0)
|   |   |   |   |   |   |   |   |   |   |   |   |   |   |   |   |   |   |   |   |   f24_binarized = 1
|   |   |   |   |   |   |   |   |   |   |   |   |   |   |   |   |   |   |   |   |   |   f656_binarized = 0: 33 (2.0)
|   |   |   |   |   |   |   |   |   |   |   |   |   |   |   |   |   |   |   |   |   |   f656_binarized = 1
|   |   |   |   |   |   |   |   |   |   |   |   |   |   |   |   |   |   |   |   |   |   |   f524_binarized = 0: 27 (3.0)
|   |   |   |   |   |   |   |   |   |   |   |   |   |   |   |   |   |   |   |   |   |   |   f524_binarized = 1: 11 (6.0/1.0)
|   |   |   |   |   |   |   |   |   |   |   |   |   |   |   |   |   |   |   |   f974_binarized = 1
|   |   |   |   |   |   |   |   |   |   |   |   |   |   |   |   |   |   |   |   |   f877_binarized = 0
|   |   |   |   |   |   |   |   |   |   |   |   |   |   |   |   |   |   |   |   |   |   f62_binarized = 0: 22 (2.0)
|   |   |   |   |   |   |   |   |   |   |   |   |   |   |   |   |   |   |   |   |   |   f62_binarized = 1
|   |   |   |   |   |   |   |   |   |   |   |   |   |   |   |   |   |   |   |   |   |   |   f134_binarized = 0: 20 (2.0)
|   |   |   |   |   |   |   |   |   |   |   |   |   |   |   |   |   |   |   |   |   |   |   f134_binarized = 1
|   |   |   |   |   |   |   |   |   |   |   |   |   |   |   |   |   |   |   |   |   |   |   |   f280_binarized = 0
|   |   |   |   |   |   |   |   |   |   |   |   |   |   |   |   |   |   |   |   |   |   |   |   |   f494_binarized = 0: 29 (2.0)
|   |   |   |   |   |   |   |   |   |   |   |   |   |   |   |   |   |   |   |   |   |   |   |   |   f494_binarized = 1: 45 (4.0/1.0)
|   |   |   |   |   |   |   |   |   |   |   |   |   |   |   |   |   |   |   |   |   |   |   |   f280_binarized = 1
|   |   |   |   |   |   |   |   |   |   |   |   |   |   |   |   |   |   |   |   |   |   |   |   |   f693_binarized = 0
|   |   |   |   |   |   |   |   |   |   |   |   |   |   |   |   |   |   |   |   |   |   |   |   |   |   f911_binarized = 0: 27 (2.0)
|   |   |   |   |   |   |   |   |   |   |   |   |   |   |   |   |   |   |   |   |   |   |   |   |   |   f911_binarized = 1: 33 (2.0)
|   |   |   |   |   |   |   |   |   |   |   |   |   |   |   |   |   |   |   |   |   |   |   |   |   f693_binarized = 1
|   |   |   |   |   |   |   |   |   |   |   |   |   |   |   |   |   |   |   |   |   |   |   |   |   |   f632_binarized = 0: 27 (5.0)
|   |   |   |   |   |   |   |   |   |   |   |   |   |   |   |   |   |   |   |   |   |   |   |   |   |   f632_binarized = 1
|   |   |   |   |   |   |   |   |   |   |   |   |   |   |   |   |   |   |   |   |   |   |   |   |   |   |   f1010_binarized = 0: 27 (2.0)
|   |   |   |   |   |   |   |   |   |   |   |   |   |   |   |   |   |   |   |   |   |   |   |   |   |   |   f1010_binarized = 1: 36 (15.0/1.0)
|   |   |   |   |   |   |   |   |   |   |   |   |   |   |   |   |   |   |   |   |   f877_binarized = 1
|   |   |   |   |   |   |   |   |   |   |   |   |   |   |   |   |   |   |   |   |   |   f178_binarized = 0
|   |   |   |   |   |   |   |   |   |   |   |   |   |   |   |   |   |   |   |   |   |   |   f8_binarized = 0: 10 (2.0/1.0)
|   |   |   |   |   |   |   |   |   |   |   |   |   |   |   |   |   |   |   |   |   |   |   f8_binarized = 1
|   |   |   |   |   |   |   |   |   |   |   |   |   |   |   |   |   |   |   |   |   |   |   |   f338_binarized = 0: 37 (2.0)
|   |   |   |   |   |   |   |   |   |   |   |   |   |   |   |   |   |   |   |   |   |   |   |   f338_binarized = 1: 12 (2.0/1.0)
|   |   |   |   |   |   |   |   |   |   |   |   |   |   |   |   |   |   |   |   |   |   f178_binarized = 1
|   |   |   |   |   |   |   |   |   |   |   |   |   |   |   |   |   |   |   |   |   |   |   f371_binarized = 0
|   |   |   |   |   |   |   |   |   |   |   |   |   |   |   |   |   |   |   |   |   |   |   |   f59_binarized = 0
|   |   |   |   |   |   |   |   |   |   |   |   |   |   |   |   |   |   |   |   |   |   |   |   |   f106_binarized = 0: 12 (3.0)
|   |   |   |   |   |   |   |   |   |   |   |   |   |   |   |   |   |   |   |   |   |   |   |   |   f106_binarized = 1: 48 (4.0/1.0)
|   |   |   |   |   |   |   |   |   |   |   |   |   |   |   |   |   |   |   |   |   |   |   |   f59_binarized = 1
|   |   |   |   |   |   |   |   |   |   |   |   |   |   |   |   |   |   |   |   |   |   |   |   |   f71_binarized = 0: 23 (2.0)
|   |   |   |   |   |   |   |   |   |   |   |   |   |   |   |   |   |   |   |   |   |   |   |   |   f71_binarized = 1
|   |   |   |   |   |   |   |   |   |   |   |   |   |   |   |   |   |   |   |   |   |   |   |   |   |   f246_binarized = 0: 46 (2.0)
|   |   |   |   |   |   |   |   |   |   |   |   |   |   |   |   |   |   |   |   |   |   |   |   |   |   f246_binarized = 1
|   |   |   |   |   |   |   |   |   |   |   |   |   |   |   |   |   |   |   |   |   |   |   |   |   |   |   f405_binarized = 0: 47 (2.0)
|   |   |   |   |   |   |   |   |   |   |   |   |   |   |   |   |   |   |   |   |   |   |   |   |   |   |   f405_binarized = 1: 36 (5.0/1.0)
|   |   |   |   |   |   |   |   |   |   |   |   |   |   |   |   |   |   |   |   |   |   |   f371_binarized = 1
|   |   |   |   |   |   |   |   |   |   |   |   |   |   |   |   |   |   |   |   |   |   |   |   f683_binarized = 0
|   |   |   |   |   |   |   |   |   |   |   |   |   |   |   |   |   |   |   |   |   |   |   |   |   f66_binarized = 0: 46 (2.0)
|   |   |   |   |   |   |   |   |   |   |   |   |   |   |   |   |   |   |   |   |   |   |   |   |   f66_binarized = 1
|   |   |   |   |   |   |   |   |   |   |   |   |   |   |   |   |   |   |   |   |   |   |   |   |   |   f282_binarized = 0: 47 (2.0/1.0)
|   |   |   |   |   |   |   |   |   |   |   |   |   |   |   |   |   |   |   |   |   |   |   |   |   |   f282_binarized = 1
|   |   |   |   |   |   |   |   |   |   |   |   |   |   |   |   |   |   |   |   |   |   |   |   |   |   |   f817_binarized = 0: 36 (5.0)
|   |   |   |   |   |   |   |   |   |   |   |   |   |   |   |   |   |   |   |   |   |   |   |   |   |   |   f817_binarized = 1
|   |   |   |   |   |   |   |   |   |   |   |   |   |   |   |   |   |   |   |   |   |   |   |   |   |   |   |   f470_binarized = 0: 7 (7.0)
|   |   |   |   |   |   |   |   |   |   |   |   |   |   |   |   |   |   |   |   |   |   |   |   |   |   |   |   f470_binarized = 1
|   |   |   |   |   |   |   |   |   |   |   |   |   |   |   |   |   |   |   |   |   |   |   |   |   |   |   |   |   f88_binarized = 0: 7 (2.0/1.0)
|   |   |   |   |   |   |   |   |   |   |   |   |   |   |   |   |   |   |   |   |   |   |   |   |   |   |   |   |   f88_binarized = 1: 33 (24.0/1.0)
|   |   |   |   |   |   |   |   |   |   |   |   |   |   |   |   |   |   |   |   |   |   |   |   f683_binarized = 1
|   |   |   |   |   |   |   |   |   |   |   |   |   |   |   |   |   |   |   |   |   |   |   |   |   f13_binarized = 0
|   |   |   |   |   |   |   |   |   |   |   |   |   |   |   |   |   |   |   |   |   |   |   |   |   |   f11_binarized = 0: 13 (2.0/1.0)
|   |   |   |   |   |   |   |   |   |   |   |   |   |   |   |   |   |   |   |   |   |   |   |   |   |   f11_binarized = 1: 36 (4.0/1.0)
|   |   |   |   |   |   |   |   |   |   |   |   |   |   |   |   |   |   |   |   |   |   |   |   |   f13_binarized = 1
|   |   |   |   |   |   |   |   |   |   |   |   |   |   |   |   |   |   |   |   |   |   |   |   |   |   f779_binarized = 0
|   |   |   |   |   |   |   |   |   |   |   |   |   |   |   |   |   |   |   |   |   |   |   |   |   |   |   f31_binarized = 0: 23 (2.0/1.0)
|   |   |   |   |   |   |   |   |   |   |   |   |   |   |   |   |   |   |   |   |   |   |   |   |   |   |   f31_binarized = 1
|   |   |   |   |   |   |   |   |   |   |   |   |   |   |   |   |   |   |   |   |   |   |   |   |   |   |   |   f407_binarized = 0: 45 (3.0)
|   |   |   |   |   |   |   |   |   |   |   |   |   |   |   |   |   |   |   |   |   |   |   |   |   |   |   |   f407_binarized = 1
|   |   |   |   |   |   |   |   |   |   |   |   |   |   |   |   |   |   |   |   |   |   |   |   |   |   |   |   |   f685_binarized = 0: 22 (3.0)
|   |   |   |   |   |   |   |   |   |   |   |   |   |   |   |   |   |   |   |   |   |   |   |   |   |   |   |   |   f685_binarized = 1: 47 (4.0/1.0)
|   |   |   |   |   |   |   |   |   |   |   |   |   |   |   |   |   |   |   |   |   |   |   |   |   |   f779_binarized = 1
|   |   |   |   |   |   |   |   |   |   |   |   |   |   |   |   |   |   |   |   |   |   |   |   |   |   |   f1004_binarized = 0
|   |   |   |   |   |   |   |   |   |   |   |   |   |   |   |   |   |   |   |   |   |   |   |   |   |   |   |   f88_binarized = 0: 45 (4.0/1.0)
|   |   |   |   |   |   |   |   |   |   |   |   |   |   |   |   |   |   |   |   |   |   |   |   |   |   |   |   f88_binarized = 1: 20 (2.0/1.0)
|   |   |   |   |   |   |   |   |   |   |   |   |   |   |   |   |   |   |   |   |   |   |   |   |   |   |   f1004_binarized = 1
|   |   |   |   |   |   |   |   |   |   |   |   |   |   |   |   |   |   |   |   |   |   |   |   |   |   |   |   f1018_binarized = 0
|   |   |   |   |   |   |   |   |   |   |   |   |   |   |   |   |   |   |   |   |   |   |   |   |   |   |   |   |   f60_binarized = 0: 21 (2.0/1.0)
|   |   |   |   |   |   |   |   |   |   |   |   |   |   |   |   |   |   |   |   |   |   |   |   |   |   |   |   |   f60_binarized = 1
|   |   |   |   |   |   |   |   |   |   |   |   |   |   |   |   |   |   |   |   |   |   |   |   |   |   |   |   |   |   f298_binarized = 0: 31 (2.0/1.0)
|   |   |   |   |   |   |   |   |   |   |   |   |   |   |   |   |   |   |   |   |   |   |   |   |   |   |   |   |   |   f298_binarized = 1
|   |   |   |   |   |   |   |   |   |   |   |   |   |   |   |   |   |   |   |   |   |   |   |   |   |   |   |   |   |   |   f506_binarized = 0: 7 (4.0)
|   |   |   |   |   |   |   |   |   |   |   |   |   |   |   |   |   |   |   |   |   |   |   |   |   |   |   |   |   |   |   f506_binarized = 1
|   |   |   |   |   |   |   |   |   |   |   |   |   |   |   |   |   |   |   |   |   |   |   |   |   |   |   |   |   |   |   |   f494_binarized = 0: 34 (2.0)
|   |   |   |   |   |   |   |   |   |   |   |   |   |   |   |   |   |   |   |   |   |   |   |   |   |   |   |   |   |   |   |   f494_binarized = 1: 33 (5.0/1.0)
|   |   |   |   |   |   |   |   |   |   |   |   |   |   |   |   |   |   |   |   |   |   |   |   |   |   |   |   f1018_binarized = 1
|   |   |   |   |   |   |   |   |   |   |   |   |   |   |   |   |   |   |   |   |   |   |   |   |   |   |   |   |   f639_binarized = 0: 33 (2.0/1.0)
|   |   |   |   |   |   |   |   |   |   |   |   |   |   |   |   |   |   |   |   |   |   |   |   |   |   |   |   |   f639_binarized = 1
|   |   |   |   |   |   |   |   |   |   |   |   |   |   |   |   |   |   |   |   |   |   |   |   |   |   |   |   |   |   f192_binarized = 0: 22 (3.0/1.0)
|   |   |   |   |   |   |   |   |   |   |   |   |   |   |   |   |   |   |   |   |   |   |   |   |   |   |   |   |   |   f192_binarized = 1
|   |   |   |   |   |   |   |   |   |   |   |   |   |   |   |   |   |   |   |   |   |   |   |   |   |   |   |   |   |   |   f780_binarized = 0: 7 (2.0/1.0)
|   |   |   |   |   |   |   |   |   |   |   |   |   |   |   |   |   |   |   |   |   |   |   |   |   |   |   |   |   |   |   f780_binarized = 1
|   |   |   |   |   |   |   |   |   |   |   |   |   |   |   |   |   |   |   |   |   |   |   |   |   |   |   |   |   |   |   |   f969_binarized = 0
|   |   |   |   |   |   |   |   |   |   |   |   |   |   |   |   |   |   |   |   |   |   |   |   |   |   |   |   |   |   |   |   |   f24_binarized = 0: 13 (5.0)
|   |   |   |   |   |   |   |   |   |   |   |   |   |   |   |   |   |   |   |   |   |   |   |   |   |   |   |   |   |   |   |   |   f24_binarized = 1: 7 (9.0/1.0)
|   |   |   |   |   |   |   |   |   |   |   |   |   |   |   |   |   |   |   |   |   |   |   |   |   |   |   |   |   |   |   |   f969_binarized = 1
|   |   |   |   |   |   |   |   |   |   |   |   |   |   |   |   |   |   |   |   |   |   |   |   |   |   |   |   |   |   |   |   |   f510_binarized = 0: 7 (2.0)
|   |   |   |   |   |   |   |   |   |   |   |   |   |   |   |   |   |   |   |   |   |   |   |   |   |   |   |   |   |   |   |   |   f510_binarized = 1
|   |   |   |   |   |   |   |   |   |   |   |   |   |   |   |   |   |   |   |   |   |   |   |   |   |   |   |   |   |   |   |   |   |   f732_binarized = 0: 12 (3.0/2.0)
|   |   |   |   |   |   |   |   |   |   |   |   |   |   |   |   |   |   |   |   |   |   |   |   |   |   |   |   |   |   |   |   |   |   f732_binarized = 1
|   |   |   |   |   |   |   |   |   |   |   |   |   |   |   |   |   |   |   |   |   |   |   |   |   |   |   |   |   |   |   |   |   |   |   f24_binarized = 0: 20 (2.0/1.0)
|   |   |   |   |   |   |   |   |   |   |   |   |   |   |   |   |   |   |   |   |   |   |   |   |   |   |   |   |   |   |   |   |   |   |   f24_binarized = 1
|   |   |   |   |   |   |   |   |   |   |   |   |   |   |   |   |   |   |   |   |   |   |   |   |   |   |   |   |   |   |   |   |   |   |   |   f519_binarized = 0
|   |   |   |   |   |   |   |   |   |   |   |   |   |   |   |   |   |   |   |   |   |   |   |   |   |   |   |   |   |   |   |   |   |   |   |   |   f10_binarized = 0: 12 (2.0)
|   |   |   |   |   |   |   |   |   |   |   |   |   |   |   |   |   |   |   |   |   |   |   |   |   |   |   |   |   |   |   |   |   |   |   |   |   f10_binarized = 1: 13 (3.0)
|   |   |   |   |   |   |   |   |   |   |   |   |   |   |   |   |   |   |   |   |   |   |   |   |   |   |   |   |   |   |   |   |   |   |   |   f519_binarized = 1
|   |   |   |   |   |   |   |   |   |   |   |   |   |   |   |   |   |   |   |   |   |   |   |   |   |   |   |   |   |   |   |   |   |   |   |   |   f549_binarized = 0: 13 (8.0)
|   |   |   |   |   |   |   |   |   |   |   |   |   |   |   |   |   |   |   |   |   |   |   |   |   |   |   |   |   |   |   |   |   |   |   |   |   f549_binarized = 1
|   |   |   |   |   |   |   |   |   |   |   |   |   |   |   |   |   |   |   |   |   |   |   |   |   |   |   |   |   |   |   |   |   |   |   |   |   |   f355_binarized = 0: 13 (2.0)
|   |   |   |   |   |   |   |   |   |   |   |   |   |   |   |   |   |   |   |   |   |   |   |   |   |   |   |   |   |   |   |   |   |   |   |   |   |   f355_binarized = 1
|   |   |   |   |   |   |   |   |   |   |   |   |   |   |   |   |   |   |   |   |   |   |   |   |   |   |   |   |   |   |   |   |   |   |   |   |   |   |   f399_binarized = 0: 13 (2.0)
|   |   |   |   |   |   |   |   |   |   |   |   |   |   |   |   |   |   |   |   |   |   |   |   |   |   |   |   |   |   |   |   |   |   |   |   |   |   |   f399_binarized = 1
|   |   |   |   |   |   |   |   |   |   |   |   |   |   |   |   |   |   |   |   |   |   |   |   |   |   |   |   |   |   |   |   |   |   |   |   |   |   |   |   f64_binarized = 0: 46 (2.0)
|   |   |   |   |   |   |   |   |   |   |   |   |   |   |   |   |   |   |   |   |   |   |   |   |   |   |   |   |   |   |   |   |   |   |   |   |   |   |   |   f64_binarized = 1
|   |   |   |   |   |   |   |   |   |   |   |   |   |   |   |   |   |   |   |   |   |   |   |   |   |   |   |   |   |   |   |   |   |   |   |   |   |   |   |   |   f345_binarized = 0
|   |   |   |   |   |   |   |   |   |   |   |   |   |   |   |   |   |   |   |   |   |   |   |   |   |   |   |   |   |   |   |   |   |   |   |   |   |   |   |   |   |   f60_binarized = 0: 46 (6.0)
|   |   |   |   |   |   |   |   |   |   |   |   |   |   |   |   |   |   |   |   |   |   |   |   |   |   |   |   |   |   |   |   |   |   |   |   |   |   |   |   |   |   f60_binarized = 1: 21 (3.0)
|   |   |   |   |   |   |   |   |   |   |   |   |   |   |   |   |   |   |   |   |   |   |   |   |   |   |   |   |   |   |   |   |   |   |   |   |   |   |   |   |   f345_binarized = 1: 21 (17.0/2.0)

Number of Leaves  : 	472

Size of the tree : 	943


Time taken to build model: 1.04 seconds

=== Predictions on test set ===

    inst#     actual  predicted error prediction
        1      35:34      35:34       0.958 
        2      36:35      36:35       0.938 
        3      44:43      42:41   +   0.5 
        4        2:1        2:1       0.5 
        5      38:37      38:37       0.778 
        6        7:6        7:6       0.833 
        7      40:39      50:49   +   1 
        8      45:44      19:18   +   1 
        9      35:34      35:34       0.5 
       10      19:18      19:18       1 
       11      24:23      47:46   +   1 
       12      32:31        5:4   +   0.667 
       13      14:13      14:13       0.833 
       14      19:18      45:44   +   0.875 
       15      19:18        7:6   +   0.5 
       16      11:10      25:24   +   0.75 
       17      15:14      15:14       0.75 
       18      13:12      23:22   +   0.667 
       19        2:1      41:40   +   0.5 
       20      44:43      11:10   +   0.8 
       21      29:28      29:28       0.889 
       22      28:27      37:36   +   0.933 
       23      50:49      49:48   +   1 
       24      50:49      11:10   +   0.8 
       25      13:12      41:40   +   0.889 
       26      11:10      44:43   +   1 
       27      22:21      47:46   +   1 
       28      46:45      23:22   +   1 
       29      27:26        7:6   +   1 
       30      37:36      37:36       0.933 
       31      39:38        5:4   +   0.5 
       32      29:28      29:28       0.889 
       33      11:10      11:10       0.5 
       34      50:49      24:23   +   0.333 
       35      20:19      32:31   +   1 
       36        5:4        5:4       0.667 
       37      36:35      30:29   +   0.5 
       38      49:48      37:36   +   0.8 
       39        9:8      38:37   +   0.667 
       40      18:17      18:17       0.875 
       41      24:23      24:23       1 
       42        7:6      40:39   +   1 
       43      23:22        8:7   +   0.5 
       44      35:34      35:34       0.958 
       45      32:31      38:37   +   0.667 
       46      20:19      20:19       0.8 
       47      27:26      46:45   +   1 
       48        4:3        4:3       1 
       49      49:48      23:22   +   0.667 
       50        6:5      44:43   +   1 
       51      42:41      42:41       0.833 
       52      21:20      21:20       0.857 
       53      46:45      46:45       1 
       54      11:10      13:12   +   0.667 
       55      32:31      30:29   +   0.667 
       56      35:34      35:34       0.958 
       57      41:40      15:14   +   1 
       58      35:34      35:34       0.958 
       59      33:32      45:44   +   0.667 
       60      21:20      22:21   +   1 
       61      49:48      49:48       0.75 
       62       10:9        2:1   +   1 
       63      23:22      23:22       1 
       64      31:30      39:38   +   0.667 
       65      26:25      51:50   +   1 
       66      29:28      14:13   +   0.333 
       67      44:43      32:31   +   0.909 
       68      33:32      16:15   +   0.5 
       69      27:26      40:39   +   1 
       70        6:5      32:31   +   0.333 
       71      13:12      13:12       1 
       72      25:24      14:13   +   1 
       73       10:9        6:5   +   0.5 
       74      29:28      24:23   +   0.5 
       75      39:38      19:18   +   0.333 
       76        3:2        3:2       1 
       77      16:15      16:15       0.833 
       78      39:38      14:13   +   0.333 
       79      14:13      14:13       1 
       80      51:50      16:15   +   0.833 
       81        2:1      12:11   +   1 
       82      15:14      15:14       1 
       83      14:13      14:13       0.833 
       84      41:40      15:14   +   1 
       85      30:29      28:27   +   0.5 
       86        6:5      51:50   +   0.8 
       87      48:47      49:48   +   1 
       88        4:3        8:7   +   0.889 
       89      14:13      14:13       1 
       90      41:40      17:16   +   0.5 
       91        5:4      29:28   +   1 
       92        1:0        1:0       1 
       93        7:6        7:6       1 
       94        3:2        6:5   +   0.8 
       95        1:0      38:37   +   0.5 
       96      48:47      28:27   +   1 
       97      22:21      34:33   +   0.8 
       98      46:45      34:33   +   0.8 
       99      17:16      15:14   +   0.75 
      100        1:0      17:16   +   0.5 
      101      41:40      19:18   +   0.333 
      102      28:27      12:11   +   0.833 
      103      18:17      43:42   +   0.75 
      104      28:27      28:27       1 
      105      43:42      24:23   +   1 
      106      26:25      26:25       1 
      107      39:38      50:49   +   1 
      108      28:27      28:27       1 
      109      16:15      42:41   +   0.833 
      110      49:48      30:29   +   0.909 
      111      15:14        1:0   +   1 
      112      34:33      28:27   +   1 
      113       10:9        4:3   +   1 
      114      26:25      26:25       0.882 
      115      35:34      35:34       0.958 
      116       10:9      27:26   +   0.5 
      117      15:14        1:0   +   1 
      118      37:36      37:36       1 
      119      27:26      27:26       0.857 
      120      47:46      12:11   +   0.971 
      121        9:8        9:8       1 
      122      50:49      50:49       0.818 
      123        3:2        3:2       0.833 
      124        3:2      14:13   +   0.333 
      125      32:31      31:30   +   1 
      126        1:0      41:40   +   0.5 
      127      32:31      32:31       0.909 
      128      29:28      13:12   +   0.667 
      129      15:14      17:16   +   0.667 
      130      48:47      48:47       0.889 
      131      15:14      41:40   +   0.667 
      132      45:44      29:28   +   1 
      133      11:10      44:43   +   0.667 
      134      35:34      35:34       0.958 
      135      36:35      36:35       0.938 
      136      48:47      37:36   +   0.8 
      137      14:13        1:0   +   0.5 
      138      16:15      16:15       0.9 
      139      51:50      24:23   +   0.5 
      140      37:36      37:36       0.933 
      141      47:46      47:46       1 
      142      37:36      22:21   +   1 
      143      15:14        3:2   +   0.833 
      144      36:35      36:35       0.938 
      145      12:11      12:11       0.971 
      146      35:34      35:34       0.958 
      147      24:23      49:48   +   1 
      148      33:32      42:41   +   0.917 
      149      27:26        5:4   +   0.5 
      150        5:4        6:5   +   0.875 
      151      16:15      18:17   +   1 
      152      28:27      28:27       1 
      153        9:8      38:37   +   0.778 
      154      45:44      45:44       0.875 
      155      12:11      34:33   +   0.8 
      156      26:25      39:38   +   1 
      157      17:16      15:14   +   1 
      158        8:7      14:13   +   1 
      159      44:43      47:46   +   0.833 
      160      51:50      42:41   +   0.833 
      161      12:11      12:11       0.971 
      162       10:9       10:9       1 
      163        3:2        3:2       0.833 
      164      21:20      21:20       1 
      165      41:40      48:47   +   1 
      166      43:42      20:19   +   0.667 
      167        1:0        1:0       0.5 
      168        1:0      40:39   +   1 
      169       10:9      45:44   +   0.667 
      170      26:25      26:25       1 
      171      49:48      47:46   +   1 
      172      14:13      14:13       1 
      173      29:28      42:41   +   0.833 
      174      45:44      19:18   +   1 
      175        7:6        2:1   +   0.5 
      176      44:43        6:5   +   0.875 
      177      46:45      12:11   +   1 
      178        7:6      39:38   +   0.667 
      179      31:30      31:30       0.667 
      180      34:33      24:23   +   0.333 
      181      13:12      13:12       1 
      182      30:29      37:36   +   0.5 
      183      26:25      51:50   +   1 
      184      48:47      44:43   +   1 
      185        7:6      45:44   +   0.875 
      186      12:11      12:11       0.971 
      187      42:41      42:41       0.833 
      188        1:0      17:16   +   0.5 
      189      13:12      39:38   +   1 
      190      51:50        5:4   +   1 
      191      21:20      12:11   +   0.833 
      192      14:13        1:0   +   0.5 
      193        6:5        7:6   +   1 
      194      39:38      27:26   +   0.895 
      195        8:7       10:9   +   1 
      196      47:46      47:46       0.833 
      197      21:20      21:20       0.5 
      198      12:11      19:18   +   0.5 
      199      17:16      19:18   +   0.75 
      200        1:0        1:0       1 
      201      16:15        6:5   +   1 
      202      48:47      29:28   +   0.5 
      203      47:46      23:22   +   0.5 
      204      43:42      31:30   +   0.889 
      205      44:43        3:2   +   0.833 
      206        8:7        8:7       1 
      207      48:47      26:25   +   0.667 
      208      23:22      48:47   +   0.889 
      209      15:14      31:30   +   1 
      210       10:9       10:9       0.833 
      211      21:20      21:20       0.5 
      212      11:10      34:33   +   0.958 
      213      16:15      32:31   +   0.5 
      214      46:45        8:7   +   0.75 
      215      26:25      37:36   +   0.667 
      216      18:17      18:17       1 
      217      13:12      37:36   +   0.5 
      218      12:11      34:33   +   0.8 
      219      21:20      46:45   +   1 
      220      23:22      46:45   +   1 
      221        4:3       10:9   +   1 
      222      30:29      30:29       1 
      223      34:33      34:33       0.958 
      224        2:1        4:3   +   1 
      225      12:11      12:11       0.833 
      226      36:35      33:32   +   0.5 
      227      34:33        8:7   +   1 
      228      40:39      41:40   +   1 
      229      45:44      45:44       1 
      230      26:25        5:4   +   0.5 
      231      25:24      25:24       1 
      232      47:46      34:33   +   0.958 
      233      45:44      44:43   +   1 
      234      35:34      35:34       0.958 
      235      18:17      18:17       0.875 
      236      40:39      13:12   +   0.667 
      237      19:18        3:2   +   0.5 
      238      51:50      51:50       0.857 
      239      34:33      34:33       1 
      240      47:46      21:20   +   1 
      241      30:29      21:20   +   0.5 
      242      11:10      11:10       0.8 
      243        9:8      44:43   +   1 
      244       10:9        4:3   +   1 
      245      51:50      40:39   +   0.75 
      246      22:21      22:21       1 
      247      47:46      47:46       1 
      248      28:27      28:27       1 
      249      49:48      49:48       0.8 
      250      42:41      16:15   +   1 
      251      28:27      12:11   +   0.833 
      252        1:0      24:23   +   0.5 
      253      33:32        1:0   +   0.833 
      254      49:48      24:23   +   1 
      255      37:36      47:46   +   0.833 
      256      29:28        6:5   +   0.8 
      257      12:11      13:12   +   1 
      258      40:39      31:30   +   1 
      259        9:8      38:37   +   0.778 
      260      46:45      12:11   +   1 
      261      19:18      13:12   +   0.5 
      262        4:3        2:1   +   1 
      263        6:5      44:43   +   1 
      264      47:46      21:20   +   0.5 
      265      45:44      19:18   +   1 
      266      19:18      19:18       1 
      267      41:40      15:14   +   1 
      268      34:33      28:27   +   1 
      269      11:10      11:10       0.8 
      270      29:28      29:28       0.667 
      271      17:16      17:16       1 
      272      43:42      42:41   +   0.917 
      273      30:29      49:48   +   0.8 
      274      43:42        6:5   +   0.875 
      275      30:29        8:7   +   0.75 
      276        7:6      14:13   +   0.333 
      277      31:30      45:44   +   1 
      278      40:39        4:3   +   1 
      279      30:29      21:20   +   0.5 
      280      18:17      18:17       1 
      281      25:24      48:47   +   1 
      282      51:50      13:12   +   0.5 
      283        3:2      41:40   +   0.875 
      284      17:16      15:14   +   0.667 
      285      43:42      43:42       0.875 
      286      19:18      19:18       1 
      287      23:22      47:46   +   1 
      288      27:26        5:4   +   0.5 
      289      50:49      50:49       0.818 
      290       10:9      30:29   +   0.667 
      291      17:16      15:14   +   1 
      292      33:32      44:43   +   1 
      293      12:11      12:11       0.971 
      294      18:17        5:4   +   1 
      295      43:42      43:42       1 
      296      14:13      50:49   +   1 
      297      25:24      25:24       0.667 
      298      33:32      43:42   +   1 
      299        5:4       10:9   +   0.833 
      300        8:7        8:7       1 
      301      25:24      25:24       1 
      302      41:40      40:39   +   0.75 
      303      24:23      12:11   +   1 
      304      21:20       10:9   +   1 
      305      20:19      20:19       0.667 
      306      38:37      38:37       0.778 
      307        5:4        6:5   +   1 
      308      15:14        2:1   +   0.5 
      309      47:46      23:22   +   1 
      310      11:10      13:12   +   0.667 
      311      23:22      13:12   +   0.333 
      312      18:17      42:41   +   0.917 
      313      20:19      20:19       0.947 
      314      32:31      44:43   +   0.833 
      315      38:37      37:36   +   0.5 
      316      42:41      31:30   +   1 
      317      51:50      51:50       0.8 
      318      37:36      47:46   +   0.833 
      319      22:21      22:21       0.882 
      320        9:8        9:8       0.667 
      321      22:21      22:21       1 
      322      16:15      16:15       1 
      323      19:18      19:18       1 
      324      31:30      31:30       0.889 
      325        6:5      20:19   +   0.8 
      326        8:7        8:7       0.889 
      327      27:26      15:14   +   0.833 
      328      18:17      15:14   +   1 
      329        7:6        7:6       1 
      330      15:14      41:40   +   0.75 
      331      34:33      12:11   +   0.833 
      332       10:9        4:3   +   0.5 
      333      31:30      31:30       0.5 
      334      27:26      46:45   +   1 
      335      25:24      50:49   +   1 
      336      29:28        5:4   +   0.667 
      337        7:6        7:6       0.833 
      338      13:12      14:13   +   0.333 
      339      20:19      20:19       0.947 
      340      24:23      50:49   +   1 
      341      38:37      36:35   +   1 
      342      11:10      11:10       0.95 
      343      50:49      49:48   +   0.857 
      344      41:40      15:14   +   1 
      345      43:42      31:30   +   1 
      346      46:45        8:7   +   0.75 
      347        1:0      44:43   +   1 
      348      45:44      19:18   +   1 
      349        2:1      51:50   +   1 
      350      40:39      40:39       1 
      351      23:22      48:47   +   0.667 
      352      22:21      22:21       0.882 
      353      42:41      16:15   +   1 
      354       10:9       10:9       1 
      355        4:3      41:40   +   0.5 
      356      29:28      29:28       1 
      357        9:8      38:37   +   0.778 
      358      29:28      29:28       1 
      359      26:25        5:4   +   0.667 
      360      50:49      11:10   +   0.5 
      361        3:2        3:2       0.833 
      362      38:37      38:37       0.667 
      363      41:40      17:16   +   1 
      364      16:15      16:15       0.667 
      365      16:15      16:15       0.9 
      366      36:35      37:36   +   0.5 
      367        9:8        9:8       1 
      368      43:42      43:42       0.875 
      369      12:11      12:11       0.971 
      370        2:1      18:17   +   1 
      371      20:19        9:8   +   1 
      372      46:45      46:45       1 
      373        8:7      22:21   +   0.5 
      374      18:17      32:31   +   0.333 
      375      12:11      14:13   +   1 
      376      34:33      34:33       0.958 
      377      41:40      40:39   +   0.667 
      378      44:43      50:49   +   1 
      379      25:24      49:48   +   1 
      380      14:13      30:29   +   0.667 
      381      31:30      31:30       0.5 
      382      13:12      40:39   +   0.75 
      383        9:8      51:50   +   0.8 
      384      20:19      20:19       0.947 
      385      13:12      13:12       1 
      386      39:38      39:38       0.667 
      387      27:26      41:40   +   0.5 
      388      37:36      37:36       0.933 
      389      42:41      26:25   +   0.667 
      390      28:27      28:27       1 
      391      22:21      22:21       1 
      392        4:3      40:39   +   1 
      393      23:22      23:22       1 
      394      43:42      14:13   +   0.333 
      395      39:38      39:38       1 
      396      48:47      34:33   +   0.958 
      397      14:13      14:13       0.833 
      398      18:17      20:19   +   0.667 
      399      21:20      14:13   +   1 
      400        1:0        1:0       0.875 
      401      30:29      28:27   +   1 
      402      34:33      34:33       0.958 
      403      15:14      15:14       0.75 
      404      19:18      26:25   +   0.667 
      405      31:30        6:5   +   0.8 
      406      14:13      14:13       0.833 
      407        5:4        5:4       0.857 
      408      42:41      42:41       0.917 
      409      17:16        3:2   +   0.833 
      410        4:3       10:9   +   0.833 
      411      12:11      12:11       0.971 
      412        7:6        3:2   +   1 
      413      27:26      17:16   +   0.75 
      414      24:23      24:23       1 
      415        6:5      20:19   +   0.947 
      416      19:18      45:44   +   0.875 
      417      40:39      42:41   +   0.917 
      418      51:50      13:12   +   0.5 
      419        4:3        4:3       1 
      420        5:4      51:50   +   0.8 
      421      49:48      13:12   +   0.333 
      422      32:31        1:0   +   0.875 
      423        2:1      41:40   +   0.5 
      424      17:16      15:14   +   0.75 
      425        6:5      51:50   +   1 
      426      31:30        6:5   +   0.5 
      427        3:2        3:2       0.833 
      428      23:22        8:7   +   0.5 
      429        8:7      16:15   +   1 
      430      31:30      46:45   +   1 
      431      13:12      14:13   +   1 
      432        1:0      41:40   +   0.5 
      433      24:23      13:12   +   0.667 
      434      16:15      42:41   +   0.833 
      435        5:4      26:25   +   0.667 
      436        8:7        8:7       1 
      437      14:13      14:13       1 
      438      37:36      37:36       0.933 
      439      38:37      31:30   +   1 
      440      17:16      15:14   +   0.75 
      441      27:26      27:26       0.895 
      442      18:17      43:42   +   0.75 
      443      16:15      20:19   +   0.8 
      444      48:47        1:0   +   0.5 
